[{"children_left": [1, -1, 3, 4, 5, -1, -1, 8, 9, -1, -1, -1, 13, -1, -1], "children_right": [2, -1, 12, 7, 6, -1, -1, 11, 10, -1, -1, -1, 14, -1, -1], "feature": [1, -2, 21, 18, 13, -2, -2, 19, 21, -2, -2, -2, 17, -2, -2], "threshold": [-0.0030315601034089923, -2.0, 4.19136441109913e-07, 5.756557186487044e-07, -7.643575372640043e-06, -2.0, -2.0, -2.9442084041875205e-06, -6.6618036811405545e-06, -2.0, -2.0, -2.0, 2.4803878488910414e-06, -2.0, -2.0], "value": [[27.0, 34.0, 30.0], [27.0, 0.0, 0.0], [0.0, 34.0, 30.0], [0.0, 33.0, 14.0], [0.0, 32.0, 2.0], [0.0, 0.0, 2.0], [0.0, 32.0, 0.0], [0.0, 1.0, 12.0], [0.0, 1.0, 2.0], [0.0, 0.0, 2.0], [0.0, 1.0, 0.0], [0.0, 0.0, 10.0], [0.0, 1.0, 16.0], [0.0, 0.0, 16.0], [0.0, 1.0, 0.0]]}, {"children_left": [1, 2, 3, 4, -1, -1, -1, 8, 9, 10, -1, -1, -1, -1, 15, -1, 17, -1, -1], "children_right": [14, 7, 6, 5, -1, -1, -1, 13, 12, 11, -1, -1, -1, -1, 16, -1, 18, -1, -1], "feature": [4, 5, 0, 6, -2, -2, -2, 7, 14, 36, -2, -2, -2, -2, 20, -2, 15, -2, -2], "threshold": [1.475830799790856e-06, 8.605591617083519e-08, 0.976368635892868, 2.946371660073055e-05, -2.0, -2.0, -2.0, -1.581703054398531e-05, -7.712037813689676e-06, -1.9331896083940592e-08, -2.0, -2.0, -2.0, -2.0, -6.447368292583633e-07, -2.0, -1.8599062983071235e-06, -2.0, -2.0], "value": [[17.0, 37.0, 37.0], [17.0, 6.0, 27.0], [17.0, 5.0, 1.0], [0.0, 5.0, 1.0], [0.0, 0.0, 1.0], [0.0, 5.0, 0.0], [17.0, 0.0, 0.0], [0.0, 1.0, 26.0], [0.0, 1.0, 2.0], [0.0, 1.0, 1.0], [0.0, 0.0, 1.0], [0.0, 1.0, 0.0], [0.0, 0.0, 1.0], [0.0, 0.0, 24.0], [0.0, 31.0, 10.0], [0.0, 0.0, 9.0], [0.0, 31.0, 1.0], [0.0, 0.0, 1.0], [0.0, 31.0, 0.0]]}, {"children_left": [1, 2, 3, -1, 5, 6, -1, -1, -1, 10, -1, 12, -1, -1, 15, 16, -1, 18, 19, -1, -1, -1, 23, -1, -1], "children_right": [14, 9, 4, -1, 8, 7, -1, -1, -1, 11, -1, 13, -1, -1, 22, 17, -1, 21, 20, -1, -1, -1, 24, -1, -1], "feature": [10, 13, 27, -2, 6, 14, -2, -2, -2, 17, -2, 17, -2, -2, 23, 6, -2, 3, 36, -2, -2, -2, 3, -2, -2], "threshold": [4.940783782103608e-07, 8.540445151083986e-08, -1.123365226618489e-06, -2.0, 2.946371660073055e-05, 1.6993053804981173e-05, -2.0, -2.0, -2.0, -4.691107250209825e-06, -2.0, 2.9282168299005207e-06, -2.0, -2.0, -3.2899788493523374e-07, 4.6813538574497215e-05, -2.0, 8.324308328155894e-05, -1.9331896083940592e-08, -2.0, -2.0, -2.0, -3.8853095247759484e-05, -2.0, -2.0], "value": [[22.0, 31.0, 38.0], [22.0, 15.0, 15.0], [0.0, 15.0, 12.0], [0.0, 11.0, 0.0], [0.0, 4.0, 12.0], [0.0, 1.0, 12.0], [0.0, 0.0, 12.0], [0.0, 1.0, 0.0], [0.0, 3.0, 0.0], [22.0, 0.0, 3.0], [0.0, 0.0, 2.0], [22.0, 0.0, 1.0], [22.0, 0.0, 0.0], [0.0, 0.0, 1.0], [0.0, 16.0, 23.0], [0.0, 1.0, 18.0], [0.0, 0.0, 16.0], [0.0, 1.0, 2.0], [0.0, 1.0, 1.0], [0.0, 0.0, 1.0], [0.0, 1.0, 0.0], [0.0, 0.0, 1.0], [0.0, 15.0, 5.0], [0.0, 15.0, 0.0], [0.0, 0.0, 5.0]]}, {"children_left": [1, 2, 3, 4, 5, 6, -1, -1, -1, -1, -1, 12, -1, -1, -1], "children_right": [14, 11, 10, 9, 8, 7, -1, -1, -1, -1, -1, 13, -1, -1, -1], "feature": [0, 7, 24, 8, 3, 43, -2, -2, -2, -2, -2, 9, -2, -2, -2], "threshold": [0.9997520446777344, 4.094043077884635e-07, 6.167045683014294e-07, -9.21428272704361e-06, -4.964305117027834e-05, 1.2838932761383148e-07, -2.0, -2.0, -2.0, -2.0, -2.0, -2.2353096937877126e-05, -2.0, -2.0, -2.0], "value": [[19.0, 44.0, 28.0], [0.0, 44.0, 28.0], [0.0, 42.0, 9.0], [0.0, 42.0, 7.0], [0.0, 2.0, 7.0], [0.0, 2.0, 1.0], [0.0, 2.0, 0.0], [0.0, 0.0, 1.0], [0.0, 0.0, 6.0], [0.0, 40.0, 0.0], [0.0, 0.0, 2.0], [0.0, 2.0, 19.0], [0.0, 2.0, 0.0], [0.0, 0.0, 19.0], [19.0, 0.0, 0.0]]}, {"children_left": [1, 2, 3, -1, 5, 6, -1, -1, -1, -1, 11, 12, 13, -1, -1, -1, 17, 18, -1, -1, -1], "children_right": [10, 9, 4, -1, 8, 7, -1, -1, -1, -1, 16, 15, 14, -1, -1, -1, 20, 19, -1, -1, -1], "feature": [21, 0, 10, -2, 4, 42, -2, -2, -2, -2, 9, 23, 18, -2, -2, -2, 32, 25, -2, -2, -2], "threshold": [5.363724753237875e-08, 0.99973464012146, -4.0830165744409896e-05, -2.0, -4.219079528411385e-05, -6.30704335424781e-08, -2.0, -2.0, -2.0, -2.0, -7.026459059034096e-07, -3.339994350426423e-06, -1.5899919389994466e-06, -2.0, -2.0, -2.0, 5.248784731293199e-07, -1.9994661926148183e-07, -2.0, -2.0, -2.0], "value": [[21.0, 38.0, 32.0], [21.0, 2.0, 19.0], [0.0, 2.0, 19.0], [0.0, 1.0, 0.0], [0.0, 1.0, 19.0], [0.0, 1.0, 6.0], [0.0, 1.0, 0.0], [0.0, 0.0, 6.0], [0.0, 0.0, 13.0], [21.0, 0.0, 0.0], [0.0, 36.0, 13.0], [0.0, 2.0, 9.0], [0.0, 2.0, 3.0], [0.0, 0.0, 3.0], [0.0, 2.0, 0.0], [0.0, 0.0, 6.0], [0.0, 34.0, 4.0], [0.0, 34.0, 3.0], [0.0, 0.0, 3.0], [0.0, 34.0, 0.0], [0.0, 0.0, 1.0]]}, {"children_left": [1, 2, -1, 4, -1, -1, 7, 8, -1, -1, 11, 12, -1, -1, 15, -1, -1], "children_right": [6, 3, -1, 5, -1, -1, 10, 9, -1, -1, 14, 13, -1, -1, 16, -1, -1], "feature": [6, 30, -2, 28, -2, -2, 27, 24, -2, -2, 16, 24, -2, -2, 12, -2, -2], "threshold": [-7.656953737722461e-07, 9.887565877164661e-08, -2.0, -6.728490120622155e-08, -2.0, -2.0, -1.2073072142015917e-07, 1.1696882864953295e-05, -2.0, -2.0, -6.772136345034596e-07, 1.7379516208393397e-06, -2.0, -2.0, 3.847126322398253e-06, -2.0, -2.0], "value": [[17.0, 39.0, 35.0], [0.0, 1.0, 29.0], [0.0, 0.0, 25.0], [0.0, 1.0, 4.0], [0.0, 0.0, 4.0], [0.0, 1.0, 0.0], [17.0, 38.0, 6.0], [0.0, 34.0, 1.0], [0.0, 34.0, 0.0], [0.0, 0.0, 1.0], [17.0, 4.0, 5.0], [0.0, 4.0, 3.0], [0.0, 0.0, 3.0], [0.0, 4.0, 0.0], [17.0, 0.0, 2.0], [17.0, 0.0, 0.0], [0.0, 0.0, 2.0]]}, {"children_left": [1, 2, 3, 4, -1, 6, -1, -1, -1, -1, 11, -1, -1], "children_right": [10, 9, 8, 5, -1, 7, -1, -1, -1, -1, 12, -1, -1], "feature": [16, 0, 2, 17, -2, 5, -2, -2, -2, -2, 0, -2, -2], "threshold": [2.109354610979608e-07, 0.9997352659702301, -4.483676411837223e-05, -9.340174358385411e-07, -2.0, -1.2174903986306163e-05, -2.0, -2.0, -2.0, -2.0, 0.9996495246887207, -2.0, -2.0], "value": [[23.0, 38.0, 30.0], [23.0, 16.0, 21.0], [0.0, 16.0, 21.0], [0.0, 16.0, 4.0], [0.0, 14.0, 0.0], [0.0, 2.0, 4.0], [0.0, 2.0, 0.0], [0.0, 0.0, 4.0], [0.0, 0.0, 17.0], [23.0, 0.0, 0.0], [0.0, 22.0, 9.0], [0.0, 0.0, 9.0], [0.0, 22.0, 0.0]]}, {"children_left": [1, 2, 3, 4, -1, -1, -1, 8, 9, 10, -1, -1, -1, -1, -1], "children_right": [14, 7, 6, 5, -1, -1, -1, 13, 12, 11, -1, -1, -1, -1, -1], "feature": [0, 6, 7, 16, -2, -2, -2, 5, 23, 3, -2, -2, -2, -2, -2], "threshold": [0.9997520446777344, -7.571214943880022e-07, -2.0710373973997775e-05, -2.773121650534449e-06, -2.0, -2.0, -2.0, 1.0965327632561639e-06, 1.9669300499458586e-07, 8.016074571060017e-05, -2.0, -2.0, -2.0, -2.0, -2.0], "value": [[26.0, 34.0, 31.0], [0.0, 34.0, 31.0], [0.0, 2.0, 25.0], [0.0, 2.0, 1.0], [0.0, 0.0, 1.0], [0.0, 2.0, 0.0], [0.0, 0.0, 24.0], [0.0, 32.0, 6.0], [0.0, 32.0, 4.0], [0.0, 32.0, 1.0], [0.0, 32.0, 0.0], [0.0, 0.0, 1.0], [0.0, 0.0, 3.0], [0.0, 0.0, 2.0], [26.0, 0.0, 0.0]]}, {"children_left": [1, -1, 3, 4, 5, -1, -1, -1, 9, -1, -1], "children_right": [2, -1, 8, 7, 6, -1, -1, -1, 10, -1, -1], "feature": [1, -2, 7, 29, 13, -2, -2, -2, 24, -2, -2], "threshold": [-0.0030315601034089923, -2.0, 7.946257056801187e-07, 2.0658358934610987e-07, -1.649543901294237e-05, -2.0, -2.0, -2.0, 1.910746878497349e-06, -2.0, -2.0], "value": [[20.0, 38.0, 33.0], [20.0, 0.0, 0.0], [0.0, 38.0, 33.0], [0.0, 35.0, 10.0], [0.0, 35.0, 3.0], [0.0, 0.0, 3.0], [0.0, 35.0, 0.0], [0.0, 0.0, 7.0], [0.0, 3.0, 23.0], [0.0, 0.0, 23.0], [0.0, 3.0, 0.0]]}, {"children_left": [1, 2, 3, 4, -1, -1, -1, 8, -1, -1, 11, 12, -1, 14, -1, -1, 17, -1, -1], "children_right": [10, 7, 6, 5, -1, -1, -1, 9, -1, -1, 16, 13, -1, 15, -1, -1, 18, -1, -1], "feature": [23, 30, 4, 30, -2, -2, -2, 22, -2, -2, 8, 20, -2, 17, -2, -2, 0, -2, -2], "threshold": [-2.6456173429778573e-07, 1.1343528605323172e-07, -3.625627687142696e-05, -1.1503101937648808e-07, -2.0, -2.0, -2.0, -4.674821525441075e-06, -2.0, -2.0, -1.1060421911679441e-08, -6.447368292583633e-07, -2.0, -1.8683972541566618e-05, -2.0, -2.0, 0.9762687683105469, -2.0, -2.0], "value": [[12.0, 38.0, 41.0], [0.0, 2.0, 28.0], [0.0, 1.0, 27.0], [0.0, 1.0, 1.0], [0.0, 0.0, 1.0], [0.0, 1.0, 0.0], [0.0, 0.0, 26.0], [0.0, 1.0, 1.0], [0.0, 1.0, 0.0], [0.0, 0.0, 1.0], [12.0, 36.0, 13.0], [0.0, 36.0, 8.0], [0.0, 0.0, 6.0], [0.0, 36.0, 2.0], [0.0, 0.0, 2.0], [0.0, 36.0, 0.0], [12.0, 0.0, 5.0], [0.0, 0.0, 5.0], [12.0, 0.0, 0.0]]}, {"children_left": [1, -1, 3, 4, 5, -1, -1, -1, 9, -1, 11, -1, -1], "children_right": [2, -1, 8, 7, 6, -1, -1, -1, 10, -1, 12, -1, -1], "feature": [6, -2, 15, 4, 20, -2, -2, -2, 25, -2, 0, -2, -2], "threshold": [-7.616661079623555e-07, -2.0, -3.949095415123338e-07, -2.668506343539434e-05, -2.61978550497588e-06, -2.0, -2.0, -2.0, -2.0076890905329492e-07, -2.0, 0.9521744251251221, -2.0, -2.0], "value": [[22.0, 32.0, 37.0], [0.0, 0.0, 23.0], [22.0, 32.0, 14.0], [22.0, 3.0, 3.0], [0.0, 3.0, 3.0], [0.0, 3.0, 0.0], [0.0, 0.0, 3.0], [22.0, 0.0, 0.0], [0.0, 29.0, 11.0], [0.0, 0.0, 9.0], [0.0, 29.0, 2.0], [0.0, 0.0, 2.0], [0.0, 29.0, 0.0]]}, {"children_left": [1, 2, -1, 4, 5, 6, -1, -1, 9, -1, -1, 12, -1, -1, -1], "children_right": [14, 3, -1, 11, 8, 7, -1, -1, 10, -1, -1, 13, -1, -1, -1], "feature": [0, 11, -2, 14, 20, 26, -2, -2, 27, -2, -2, 0, -2, -2, -2], "threshold": [0.9997520446777344, -2.7638663269158315e-07, -2.0, -3.7277958142567513e-07, -3.498398939427716e-06, -6.383062576276188e-07, -2.0, -2.0, 4.8714289047069315e-08, -2.0, -2.0, 0.9514570534229279, -2.0, -2.0, -2.0], "value": [[20.0, 38.0, 33.0], [0.0, 38.0, 33.0], [0.0, 0.0, 9.0], [0.0, 38.0, 24.0], [0.0, 5.0, 23.0], [0.0, 4.0, 2.0], [0.0, 0.0, 2.0], [0.0, 4.0, 0.0], [0.0, 1.0, 21.0], [0.0, 1.0, 0.0], [0.0, 0.0, 21.0], [0.0, 33.0, 1.0], [0.0, 0.0, 1.0], [0.0, 33.0, 0.0], [20.0, 0.0, 0.0]]}, {"children_left": [1, 2, -1, 4, -1, 6, -1, -1, 9, -1, 11, -1, 13, -1, -1], "children_right": [8, 3, -1, 5, -1, 7, -1, -1, 10, -1, 12, -1, 14, -1, -1], "feature": [14, 6, -2, 32, -2, 34, -2, -2, 1, -2, 14, -2, 0, -2, -2], "threshold": [-3.7277958142567513e-07, 3.371746697666822e-05, -2.0, -2.9119430422497317e-08, -2.0, 1.2094503176740545e-08, -2.0, -2.0, -0.0030315601034089923, -2.0, 1.3036112989084359e-06, -2.0, 0.9530774354934692, -2.0, -2.0], "value": [[24.0, 26.0, 41.0], [0.0, 4.0, 31.0], [0.0, 0.0, 29.0], [0.0, 4.0, 2.0], [0.0, 3.0, 0.0], [0.0, 1.0, 2.0], [0.0, 1.0, 0.0], [0.0, 0.0, 2.0], [24.0, 22.0, 10.0], [24.0, 0.0, 0.0], [0.0, 22.0, 10.0], [0.0, 21.0, 0.0], [0.0, 1.0, 10.0], [0.0, 0.0, 10.0], [0.0, 1.0, 0.0]]}, {"children_left": [1, 2, 3, -1, 5, -1, -1, 8, -1, 10, -1, -1, 13, -1, -1], "children_right": [12, 7, 4, -1, 6, -1, -1, 9, -1, 11, -1, -1, 14, -1, -1], "feature": [9, 4, 9, -2, 14, -2, -2, 10, -2, 26, -2, -2, 0, -2, -2], "threshold": [1.2064581937920593e-06, 1.475830799790856e-06, -2.23918150368263e-05, -2.0, 2.733636210905388e-05, -2.0, -2.0, 9.76360297499923e-07, -2.0, -3.505633401346131e-07, -2.0, -2.0, 0.9763497710227966, -2.0, -2.0], "value": [[18.0, 39.0, 34.0], [0.0, 39.0, 29.0], [0.0, 3.0, 23.0], [0.0, 2.0, 0.0], [0.0, 1.0, 23.0], [0.0, 0.0, 23.0], [0.0, 1.0, 0.0], [0.0, 36.0, 6.0], [0.0, 20.0, 0.0], [0.0, 16.0, 6.0], [0.0, 0.0, 6.0], [0.0, 16.0, 0.0], [18.0, 0.0, 5.0], [0.0, 0.0, 5.0], [18.0, 0.0, 0.0]]}, {"children_left": [1, 2, 3, -1, -1, 6, 7, -1, -1, -1, 11, 12, -1, -1, 15, 16, 17, -1, -1, -1, -1], "children_right": [10, 5, 4, -1, -1, 9, 8, -1, -1, -1, 14, 13, -1, -1, 20, 19, 18, -1, -1, -1, -1], "feature": [23, 7, 20, -2, -2, 25, 20, -2, -2, -2, 23, 10, -2, -2, 15, 14, 22, -2, -2, -2, -2], "threshold": [-2.7491056187045615e-07, -1.2790250821126392e-05, 1.3828925375491963e-05, -2.0, -2.0, -2.008189824209694e-06, 1.010115511235199e-06, -2.0, -2.0, -2.0, 1.2906120261391152e-07, -1.3774649858078192e-05, -2.0, -2.0, -4.3177841035912934e-07, 1.2873392108758708e-05, 4.590644380186859e-07, -2.0, -2.0, -2.0, -2.0], "value": [[14.0, 34.0, 43.0], [0.0, 5.0, 31.0], [0.0, 3.0, 2.0], [0.0, 3.0, 0.0], [0.0, 0.0, 2.0], [0.0, 2.0, 29.0], [0.0, 2.0, 5.0], [0.0, 2.0, 0.0], [0.0, 0.0, 5.0], [0.0, 0.0, 24.0], [14.0, 29.0, 12.0], [0.0, 29.0, 2.0], [0.0, 0.0, 2.0], [0.0, 29.0, 0.0], [14.0, 0.0, 10.0], [14.0, 0.0, 3.0], [14.0, 0.0, 1.0], [14.0, 0.0, 0.0], [0.0, 0.0, 1.0], [0.0, 0.0, 2.0], [0.0, 0.0, 7.0]]}, {"children_left": [1, 2, -1, 4, -1, -1, 7, -1, 9, 10, -1, -1, 13, -1, -1], "children_right": [6, 3, -1, 5, -1, -1, 8, -1, 12, 11, -1, -1, 14, -1, -1], "feature": [27, 24, -2, 19, -2, -2, 12, -2, 15, 12, -2, -2, 25, -2, -2], "threshold": [-1.2073072142015917e-07, -8.223846919008793e-07, -2.0, -8.750218356112782e-06, -2.0, -2.0, 2.978117059626584e-07, -2.0, -1.8278679192462732e-06, 1.552022422401933e-05, -2.0, -2.0, -3.7534429750962772e-06, -2.0, -2.0], "value": [[20.0, 33.0, 38.0], [0.0, 30.0, 4.0], [0.0, 0.0, 3.0], [0.0, 30.0, 1.0], [0.0, 0.0, 1.0], [0.0, 30.0, 0.0], [20.0, 3.0, 34.0], [0.0, 0.0, 30.0], [20.0, 3.0, 4.0], [0.0, 3.0, 3.0], [0.0, 0.0, 3.0], [0.0, 3.0, 0.0], [20.0, 0.0, 1.0], [0.0, 0.0, 1.0], [20.0, 0.0, 0.0]]}, {"children_left": [1, 2, 3, 4, -1, -1, -1, 8, -1, -1, 11, 12, 13, -1, -1, -1, -1], "children_right": [10, 7, 6, 5, -1, -1, -1, 9, -1, -1, 16, 15, 14, -1, -1, -1, -1], "feature": [9, 17, 26, 1, -2, -2, -2, 1, -2, -2, 3, 7, 42, -2, -2, -2, -2], "threshold": [1.2053188811478321e-06, 2.9702669124276326e-07, 1.106513536797138e-06, 0.0046882235910743475, -2.0, -2.0, -2.0, 0.004501601681113243, -2.0, -2.0, 4.104438119156839e-05, -1.0685862605441798e-05, 1.0174227327297558e-07, -2.0, -2.0, -2.0, -2.0], "value": [[27.0, 29.0, 35.0], [0.0, 28.0, 30.0], [0.0, 8.0, 28.0], [0.0, 8.0, 8.0], [0.0, 0.0, 8.0], [0.0, 8.0, 0.0], [0.0, 0.0, 20.0], [0.0, 20.0, 2.0], [0.0, 20.0, 0.0], [0.0, 0.0, 2.0], [27.0, 1.0, 5.0], [27.0, 1.0, 1.0], [0.0, 1.0, 1.0], [0.0, 1.0, 0.0], [0.0, 0.0, 1.0], [27.0, 0.0, 0.0], [0.0, 0.0, 4.0]]}, {"children_left": [1, 2, 3, 4, -1, -1, 7, -1, -1, 10, -1, -1, 13, -1, -1], "children_right": [12, 9, 6, 5, -1, -1, 8, -1, -1, 11, -1, -1, 14, -1, -1], "feature": [7, 23, 3, 42, -2, -2, 24, -2, -2, 22, -2, -2, 4, -2, -2], "threshold": [5.485808145522242e-07, 1.6157211391032433e-07, 1.3931526424926233e-05, 2.015931777066271e-07, -2.0, -2.0, -1.0076151397697686e-05, -2.0, -2.0, -2.5903096201318476e-07, -2.0, -2.0, -4.6054954509600066e-05, -2.0, -2.0], "value": [[25.0, 31.0, 35.0], [25.0, 29.0, 14.0], [0.0, 29.0, 6.0], [0.0, 28.0, 1.0], [0.0, 28.0, 0.0], [0.0, 0.0, 1.0], [0.0, 1.0, 5.0], [0.0, 1.0, 0.0], [0.0, 0.0, 5.0], [25.0, 0.0, 8.0], [25.0, 0.0, 0.0], [0.0, 0.0, 8.0], [0.0, 2.0, 21.0], [0.0, 2.0, 0.0], [0.0, 0.0, 21.0]]}, {"children_left": [1, -1, 3, 4, 5, -1, 7, -1, -1, 10, -1, -1, 13, 14, -1, 16, -1, -1, -1], "children_right": [2, -1, 12, 9, 6, -1, 8, -1, -1, 11, -1, -1, 18, 15, -1, 17, -1, -1, -1], "feature": [34, -2, 8, 18, 21, -2, 8, -2, -2, 37, -2, -2, 6, 25, -2, 16, -2, -2, -2], "threshold": [-4.4405184951301635e-07, -2.0, 7.178727230439108e-07, 5.801919087389251e-07, 5.742458739632639e-07, -2.0, -2.1410512090369593e-05, -2.0, -2.0, -1.3737074455733023e-07, -2.0, -2.0, 8.34540060168365e-06, 6.602611968276051e-07, -2.0, 4.446801995072747e-06, -2.0, -2.0, -2.0], "value": [[20.0, 37.0, 34.0], [1.0, 0.0, 0.0], [19.0, 37.0, 34.0], [0.0, 36.0, 26.0], [0.0, 35.0, 11.0], [0.0, 32.0, 0.0], [0.0, 3.0, 11.0], [0.0, 3.0, 0.0], [0.0, 0.0, 11.0], [0.0, 1.0, 15.0], [0.0, 1.0, 0.0], [0.0, 0.0, 15.0], [19.0, 1.0, 8.0], [19.0, 1.0, 2.0], [19.0, 0.0, 0.0], [0.0, 1.0, 2.0], [0.0, 0.0, 2.0], [0.0, 1.0, 0.0], [0.0, 0.0, 6.0]]}, {"children_left": [1, 2, 3, -1, -1, 6, -1, 8, -1, -1, 11, -1, 13, -1, -1], "children_right": [10, 5, 4, -1, -1, 7, -1, 9, -1, -1, 12, -1, 14, -1, -1], "feature": [4, 6, 16, -2, -2, 26, -2, 6, -2, -2, 9, -2, 26, -2, -2], "threshold": [1.475830799790856e-06, 5.302856038724713e-07, 6.4759460300933824e-06, -2.0, -2.0, -1.4373888141960833e-06, -2.0, 4.196826193947345e-05, -2.0, -2.0, -1.4111900014768253e-05, -2.0, -3.4036359863875987e-07, -2.0, -2.0], "value": [[19.0, 43.0, 29.0], [19.0, 5.0, 24.0], [0.0, 2.0, 22.0], [0.0, 0.0, 22.0], [0.0, 2.0, 0.0], [19.0, 3.0, 2.0], [19.0, 0.0, 0.0], [0.0, 3.0, 2.0], [0.0, 0.0, 2.0], [0.0, 3.0, 0.0], [0.0, 38.0, 5.0], [0.0, 0.0, 2.0], [0.0, 38.0, 3.0], [0.0, 0.0, 3.0], [0.0, 38.0, 0.0]]}, {"children_left": [-1], "children_right": [-1], "feature": [-2], "threshold": [-2.0], "value": [[21.0, 41.0, 29.0]]}, {"children_left": [1, 2, -1, 4, -1, -1, 7, 8, 9, 10, -1, -1, 13, 14, -1, -1, -1, -1, -1], "children_right": [6, 3, -1, 5, -1, -1, 18, 17, 12, 11, -1, -1, 16, 15, -1, -1, -1, -1, -1], "feature": [8, 21, -2, 29, -2, -2, 42, 20, 6, 11, -2, -2, 35, 3, -2, -2, -2, -2, -2], "threshold": [-5.949965498075471e-07, 4.012129650732277e-08, -2.0, 2.1867149868626257e-07, -2.0, -2.0, 6.772466876192595e-08, -1.6757336140926782e-07, -8.336738574143965e-06, 9.822269475989742e-06, -2.0, -2.0, 1.0390927052128518e-07, 3.7737175944130286e-06, -2.0, -2.0, -2.0, -2.0, -2.0], "value": [[23.0, 42.0, 26.0], [0.0, 40.0, 7.0], [0.0, 0.0, 6.0], [0.0, 40.0, 1.0], [0.0, 40.0, 0.0], [0.0, 0.0, 1.0], [23.0, 2.0, 19.0], [17.0, 2.0, 19.0], [17.0, 2.0, 8.0], [0.0, 2.0, 6.0], [0.0, 0.0, 6.0], [0.0, 2.0, 0.0], [17.0, 0.0, 2.0], [15.0, 0.0, 2.0], [15.0, 0.0, 0.0], [0.0, 0.0, 2.0], [2.0, 0.0, 0.0], [0.0, 0.0, 11.0], [6.0, 0.0, 0.0]]}, {"children_left": [1, -1, 3, -1, 5, 6, 7, -1, 9, -1, -1, -1, 13, -1, 15, -1, -1], "children_right": [2, -1, 4, -1, 12, 11, 8, -1, 10, -1, -1, -1, 14, -1, 16, -1, -1], "feature": [1, -2, 11, -2, 21, 14, 17, -2, 16, -2, -2, -2, 21, -2, 15, -2, -2], "threshold": [-0.0030315644107759, -2.0, -2.7690656523304824e-07, -2.0, 3.8999129259309484e-08, 1.6993053804981173e-05, 7.744552767974255e-07, -2.0, 5.554985591516015e-06, -2.0, -2.0, -2.0, 5.534805183060598e-07, -2.0, -1.5601818468269357e-06, -2.0, -2.0], "value": [[16.0, 36.0, 39.0], [16.0, 0.0, 0.0], [0.0, 36.0, 39.0], [0.0, 0.0, 15.0], [0.0, 36.0, 24.0], [0.0, 3.0, 15.0], [0.0, 1.0, 15.0], [0.0, 0.0, 14.0], [0.0, 1.0, 1.0], [0.0, 0.0, 1.0], [0.0, 1.0, 0.0], [0.0, 2.0, 0.0], [0.0, 33.0, 9.0], [0.0, 30.0, 0.0], [0.0, 3.0, 9.0], [0.0, 3.0, 0.0], [0.0, 0.0, 9.0]]}, {"children_left": [1, 2, 3, 4, -1, -1, -1, 8, -1, -1, 11, 12, -1, -1, -1], "children_right": [10, 7, 6, 5, -1, -1, -1, 9, -1, -1, 14, 13, -1, -1, -1], "feature": [8, 21, 29, 7, -2, -2, -2, 3, -2, -2, 0, 10, -2, -2, -2], "threshold": [2.852640790251826e-07, 4.19136441109913e-07, 1.4990743384402094e-06, 1.3713022056549562e-05, -2.0, -2.0, -2.0, 3.602037352834486e-05, -2.0, -2.0, 0.9765675067901611, -4.0830165744409896e-05, -2.0, -2.0, -2.0], "value": [[27.0, 35.0, 29.0], [0.0, 33.0, 21.0], [0.0, 32.0, 8.0], [0.0, 32.0, 2.0], [0.0, 32.0, 0.0], [0.0, 0.0, 2.0], [0.0, 0.0, 6.0], [0.0, 1.0, 13.0], [0.0, 0.0, 13.0], [0.0, 1.0, 0.0], [27.0, 2.0, 8.0], [0.0, 2.0, 8.0], [0.0, 2.0, 0.0], [0.0, 0.0, 8.0], [27.0, 0.0, 0.0]]}, {"children_left": [1, -1, 3, 4, 5, -1, -1, 8, -1, -1, 11, -1, 13, -1, -1], "children_right": [2, -1, 10, 7, 6, -1, -1, 9, -1, -1, 12, -1, 14, -1, -1], "feature": [1, -2, 4, 7, 2, -2, -2, 0, -2, -2, 20, -2, 18, -2, -2], "threshold": [-0.0030315646436065435, -2.0, 1.4781404047425895e-06, 2.7502337616169825e-05, 0.0002618537509988528, -2.0, -2.0, 0.9524960815906525, -2.0, -2.0, -6.447368292583633e-07, -2.0, 6.220081644414677e-06, -2.0, -2.0], "value": [[23.0, 35.0, 33.0], [23.0, 0.0, 0.0], [0.0, 35.0, 33.0], [0.0, 3.0, 28.0], [0.0, 1.0, 26.0], [0.0, 0.0, 26.0], [0.0, 1.0, 0.0], [0.0, 2.0, 2.0], [0.0, 0.0, 2.0], [0.0, 2.0, 0.0], [0.0, 32.0, 5.0], [0.0, 0.0, 4.0], [0.0, 32.0, 1.0], [0.0, 32.0, 0.0], [0.0, 0.0, 1.0]]}, {"children_left": [1, 2, -1, 4, -1, -1, 7, 8, 9, -1, 11, -1, 13, -1, -1, -1, -1], "children_right": [6, 3, -1, 5, -1, -1, 16, 15, 10, -1, 12, -1, 14, -1, -1, -1, -1], "feature": [21, 21, -2, 5, -2, -2, 18, 29, 21, -2, 17, -2, 26, -2, -2, -2, -2], "threshold": [-2.6161503541288766e-07, -1.368446675087398e-06, -2.0, -3.478518186739166e-05, -2.0, -2.0, 6.041082656338403e-07, 2.0431198421988483e-07, 5.534805183060598e-07, -2.0, 2.507249661221067e-06, -2.0, -6.371015750517017e-07, -2.0, -2.0, -2.0, -2.0], "value": [[23.0, 29.0, 39.0], [23.0, 0.0, 7.0], [0.0, 0.0, 5.0], [23.0, 0.0, 2.0], [0.0, 0.0, 2.0], [23.0, 0.0, 0.0], [0.0, 29.0, 32.0], [0.0, 29.0, 14.0], [0.0, 29.0, 6.0], [0.0, 26.0, 0.0], [0.0, 3.0, 6.0], [0.0, 0.0, 3.0], [0.0, 3.0, 3.0], [0.0, 0.0, 3.0], [0.0, 3.0, 0.0], [0.0, 0.0, 8.0], [0.0, 0.0, 18.0]]}, {"children_left": [1, 2, 3, -1, -1, -1, 7, 8, 9, -1, -1, -1, 13, -1, 15, -1, -1], "children_right": [6, 5, 4, -1, -1, -1, 12, 11, 10, -1, -1, -1, 14, -1, 16, -1, -1], "feature": [20, 0, 21, -2, -2, -2, 23, 4, 35, -2, -2, -2, 10, -2, 22, -2, -2], "threshold": [-5.214176326262532e-07, 0.976368635892868, 1.0436500303967478e-06, -2.0, -2.0, -2.0, -2.7491056187045615e-07, -3.6235451261745766e-05, -5.3168138336445736e-08, -2.0, -2.0, -2.0, -2.5393275706164786e-05, -2.0, -2.3502161070609873e-06, -2.0, -2.0], "value": [[20.0, 38.0, 33.0], [20.0, 2.0, 11.0], [0.0, 2.0, 11.0], [0.0, 0.0, 11.0], [0.0, 2.0, 0.0], [20.0, 0.0, 0.0], [0.0, 36.0, 22.0], [0.0, 1.0, 19.0], [0.0, 1.0, 2.0], [0.0, 0.0, 2.0], [0.0, 1.0, 0.0], [0.0, 0.0, 17.0], [0.0, 35.0, 3.0], [0.0, 0.0, 2.0], [0.0, 35.0, 1.0], [0.0, 0.0, 1.0], [0.0, 35.0, 0.0]]}, {"children_left": [1, -1, 3, 4, 5, -1, -1, 8, -1, -1, -1], "children_right": [2, -1, 10, 7, 6, -1, -1, 9, -1, -1, -1], "feature": [26, -2, 18, 21, 9, -2, -2, 25, -2, -2, -2], "threshold": [-2.1330784534256964e-06, -2.0, 6.117148529938277e-07, 5.66891699804728e-07, 9.712343569390214e-06, -2.0, -2.0, -1.426703704510146e-06, -2.0, -2.0, -2.0], "value": [[24.0, 36.0, 31.0], [24.0, 0.0, 0.0], [0.0, 36.0, 31.0], [0.0, 36.0, 15.0], [0.0, 34.0, 2.0], [0.0, 34.0, 0.0], [0.0, 0.0, 2.0], [0.0, 2.0, 13.0], [0.0, 2.0, 0.0], [0.0, 0.0, 13.0], [0.0, 0.0, 16.0]]}, {"children_left": [1, 2, -1, 4, -1, -1, 7, -1, 9, -1, -1], "children_right": [6, 3, -1, 5, -1, -1, 8, -1, 10, -1, -1], "feature": [14, 6, -2, 28, -2, -2, 26, -2, 26, -2, -2], "threshold": [8.628576040337066e-07, -7.686661476213885e-07, -2.0, 3.0645587116850947e-06, -2.0, -2.0, -1.4186796963855386e-06, -2.0, 2.6165002608991017e-08, -2.0, -2.0], "value": [[29.0, 30.0, 32.0], [0.0, 28.0, 27.0], [0.0, 0.0, 20.0], [0.0, 28.0, 7.0], [0.0, 28.0, 0.0], [0.0, 0.0, 7.0], [29.0, 2.0, 5.0], [29.0, 0.0, 0.0], [0.0, 2.0, 5.0], [0.0, 2.0, 0.0], [0.0, 0.0, 5.0]]}, {"children_left": [1, 2, 3, -1, -1, 6, 7, -1, -1, 10, -1, -1, -1], "children_right": [12, 5, 4, -1, -1, 9, 8, -1, -1, 11, -1, -1, -1], "feature": [0, 27, 17, -2, -2, 3, 16, -2, -2, 9, -2, -2, -2], "threshold": [0.9997520446777344, -1.0669235184224135e-07, 3.3557926428784413e-06, -2.0, -2.0, -4.964702748111449e-05, 5.554985591516015e-06, -2.0, -2.0, -1.897696165542584e-05, -2.0, -2.0, -2.0], "value": [[27.0, 33.0, 31.0], [0.0, 33.0, 31.0], [0.0, 29.0, 4.0], [0.0, 29.0, 0.0], [0.0, 0.0, 4.0], [0.0, 4.0, 27.0], [0.0, 2.0, 1.0], [0.0, 0.0, 1.0], [0.0, 2.0, 0.0], [0.0, 2.0, 26.0], [0.0, 2.0, 0.0], [0.0, 0.0, 26.0], [27.0, 0.0, 0.0]]}, {"children_left": [1, 2, 3, -1, 5, 6, 7, -1, -1, -1, -1, -1, -1], "children_right": [12, 11, 4, -1, 10, 9, 8, -1, -1, -1, -1, -1, -1], "feature": [0, 27, 11, -2, 16, 42, 3, -2, -2, -2, -2, -2, -2], "threshold": [0.9997520446777344, 2.765055278075579e-07, -2.7638663269158315e-07, -2.0, 2.7740035420720233e-05, 2.0072621609301677e-07, 8.016074571060017e-05, -2.0, -2.0, -2.0, -2.0, -2.0, -2.0], "value": [[24.0, 31.0, 36.0], [0.0, 31.0, 36.0], [0.0, 31.0, 14.0], [0.0, 0.0, 9.0], [0.0, 31.0, 5.0], [0.0, 31.0, 2.0], [0.0, 31.0, 1.0], [0.0, 31.0, 0.0], [0.0, 0.0, 1.0], [0.0, 0.0, 1.0], [0.0, 0.0, 3.0], [0.0, 0.0, 22.0], [24.0, 0.0, 0.0]]}, {"children_left": [1, 2, -1, 4, -1, 6, 7, -1, -1, -1, 11, -1, 13, -1, 15, -1, -1], "children_right": [10, 3, -1, 5, -1, 9, 8, -1, -1, -1, 12, -1, 14, -1, 16, -1, -1], "feature": [9, 30, -2, 6, -2, 4, 11, -2, -2, -2, 5, -2, 2, -2, 0, -2, -2], "threshold": [1.2053188811478321e-06, -5.558085121037948e-07, -2.0, -2.090042748648102e-06, -2.0, 6.291045428952202e-05, -2.7690656523304824e-07, -2.0, -2.0, -2.0, 9.508233489441409e-07, -2.0, 2.9881935915909708e-05, -2.0, 0.9529402554035187, -2.0, -2.0], "value": [[24.0, 34.0, 33.0], [0.0, 33.0, 31.0], [0.0, 0.0, 15.0], [0.0, 33.0, 16.0], [0.0, 0.0, 8.0], [0.0, 33.0, 8.0], [0.0, 33.0, 4.0], [0.0, 0.0, 4.0], [0.0, 33.0, 0.0], [0.0, 0.0, 4.0], [24.0, 1.0, 2.0], [24.0, 0.0, 0.0], [0.0, 1.0, 2.0], [0.0, 0.0, 1.0], [0.0, 1.0, 1.0], [0.0, 1.0, 0.0], [0.0, 0.0, 1.0]]}, {"children_left": [1, 2, 3, 4, -1, -1, 7, -1, -1, 10, -1, -1, 13, -1, -1], "children_right": [12, 9, 6, 5, -1, -1, 8, -1, -1, 11, -1, -1, 14, -1, -1], "feature": [14, 4, 5, 6, -2, -2, 27, -2, -2, 29, -2, -2, 0, -2, -2], "threshold": [8.152110808623547e-07, 1.475830799790856e-06, -8.004783950354977e-06, 5.405670890468173e-06, -2.0, -2.0, 4.8714289047069315e-08, -2.0, -2.0, 2.1867149868626257e-07, -2.0, -2.0, 0.9762687683105469, -2.0, -2.0], "value": [[28.0, 37.0, 26.0], [0.0, 37.0, 21.0], [0.0, 4.0, 19.0], [0.0, 3.0, 1.0], [0.0, 0.0, 1.0], [0.0, 3.0, 0.0], [0.0, 1.0, 18.0], [0.0, 1.0, 0.0], [0.0, 0.0, 18.0], [0.0, 33.0, 2.0], [0.0, 33.0, 0.0], [0.0, 0.0, 2.0], [28.0, 0.0, 5.0], [0.0, 0.0, 5.0], [28.0, 0.0, 0.0]]}, {"children_left": [1, -1, 3, -1, 5, 6, 7, 8, -1, -1, -1, -1, -1], "children_right": [2, -1, 4, -1, 12, 11, 10, 9, -1, -1, -1, -1, -1], "feature": [1, -2, 30, -2, 24, 18, 14, 23, -2, -2, -2, -2, -2], "threshold": [-0.003031558939255774, -2.0, -5.546010370949261e-07, -2.0, 5.464983132696943e-06, 6.142233672790098e-07, -3.7205830949460506e-07, -3.339994350426423e-06, -2.0, -2.0, -2.0, -2.0, -2.0], "value": [[20.0, 37.0, 34.0], [20.0, 0.0, 0.0], [0.0, 37.0, 34.0], [0.0, 0.0, 16.0], [0.0, 37.0, 18.0], [0.0, 37.0, 13.0], [0.0, 37.0, 6.0], [0.0, 4.0, 6.0], [0.0, 4.0, 0.0], [0.0, 0.0, 6.0], [0.0, 33.0, 0.0], [0.0, 0.0, 7.0], [0.0, 0.0, 5.0]]}, {"children_left": [1, -1, 3, 4, -1, 6, -1, -1, 9, -1, 11, -1, -1], "children_right": [2, -1, 8, 5, -1, 7, -1, -1, 10, -1, 12, -1, -1], "feature": [1, -2, 7, 25, -2, 27, -2, -2, 21, -2, 14, -2, -2], "threshold": [-0.0030315601034089923, -2.0, 5.485808145522242e-07, -1.9621933233793243e-07, -2.0, 1.0410229123181125e-08, -2.0, -2.0, 1.0939933474674035e-06, -2.0, -4.2803834503502e-06, -2.0, -2.0], "value": [[22.0, 32.0, 37.0], [22.0, 0.0, 0.0], [0.0, 32.0, 37.0], [0.0, 31.0, 10.0], [0.0, 0.0, 8.0], [0.0, 31.0, 2.0], [0.0, 31.0, 0.0], [0.0, 0.0, 2.0], [0.0, 1.0, 27.0], [0.0, 0.0, 25.0], [0.0, 1.0, 2.0], [0.0, 1.0, 0.0], [0.0, 0.0, 2.0]]}, {"children_left": [1, -1, 3, 4, 5, 6, -1, -1, -1, -1, 11, 12, -1, 14, 15, -1, -1, -1, -1], "children_right": [2, -1, 10, 9, 8, 7, -1, -1, -1, -1, 18, 13, -1, 17, 16, -1, -1, -1, -1], "feature": [1, -2, 9, 11, 14, 30, -2, -2, -2, -2, 17, 13, -2, 38, 21, -2, -2, -2, -2], "threshold": [-0.0030315601034089923, -2.0, -6.372468135396048e-07, 2.7122148821945302e-05, -5.022898449169588e-06, -9.4901026370664e-08, -2.0, -2.0, -2.0, -2.0, 2.0263871022052626e-05, -5.302397170225959e-07, -2.0, 2.1695246488206976e-07, 5.66891699804728e-07, -2.0, -2.0, -2.0, -2.0], "value": [[19.0, 37.0, 35.0], [19.0, 0.0, 0.0], [0.0, 37.0, 35.0], [0.0, 2.0, 28.0], [0.0, 1.0, 28.0], [0.0, 1.0, 1.0], [0.0, 0.0, 1.0], [0.0, 1.0, 0.0], [0.0, 0.0, 27.0], [0.0, 1.0, 0.0], [0.0, 35.0, 7.0], [0.0, 35.0, 4.0], [0.0, 0.0, 2.0], [0.0, 35.0, 2.0], [0.0, 35.0, 1.0], [0.0, 35.0, 0.0], [0.0, 0.0, 1.0], [0.0, 0.0, 1.0], [0.0, 0.0, 3.0]]}, {"children_left": [1, 2, -1, -1, 5, -1, -1], "children_right": [4, 3, -1, -1, 6, -1, -1], "feature": [27, 21, -2, -2, 26, -2, -2], "threshold": [-1.1812604405747607e-07, -1.2988634807697963e-06, -2.0, -2.0, -2.1330784534256964e-06, -2.0, -2.0], "value": [[26.0, 31.0, 34.0], [0.0, 31.0, 4.0], [0.0, 0.0, 4.0], [0.0, 31.0, 0.0], [26.0, 0.0, 30.0], [26.0, 0.0, 0.0], [0.0, 0.0, 30.0]]}, {"children_left": [1, -1, 3, 4, -1, 6, -1, -1, 9, 10, 11, -1, 13, -1, -1, -1, -1], "children_right": [2, -1, 8, 5, -1, 7, -1, -1, 16, 15, 12, -1, 14, -1, -1, -1, -1], "feature": [1, -2, 27, 9, -2, 16, -2, -2, 29, 4, 13, -2, 24, -2, -2, -2, -2], "threshold": [-0.0030315601034089923, -2.0, -1.2384543524035507e-07, -2.594733956584605e-06, -2.0, -2.6795396479428746e-06, -2.0, -2.0, 7.320028627688657e-08, -3.389652010810096e-05, -8.565722055209335e-06, -2.0, -7.28108693692775e-06, -2.0, -2.0, -2.0, -2.0], "value": [[27.0, 33.0, 31.0], [27.0, 0.0, 0.0], [0.0, 33.0, 31.0], [0.0, 31.0, 9.0], [0.0, 0.0, 7.0], [0.0, 31.0, 2.0], [0.0, 0.0, 2.0], [0.0, 31.0, 0.0], [0.0, 2.0, 22.0], [0.0, 2.0, 9.0], [0.0, 2.0, 1.0], [0.0, 1.0, 0.0], [0.0, 1.0, 1.0], [0.0, 1.0, 0.0], [0.0, 0.0, 1.0], [0.0, 0.0, 8.0], [0.0, 0.0, 13.0]]}, {"children_left": [1, 2, 3, 4, -1, -1, -1, 8, 9, -1, -1, -1, 13, 14, -1, 16, -1, -1, -1], "children_right": [12, 7, 6, 5, -1, -1, -1, 11, 10, -1, -1, -1, 18, 15, -1, 17, -1, -1, -1], "feature": [9, 23, 29, 4, -2, -2, -2, 3, 27, -2, -2, -2, 8, 9, -2, 34, -2, -2, -2], "threshold": [1.2035600889248599e-06, -2.6456173429778573e-07, 1.376557605681228e-07, -3.0431948289333377e-05, -2.0, -2.0, -2.0, 1.5512681414975305e-06, -4.0804657430726365e-08, -2.0, -2.0, -2.0, 9.164777196701834e-06, 5.084317990622367e-06, -2.0, 5.893433385750768e-08, -2.0, -2.0, -2.0], "value": [[25.0, 38.0, 28.0], [0.0, 37.0, 20.0], [0.0, 4.0, 13.0], [0.0, 4.0, 3.0], [0.0, 4.0, 0.0], [0.0, 0.0, 3.0], [0.0, 0.0, 10.0], [0.0, 33.0, 7.0], [0.0, 33.0, 3.0], [0.0, 33.0, 0.0], [0.0, 0.0, 3.0], [0.0, 0.0, 4.0], [25.0, 1.0, 8.0], [25.0, 1.0, 1.0], [25.0, 0.0, 0.0], [0.0, 1.0, 1.0], [0.0, 0.0, 1.0], [0.0, 1.0, 0.0], [0.0, 0.0, 7.0]]}, {"children_left": [1, 2, 3, 4, -1, -1, -1, 8, 9, -1, 11, -1, 13, -1, -1, -1, -1], "children_right": [16, 7, 6, 5, -1, -1, -1, 15, 10, -1, 12, -1, 14, -1, -1, -1, -1], "feature": [0, 9, 11, 8, -2, -2, -2, 18, 13, -2, 10, -2, 4, -2, -2, -2, -2], "threshold": [0.9997520446777344, -6.372468135396048e-07, 2.7122148821945302e-05, -1.791691374819493e-05, -2.0, -2.0, -2.0, 7.949692275133202e-06, -4.968120350667959e-07, -2.0, 9.80370998604485e-07, -2.0, 6.291873796726577e-05, -2.0, -2.0, -2.0, -2.0], "value": [[16.0, 37.0, 38.0], [0.0, 37.0, 38.0], [0.0, 3.0, 27.0], [0.0, 1.0, 27.0], [0.0, 1.0, 0.0], [0.0, 0.0, 27.0], [0.0, 2.0, 0.0], [0.0, 34.0, 11.0], [0.0, 34.0, 4.0], [0.0, 0.0, 2.0], [0.0, 34.0, 2.0], [0.0, 23.0, 0.0], [0.0, 11.0, 2.0], [0.0, 11.0, 0.0], [0.0, 0.0, 2.0], [0.0, 0.0, 7.0], [16.0, 0.0, 0.0]]}, {"children_left": [1, 2, -1, -1, 5, 6, 7, 8, 9, -1, -1, -1, 13, 14, -1, -1, -1, -1, -1], "children_right": [4, 3, -1, -1, 18, 17, 12, 11, 10, -1, -1, -1, 16, 15, -1, -1, -1, -1, -1], "feature": [32, 30, -2, -2, 0, 29, 19, 4, 8, -2, -2, -2, 18, 11, -2, -2, -2, -2, -2], "threshold": [-3.8214899689137383e-07, 1.4986510521453056e-07, -2.0, -2.0, 0.9997520446777344, 2.0658358934610987e-07, -4.5771629686441884e-07, -3.985186413046904e-05, 2.3277493710338604e-05, -2.0, -2.0, -2.0, 4.3203200164043665e-06, -9.776349674694984e-06, -2.0, -2.0, -2.0, -2.0, -2.0], "value": [[30.0, 35.0, 26.0], [3.0, 0.0, 3.0], [3.0, 0.0, 0.0], [0.0, 0.0, 3.0], [27.0, 35.0, 23.0], [0.0, 35.0, 23.0], [0.0, 35.0, 14.0], [0.0, 2.0, 9.0], [0.0, 2.0, 1.0], [0.0, 2.0, 0.0], [0.0, 0.0, 1.0], [0.0, 0.0, 8.0], [0.0, 33.0, 5.0], [0.0, 33.0, 1.0], [0.0, 0.0, 1.0], [0.0, 33.0, 0.0], [0.0, 0.0, 4.0], [0.0, 0.0, 9.0], [27.0, 0.0, 0.0]]}, {"children_left": [1, -1, 3, 4, -1, 6, 7, -1, -1, -1, 11, 12, -1, -1, -1], "children_right": [2, -1, 10, 5, -1, 9, 8, -1, -1, -1, 14, 13, -1, -1, -1], "feature": [1, -2, 8, 19, -2, 24, 29, -2, -2, -2, 20, 19, -2, -2, -2], "threshold": [-0.0030315640615299344, -2.0, -4.6543595288994766e-07, -7.980956411302031e-06, -2.0, -7.42242107776292e-08, 1.554924118352119e-07, -2.0, -2.0, -2.0, -1.9955851712438744e-05, -4.111752787139267e-06, -2.0, -2.0, -2.0], "value": [[21.0, 36.0, 34.0], [21.0, 0.0, 0.0], [0.0, 36.0, 34.0], [0.0, 35.0, 17.0], [0.0, 0.0, 3.0], [0.0, 35.0, 14.0], [0.0, 8.0, 14.0], [0.0, 8.0, 0.0], [0.0, 0.0, 14.0], [0.0, 27.0, 0.0], [0.0, 1.0, 17.0], [0.0, 1.0, 1.0], [0.0, 1.0, 0.0], [0.0, 0.0, 1.0], [0.0, 0.0, 16.0]]}, {"children_left": [1, 2, 3, -1, 5, 6, -1, -1, 9, -1, -1, 12, -1, 14, -1, -1, 17, -1, -1], "children_right": [16, 11, 4, -1, 8, 7, -1, -1, 10, -1, -1, 13, -1, 15, -1, -1, 18, -1, -1], "feature": [39, 12, 14, -2, 9, 7, -2, -2, 8, -2, -2, 12, -2, 6, -2, -2, 15, -2, -2], "threshold": [2.4759098948834435e-07, 2.9610621510300916e-07, -5.412388901504528e-07, -2.0, -6.351533272663801e-07, -1.931309407154913e-05, -2.0, -2.0, -9.19020794754033e-06, -2.0, -2.0, 3.881918075876456e-06, -2.0, 1.989224983844906e-06, -2.0, -2.0, -2.268207737188277e-07, -2.0, -2.0], "value": [[25.0, 33.0, 33.0], [23.0, 32.0, 33.0], [0.0, 27.0, 30.0], [0.0, 0.0, 18.0], [0.0, 27.0, 12.0], [0.0, 1.0, 6.0], [0.0, 1.0, 0.0], [0.0, 0.0, 6.0], [0.0, 26.0, 6.0], [0.0, 0.0, 6.0], [0.0, 26.0, 0.0], [23.0, 5.0, 3.0], [23.0, 0.0, 0.0], [0.0, 5.0, 3.0], [0.0, 0.0, 3.0], [0.0, 5.0, 0.0], [2.0, 1.0, 0.0], [2.0, 0.0, 0.0], [0.0, 1.0, 0.0]]}, {"children_left": [1, 2, 3, -1, -1, -1, 7, 8, 9, -1, -1, -1, 13, -1, -1], "children_right": [6, 5, 4, -1, -1, -1, 12, 11, 10, -1, -1, -1, 14, -1, -1], "feature": [6, 18, 22, -2, -2, -2, 8, 27, 16, -2, -2, -2, 25, -2, -2], "threshold": [-7.614742383310613e-07, -7.814814480866517e-06, -1.51785320667841e-05, -2.0, -2.0, -2.0, 5.823437732033199e-09, 7.631239320460281e-07, 2.9298225143747914e-06, -2.0, -2.0, -2.0, -2.7181798856190653e-07, -2.0, -2.0], "value": [[19.0, 32.0, 40.0], [0.0, 1.0, 26.0], [0.0, 1.0, 1.0], [0.0, 0.0, 1.0], [0.0, 1.0, 0.0], [0.0, 0.0, 25.0], [19.0, 31.0, 14.0], [0.0, 31.0, 9.0], [0.0, 31.0, 2.0], [0.0, 31.0, 0.0], [0.0, 0.0, 2.0], [0.0, 0.0, 7.0], [19.0, 0.0, 5.0], [0.0, 0.0, 5.0], [19.0, 0.0, 0.0]]}, {"children_left": [1, 2, -1, 4, 5, -1, 7, -1, -1, -1, 11, -1, -1], "children_right": [10, 3, -1, 9, 6, -1, 8, -1, -1, -1, 12, -1, -1], "feature": [40, 26, -2, 27, 17, -2, 10, -2, -2, -2, 0, -2, -2], "threshold": [2.1661545446249875e-07, -1.9881148887179734e-06, -2.0, 2.859086940532052e-07, -8.227481487210753e-06, -2.0, 8.103445793494757e-06, -2.0, -2.0, -2.0, 0.9760469794273376, -2.0, -2.0], "value": [[19.0, 44.0, 28.0], [15.0, 41.0, 28.0], [15.0, 0.0, 0.0], [0.0, 41.0, 28.0], [0.0, 41.0, 5.0], [0.0, 0.0, 2.0], [0.0, 41.0, 3.0], [0.0, 41.0, 0.0], [0.0, 0.0, 3.0], [0.0, 0.0, 23.0], [4.0, 3.0, 0.0], [0.0, 3.0, 0.0], [4.0, 0.0, 0.0]]}, {"children_left": [1, 2, -1, 4, 5, -1, 7, -1, -1, 10, -1, -1, 13, 14, 15, -1, -1, -1, -1], "children_right": [12, 3, -1, 9, 6, -1, 8, -1, -1, 11, -1, -1, 18, 17, 16, -1, -1, -1, -1], "feature": [7, 1, -2, 2, 1, -2, 1, -2, -2, 7, -2, -2, 28, 18, 36, -2, -2, -2, -2], "threshold": [4.1319655963434343e-07, -0.003031558939255774, -2.0, 2.30675060493013e-05, 0.0008286884985864162, -2.0, 0.0046882235910743475, -2.0, -2.0, -2.0710373973997775e-05, -2.0, -2.0, 1.8832856341077786e-07, -9.193517627181791e-07, -1.0744986889132946e-07, -2.0, -2.0, -2.0, -2.0], "value": [[21.0, 29.0, 41.0], [21.0, 27.0, 10.0], [21.0, 0.0, 0.0], [0.0, 27.0, 10.0], [0.0, 23.0, 3.0], [0.0, 14.0, 0.0], [0.0, 9.0, 3.0], [0.0, 0.0, 3.0], [0.0, 9.0, 0.0], [0.0, 4.0, 7.0], [0.0, 4.0, 0.0], [0.0, 0.0, 7.0], [0.0, 2.0, 31.0], [0.0, 2.0, 25.0], [0.0, 2.0, 4.0], [0.0, 2.0, 0.0], [0.0, 0.0, 4.0], [0.0, 0.0, 21.0], [0.0, 0.0, 6.0]]}, {"children_left": [1, 2, -1, 4, 5, -1, -1, -1, 9, -1, 11, -1, -1], "children_right": [8, 3, -1, 7, 6, -1, -1, -1, 10, -1, 12, -1, -1], "feature": [6, 14, -2, 27, 13, -2, -2, -2, 26, -2, 10, -2, -2], "threshold": [2.4704933139219065e-06, -5.412388901504528e-07, -2.0, -8.816151364499092e-08, -1.929899792685319e-05, -2.0, -2.0, -2.0, -1.4373888141960833e-06, -2.0, 1.7125350950664142e-05, -2.0, -2.0], "value": [[27.0, 34.0, 30.0], [0.0, 31.0, 25.0], [0.0, 0.0, 16.0], [0.0, 31.0, 9.0], [0.0, 31.0, 1.0], [0.0, 0.0, 1.0], [0.0, 31.0, 0.0], [0.0, 0.0, 8.0], [27.0, 3.0, 5.0], [27.0, 0.0, 0.0], [0.0, 3.0, 5.0], [0.0, 3.0, 0.0], [0.0, 0.0, 5.0]]}, {"children_left": [1, 2, 3, 4, -1, -1, -1, -1, 9, -1, 11, -1, 13, 14, -1, -1, -1], "children_right": [8, 7, 6, 5, -1, -1, -1, -1, 10, -1, 12, -1, 16, 15, -1, -1, -1], "feature": [21, 20, 9, 24, -2, -2, -2, -2, 30, -2, 27, -2, 8, 43, -2, -2, -2], "threshold": [-2.5061532227255157e-07, 3.7388092835044517e-06, 7.239112107981782e-06, -1.0791822337097301e-05, -2.0, -2.0, -2.0, -2.0, -1.3695298051175087e-07, -2.0, -1.0669235184224135e-07, -2.0, -1.0652613127604127e-05, 1.86684115721647e-07, -2.0, -2.0, -2.0], "value": [[25.0, 28.0, 38.0], [25.0, 1.0, 8.0], [25.0, 1.0, 3.0], [25.0, 1.0, 0.0], [0.0, 1.0, 0.0], [25.0, 0.0, 0.0], [0.0, 0.0, 3.0], [0.0, 0.0, 5.0], [0.0, 27.0, 30.0], [0.0, 0.0, 20.0], [0.0, 27.0, 10.0], [0.0, 24.0, 0.0], [0.0, 3.0, 10.0], [0.0, 3.0, 1.0], [0.0, 3.0, 0.0], [0.0, 0.0, 1.0], [0.0, 0.0, 9.0]]}, {"children_left": [1, 2, 3, -1, -1, 6, -1, -1, -1], "children_right": [8, 5, 4, -1, -1, 7, -1, -1, -1], "feature": [7, 15, 21, -2, -2, 27, -2, -2, -2], "threshold": [5.523730663981041e-07, -3.8744936858847723e-07, -1.6412433552659422e-05, -2.0, -2.0, 1.0410229123181125e-08, -2.0, -2.0, -2.0], "value": [[26.0, 27.0, 38.0], [26.0, 27.0, 5.0], [26.0, 0.0, 1.0], [0.0, 0.0, 1.0], [26.0, 0.0, 0.0], [0.0, 27.0, 4.0], [0.0, 27.0, 0.0], [0.0, 0.0, 4.0], [0.0, 0.0, 33.0]]}, {"children_left": [1, 2, 3, 4, -1, 6, -1, -1, 9, -1, -1, -1, -1], "children_right": [12, 11, 8, 5, -1, 7, -1, -1, 10, -1, -1, -1, -1], "feature": [0, 8, 18, 21, -2, 4, -2, -2, 20, -2, -2, -2, -2], "threshold": [0.9997520446777344, -5.949965498075471e-07, 5.801919087389251e-07, -4.998583790438715e-06, -2.0, 6.292065882007591e-05, -2.0, -2.0, 3.118324798379035e-06, -2.0, -2.0, -2.0, -2.0], "value": [[27.0, 34.0, 30.0], [0.0, 34.0, 30.0], [0.0, 34.0, 11.0], [0.0, 33.0, 2.0], [0.0, 0.0, 1.0], [0.0, 33.0, 1.0], [0.0, 33.0, 0.0], [0.0, 0.0, 1.0], [0.0, 1.0, 9.0], [0.0, 0.0, 9.0], [0.0, 1.0, 0.0], [0.0, 0.0, 19.0], [27.0, 0.0, 0.0]]}, {"children_left": [1, 2, 3, 4, -1, -1, -1, 8, -1, 10, 11, -1, -1, 14, 15, -1, -1, -1, -1], "children_right": [18, 7, 6, 5, -1, -1, -1, 9, -1, 13, 12, -1, -1, 17, 16, -1, -1, -1, -1], "feature": [0, 21, 13, 15, -2, -2, -2, 30, -2, 9, 23, -2, -2, 33, 31, -2, -2, -2, -2], "threshold": [0.9997520446777344, 3.746994181597074e-08, 3.5698769806913333e-06, 4.01354755013017e-05, -2.0, -2.0, -2.0, -1.3724146086246947e-07, -2.0, -6.372537200149964e-07, -3.339994350426423e-06, -2.0, -2.0, 1.6137782665737177e-08, 6.021130566358224e-08, -2.0, -2.0, -2.0, -2.0], "value": [[22.0, 34.0, 35.0], [0.0, 34.0, 35.0], [0.0, 2.0, 18.0], [0.0, 1.0, 18.0], [0.0, 0.0, 18.0], [0.0, 1.0, 0.0], [0.0, 1.0, 0.0], [0.0, 32.0, 17.0], [0.0, 0.0, 9.0], [0.0, 32.0, 8.0], [0.0, 3.0, 6.0], [0.0, 3.0, 0.0], [0.0, 0.0, 6.0], [0.0, 29.0, 2.0], [0.0, 10.0, 2.0], [0.0, 10.0, 0.0], [0.0, 0.0, 2.0], [0.0, 19.0, 0.0], [22.0, 0.0, 0.0]]}, {"children_left": [1, 2, 3, -1, 5, -1, -1, -1, 9, -1, -1], "children_right": [8, 7, 4, -1, 6, -1, -1, -1, 10, -1, -1], "feature": [8, 27, 21, -2, 42, -2, -2, -2, 1, -2, -2], "threshold": [-5.998340952828585e-07, 5.389719142101512e-07, -5.267612621651097e-07, -2.0, 2.0072621609301677e-07, -2.0, -2.0, -2.0, -0.003030013293027878, -2.0, -2.0], "value": [[20.0, 38.0, 33.0], [0.0, 38.0, 13.0], [0.0, 38.0, 4.0], [0.0, 0.0, 3.0], [0.0, 38.0, 1.0], [0.0, 38.0, 0.0], [0.0, 0.0, 1.0], [0.0, 0.0, 9.0], [20.0, 0.0, 20.0], [20.0, 0.0, 0.0], [0.0, 0.0, 20.0]]}, {"children_left": [1, 2, 3, -1, -1, 6, 7, -1, -1, 10, -1, -1, 13, 14, -1, -1, -1], "children_right": [12, 5, 4, -1, -1, 9, 8, -1, -1, 11, -1, -1, 16, 15, -1, -1, -1], "feature": [4, 12, 24, -2, -2, 2, 8, -2, -2, 21, -2, -2, 18, 21, -2, -2, -2], "threshold": [1.4755088955098472e-06, 2.978117059626584e-07, -1.982592948479578e-05, -2.0, -2.0, -6.731586984187743e-05, 4.744961188407615e-07, -2.0, -2.0, -2.235445748510756e-07, -2.0, -2.0, 6.220081644414677e-06, 5.66891699804728e-07, -2.0, -2.0, -2.0], "value": [[24.0, 32.0, 35.0], [24.0, 3.0, 25.0], [0.0, 1.0, 23.0], [0.0, 1.0, 0.0], [0.0, 0.0, 23.0], [24.0, 2.0, 2.0], [0.0, 1.0, 2.0], [0.0, 1.0, 0.0], [0.0, 0.0, 2.0], [24.0, 1.0, 0.0], [24.0, 0.0, 0.0], [0.0, 1.0, 0.0], [0.0, 29.0, 10.0], [0.0, 29.0, 6.0], [0.0, 29.0, 0.0], [0.0, 0.0, 6.0], [0.0, 0.0, 4.0]]}, {"children_left": [1, 2, -1, -1, 5, 6, 7, -1, 9, -1, -1, -1, 13, -1, 15, -1, -1], "children_right": [4, 3, -1, -1, 12, 11, 8, -1, 10, -1, -1, -1, 14, -1, 16, -1, -1], "feature": [27, 4, -2, -2, 2, 27, 26, -2, 4, -2, -2, -2, 14, -2, 12, -2, -2], "threshold": [-1.2384543524035507e-07, -2.5841666797532525e-06, -2.0, -2.0, -1.6097866932796023e-06, 2.743758216183778e-07, -1.4328090109927416e-06, -2.0, -4.1011260236700764e-05, -2.0, -2.0, -2.0, 1.4716534820991e-05, -2.0, 3.826592546829488e-06, -2.0, -2.0], "value": [[24.0, 32.0, 35.0], [0.0, 30.0, 3.0], [0.0, 0.0, 3.0], [0.0, 30.0, 0.0], [24.0, 2.0, 32.0], [24.0, 1.0, 11.0], [24.0, 1.0, 1.0], [24.0, 0.0, 0.0], [0.0, 1.0, 1.0], [0.0, 1.0, 0.0], [0.0, 0.0, 1.0], [0.0, 0.0, 10.0], [0.0, 1.0, 21.0], [0.0, 0.0, 19.0], [0.0, 1.0, 2.0], [0.0, 1.0, 0.0], [0.0, 0.0, 2.0]]}, {"children_left": [1, 2, 3, -1, 5, -1, -1, 8, -1, -1, 11, -1, 13, -1, 15, -1, 17, -1, -1], "children_right": [10, 7, 4, -1, 6, -1, -1, 9, -1, -1, 12, -1, 14, -1, 16, -1, 18, -1, -1], "feature": [24, 19, 28, -2, 16, -2, -2, 5, -2, -2, 26, -2, 6, -2, 25, -2, 43, -2, -2], "threshold": [-2.0358810459697452e-07, 6.30948875368631e-07, -2.7603483943039464e-09, -2.0, 7.4560654184097075e-06, -2.0, -2.0, -3.8763861539337086e-05, -2.0, -2.0, -2.00035503894469e-06, -2.0, -2.194674577182809e-06, -2.0, -3.566906769947309e-09, -2.0, 1.2838932761383148e-07, -2.0, -2.0], "value": [[26.0, 41.0, 24.0], [0.0, 19.0, 19.0], [0.0, 2.0, 18.0], [0.0, 0.0, 9.0], [0.0, 2.0, 9.0], [0.0, 0.0, 9.0], [0.0, 2.0, 0.0], [0.0, 17.0, 1.0], [0.0, 0.0, 1.0], [0.0, 17.0, 0.0], [26.0, 22.0, 5.0], [26.0, 0.0, 0.0], [0.0, 22.0, 5.0], [0.0, 0.0, 4.0], [0.0, 22.0, 1.0], [0.0, 21.0, 0.0], [0.0, 1.0, 1.0], [0.0, 1.0, 0.0], [0.0, 0.0, 1.0]]}, {"children_left": [1, 2, 3, -1, 5, -1, -1, -1, 9, 10, -1, -1, -1], "children_right": [8, 7, 4, -1, 6, -1, -1, -1, 12, 11, -1, -1, -1], "feature": [23, 23, 9, -2, 15, -2, -2, -2, 21, 0, -2, -2, -2], "threshold": [1.548653081329121e-07, -2.7187685702756426e-07, -2.23918150368263e-05, -2.0, 2.2946074523133575e-05, -2.0, -2.0, -2.0, -2.2616503514427677e-07, 0.9763944149017334, -2.0, -2.0, -2.0], "value": [[29.0, 29.0, 33.0], [0.0, 29.0, 23.0], [0.0, 2.0, 23.0], [0.0, 1.0, 0.0], [0.0, 1.0, 23.0], [0.0, 0.0, 23.0], [0.0, 1.0, 0.0], [0.0, 27.0, 0.0], [29.0, 0.0, 10.0], [29.0, 0.0, 4.0], [0.0, 0.0, 4.0], [29.0, 0.0, 0.0], [0.0, 0.0, 6.0]]}, {"children_left": [1, 2, 3, -1, -1, 6, -1, -1, 9, 10, 11, -1, 13, -1, -1, 16, -1, 18, -1, -1, 21, 22, -1, -1, -1], "children_right": [8, 5, 4, -1, -1, 7, -1, -1, 20, 15, 12, -1, 14, -1, -1, 17, -1, 19, -1, -1, 24, 23, -1, -1, -1], "feature": [18, 10, 20, -2, -2, 24, -2, -2, 12, 17, 40, -2, 20, -2, -2, 4, -2, 11, -2, -2, 7, 16, -2, -2, -2], "threshold": [-5.128102031903836e-07, -9.28037137271076e-06, -6.033021691109752e-06, -2.0, -2.0, 3.6432657495311105e-06, -2.0, -2.0, -3.520305824622483e-07, -9.340174358385411e-07, -1.0640196457245565e-07, -2.0, -9.631402136278666e-06, -2.0, -2.0, 1.4844507632005843e-06, -2.0, 7.149627606860276e-07, -2.0, -2.0, -1.581703054398531e-05, 5.554985591516015e-06, -2.0, -2.0, -2.0], "value": [[29.0, 29.0, 33.0], [29.0, 3.0, 4.0], [0.0, 3.0, 3.0], [0.0, 3.0, 0.0], [0.0, 0.0, 3.0], [29.0, 0.0, 1.0], [29.0, 0.0, 0.0], [0.0, 0.0, 1.0], [0.0, 26.0, 29.0], [0.0, 25.0, 13.0], [0.0, 13.0, 1.0], [0.0, 4.0, 0.0], [0.0, 9.0, 1.0], [0.0, 0.0, 1.0], [0.0, 9.0, 0.0], [0.0, 12.0, 12.0], [0.0, 0.0, 9.0], [0.0, 12.0, 3.0], [0.0, 12.0, 0.0], [0.0, 0.0, 3.0], [0.0, 1.0, 16.0], [0.0, 1.0, 1.0], [0.0, 0.0, 1.0], [0.0, 1.0, 0.0], [0.0, 0.0, 15.0]]}, {"children_left": [1, 2, 3, 4, -1, -1, 7, 8, -1, -1, -1, 12, 13, 14, -1, -1, -1, -1, -1], "children_right": [18, 11, 6, 5, -1, -1, 10, 9, -1, -1, -1, 17, 16, 15, -1, -1, -1, -1, -1], "feature": [0, 18, 4, 35, -2, -2, 16, 24, -2, -2, -2, 23, 19, 32, -2, -2, -2, -2, -2], "threshold": [0.9997520446777344, 5.801919087389251e-07, 1.367987465528131e-06, -1.546864645263213e-07, -2.0, -2.0, -4.1122351035483007e-07, -4.5094917311416793e-07, -2.0, -2.0, -2.0, -6.014811475552051e-07, -2.9442084041875205e-06, -7.781173050336321e-08, -2.0, -2.0, -2.0, -2.0, -2.0], "value": [[20.0, 39.0, 32.0], [0.0, 39.0, 32.0], [0.0, 38.0, 13.0], [0.0, 1.0, 10.0], [0.0, 1.0, 0.0], [0.0, 0.0, 10.0], [0.0, 37.0, 3.0], [0.0, 16.0, 3.0], [0.0, 16.0, 0.0], [0.0, 0.0, 3.0], [0.0, 21.0, 0.0], [0.0, 1.0, 19.0], [0.0, 1.0, 9.0], [0.0, 1.0, 5.0], [0.0, 1.0, 0.0], [0.0, 0.0, 5.0], [0.0, 0.0, 4.0], [0.0, 0.0, 10.0], [20.0, 0.0, 0.0]]}, {"children_left": [1, 2, 3, 4, 5, -1, -1, -1, -1, 10, -1, -1, 13, 14, -1, -1, 17, -1, 19, -1, -1], "children_right": [12, 9, 8, 7, 6, -1, -1, -1, -1, 11, -1, -1, 16, 15, -1, -1, 18, -1, 20, -1, -1], "feature": [21, 4, 4, 28, 18, -2, -2, -2, -2, 6, -2, -2, 9, 20, -2, -2, 32, -2, 27, -2, -2], "threshold": [3.905061518594266e-08, -3.490502454184252e-06, -3.2770879442978185e-05, -3.1524027832574575e-09, 1.2279364796086156e-06, -2.0, -2.0, -2.0, -2.0, 5.350356673261558e-07, -2.0, -2.0, -6.372468135396048e-07, -3.1056686111696763e-06, -2.0, -2.0, -3.1856598070589826e-07, -2.0, 6.147781235199545e-07, -2.0, -2.0], "value": [[27.0, 28.0, 36.0], [27.0, 2.0, 23.0], [0.0, 2.0, 15.0], [0.0, 2.0, 8.0], [0.0, 2.0, 3.0], [0.0, 2.0, 0.0], [0.0, 0.0, 3.0], [0.0, 0.0, 5.0], [0.0, 0.0, 7.0], [27.0, 0.0, 8.0], [0.0, 0.0, 8.0], [27.0, 0.0, 0.0], [0.0, 26.0, 13.0], [0.0, 1.0, 10.0], [0.0, 1.0, 0.0], [0.0, 0.0, 10.0], [0.0, 25.0, 3.0], [0.0, 0.0, 1.0], [0.0, 25.0, 2.0], [0.0, 25.0, 0.0], [0.0, 0.0, 2.0]]}, {"children_left": [1, 2, 3, -1, -1, 6, -1, 8, -1, -1, -1], "children_right": [10, 5, 4, -1, -1, 7, -1, 9, -1, -1, -1], "feature": [0, 23, 25, -2, -2, 26, -2, 11, -2, -2, -2], "threshold": [0.9997520446777344, -2.733234083507341e-07, -2.008189824209694e-06, -2.0, -2.0, 1.1320778625645289e-07, -2.0, -6.661626361648132e-06, -2.0, -2.0, -2.0], "value": [[25.0, 32.0, 34.0], [0.0, 32.0, 34.0], [0.0, 2.0, 21.0], [0.0, 2.0, 0.0], [0.0, 0.0, 21.0], [0.0, 30.0, 13.0], [0.0, 0.0, 11.0], [0.0, 30.0, 2.0], [0.0, 0.0, 2.0], [0.0, 30.0, 0.0], [25.0, 0.0, 0.0]]}, {"children_left": [1, 2, -1, -1, 5, 6, -1, -1, 9, 10, -1, -1, -1], "children_right": [4, 3, -1, -1, 8, 7, -1, -1, 12, 11, -1, -1, -1], "feature": [19, 17, -2, -2, 18, 3, -2, -2, 27, 3, -2, -2, -2], "threshold": [-4.4133410881386226e-07, 3.3718106919877755e-06, -2.0, -2.0, -4.771568171690888e-07, -7.937728196338867e-05, -2.0, -2.0, -6.683098163762224e-08, 1.545780556000409e-06, -2.0, -2.0, -2.0], "value": [[23.0, 32.0, 36.0], [0.0, 3.0, 15.0], [0.0, 0.0, 15.0], [0.0, 3.0, 0.0], [23.0, 29.0, 21.0], [23.0, 0.0, 1.0], [0.0, 0.0, 1.0], [23.0, 0.0, 0.0], [0.0, 29.0, 20.0], [0.0, 29.0, 2.0], [0.0, 29.0, 0.0], [0.0, 0.0, 2.0], [0.0, 0.0, 18.0]]}, {"children_left": [1, 2, 3, -1, -1, -1, 7, -1, 9, 10, -1, -1, -1], "children_right": [6, 5, 4, -1, -1, -1, 8, -1, 12, 11, -1, -1, -1], "feature": [27, 20, 12, -2, -2, -2, 26, -2, 8, 18, -2, -2, -2], "threshold": [-1.8524376166340062e-07, 1.8617440105117566e-06, -1.628935069675208e-05, -2.0, -2.0, -2.0, -2.1330784534256964e-06, -2.0, -2.249673570986488e-05, 5.2750273198398645e-06, -2.0, -2.0, -2.0], "value": [[20.0, 30.0, 41.0], [0.0, 27.0, 5.0], [0.0, 27.0, 1.0], [0.0, 0.0, 1.0], [0.0, 27.0, 0.0], [0.0, 0.0, 4.0], [20.0, 3.0, 36.0], [20.0, 0.0, 0.0], [0.0, 3.0, 36.0], [0.0, 3.0, 3.0], [0.0, 3.0, 0.0], [0.0, 0.0, 3.0], [0.0, 0.0, 33.0]]}, {"children_left": [1, 2, 3, -1, 5, -1, 7, -1, -1, 10, 11, 12, -1, -1, -1, -1, -1], "children_right": [16, 9, 4, -1, 6, -1, 8, -1, -1, 15, 14, 13, -1, -1, -1, -1, -1], "feature": [0, 19, 6, -2, 23, -2, 32, -2, -2, 18, 29, 7, -2, -2, -2, -2, -2], "threshold": [0.9997520446777344, -4.5771629686441884e-07, 4.196014742774423e-05, -2.0, -2.763931234994743e-06, -2.0, -2.9119430422497317e-08, -2.0, -2.0, 6.041082656338403e-07, 2.1867149868626257e-07, 1.2651923682938104e-05, -2.0, -2.0, -2.0, -2.0, -2.0], "value": [[20.0, 35.0, 36.0], [0.0, 35.0, 36.0], [0.0, 2.0, 20.0], [0.0, 0.0, 18.0], [0.0, 2.0, 2.0], [0.0, 1.0, 0.0], [0.0, 1.0, 2.0], [0.0, 1.0, 0.0], [0.0, 0.0, 2.0], [0.0, 33.0, 16.0], [0.0, 33.0, 5.0], [0.0, 33.0, 1.0], [0.0, 33.0, 0.0], [0.0, 0.0, 1.0], [0.0, 0.0, 4.0], [0.0, 0.0, 11.0], [20.0, 0.0, 0.0]]}, {"children_left": [1, 2, 3, -1, 5, 6, -1, -1, -1, -1, 11, 12, 13, -1, -1, -1, 17, -1, -1], "children_right": [10, 9, 4, -1, 8, 7, -1, -1, -1, -1, 16, 15, 14, -1, -1, -1, 18, -1, -1], "feature": [9, 0, 7, -2, 25, 18, -2, -2, -2, -2, 15, 7, 32, -2, -2, -2, 11, -2, -2], "threshold": [1.2064581937920593e-06, 0.9997284710407257, -1.3465273696056101e-05, -2.0, -1.426703704510146e-06, 1.8819196156982798e-07, -2.0, -2.0, -2.0, -2.0, -1.8143630029499036e-06, 1.3150932318239938e-05, -2.9119430422497317e-08, -2.0, -2.0, -2.0, -9.867240081007367e-06, -2.0, -2.0], "value": [[23.0, 37.0, 31.0], [0.0, 36.0, 22.0], [0.0, 15.0, 22.0], [0.0, 11.0, 0.0], [0.0, 4.0, 22.0], [0.0, 4.0, 3.0], [0.0, 4.0, 0.0], [0.0, 0.0, 3.0], [0.0, 0.0, 19.0], [0.0, 21.0, 0.0], [23.0, 1.0, 9.0], [0.0, 1.0, 8.0], [0.0, 1.0, 2.0], [0.0, 1.0, 0.0], [0.0, 0.0, 2.0], [0.0, 0.0, 6.0], [23.0, 0.0, 1.0], [0.0, 0.0, 1.0], [23.0, 0.0, 0.0]]}, {"children_left": [1, -1, 3, -1, 5, -1, 7, 8, -1, -1, 11, -1, 13, 14, -1, -1, -1], "children_right": [2, -1, 4, -1, 6, -1, 10, 9, -1, -1, 12, -1, 16, 15, -1, -1, -1], "feature": [1, -2, 1, -2, 37, -2, 28, 10, -2, -2, 17, -2, 4, 18, -2, -2, -2], "threshold": [-0.0030315601034089923, -2.0, -0.0030291806906461716, -2.0, -2.0414737633700497e-07, -2.0, -1.1320048258767201e-06, 3.4887499396063504e-06, -2.0, -2.0, 4.3838851979671745e-06, -2.0, -3.0431948289333377e-05, 2.1081721001792175e-05, -2.0, -2.0, -2.0], "value": [[30.0, 31.0, 30.0], [30.0, 0.0, 0.0], [0.0, 31.0, 30.0], [0.0, 20.0, 0.0], [0.0, 11.0, 30.0], [0.0, 6.0, 0.0], [0.0, 5.0, 30.0], [0.0, 3.0, 1.0], [0.0, 3.0, 0.0], [0.0, 0.0, 1.0], [0.0, 2.0, 29.0], [0.0, 0.0, 22.0], [0.0, 2.0, 7.0], [0.0, 2.0, 1.0], [0.0, 2.0, 0.0], [0.0, 0.0, 1.0], [0.0, 0.0, 6.0]]}, {"children_left": [1, 2, 3, -1, -1, 6, 7, -1, -1, -1, 11, 12, -1, -1, -1], "children_right": [10, 5, 4, -1, -1, 9, 8, -1, -1, -1, 14, 13, -1, -1, -1], "feature": [12, 6, 23, -2, -2, 27, 25, -2, -2, -2, 28, 9, -2, -2, -2], "threshold": [2.978117059626584e-07, -7.658872434035402e-07, -1.4289274076872971e-05, -2.0, -2.0, 2.0590011473586856e-07, -7.908323951255625e-07, -2.0, -2.0, -2.0, -5.399265035066492e-08, -1.1305585303489352e-05, -2.0, -2.0, -2.0], "value": [[22.0, 35.0, 34.0], [0.0, 32.0, 28.0], [0.0, 1.0, 22.0], [0.0, 1.0, 0.0], [0.0, 0.0, 22.0], [0.0, 31.0, 6.0], [0.0, 31.0, 2.0], [0.0, 0.0, 2.0], [0.0, 31.0, 0.0], [0.0, 0.0, 4.0], [22.0, 3.0, 6.0], [22.0, 3.0, 0.0], [0.0, 3.0, 0.0], [22.0, 0.0, 0.0], [0.0, 0.0, 6.0]]}, {"children_left": [1, 2, 3, -1, 5, -1, 7, -1, -1, 10, 11, -1, -1, -1, 15, 16, -1, -1, -1], "children_right": [14, 9, 4, -1, 6, -1, 8, -1, -1, 13, 12, -1, -1, -1, 18, 17, -1, -1, -1], "feature": [8, 14, 25, -2, 6, -2, 43, -2, -2, 11, 9, -2, -2, -2, 0, 1, -2, -2, -2], "threshold": [7.178727230439108e-07, -5.602201582632915e-07, -1.274234922021833e-06, -2.0, 2.655491778114083e-05, -2.0, 1.2838932761383148e-07, -2.0, -2.0, 7.229488430127162e-07, 4.888621219834022e-06, -2.0, -2.0, -2.0, 0.9765675067901611, 0.004431306850165129, -2.0, -2.0, -2.0], "value": [[24.0, 39.0, 28.0], [0.0, 38.0, 24.0], [0.0, 3.0, 16.0], [0.0, 2.0, 0.0], [0.0, 1.0, 16.0], [0.0, 0.0, 15.0], [0.0, 1.0, 1.0], [0.0, 1.0, 0.0], [0.0, 0.0, 1.0], [0.0, 35.0, 8.0], [0.0, 35.0, 1.0], [0.0, 35.0, 0.0], [0.0, 0.0, 1.0], [0.0, 0.0, 7.0], [24.0, 1.0, 4.0], [0.0, 1.0, 4.0], [0.0, 1.0, 0.0], [0.0, 0.0, 4.0], [24.0, 0.0, 0.0]]}, {"children_left": [1, 2, 3, 4, -1, -1, -1, 8, -1, -1, 11, 12, 13, -1, -1, -1, 17, -1, -1], "children_right": [10, 7, 6, 5, -1, -1, -1, 9, -1, -1, 16, 15, 14, -1, -1, -1, 18, -1, -1], "feature": [15, 18, 19, 1, -2, -2, -2, 37, -2, -2, 8, 29, 16, -2, -2, -2, 27, -2, -2], "threshold": [-4.720949107195338e-07, 6.492274451375124e-08, -5.173753123699498e-07, 0.004497488494962454, -2.0, -2.0, -2.0, -1.3737074455733023e-07, -2.0, -2.0, -4.856067477021497e-07, 1.5343452730576246e-07, -1.1104987834187341e-05, -2.0, -2.0, -2.0, -4.356436988928181e-09, -2.0, -2.0], "value": [[23.0, 31.0, 37.0], [23.0, 4.0, 10.0], [23.0, 3.0, 2.0], [0.0, 3.0, 2.0], [0.0, 3.0, 0.0], [0.0, 0.0, 2.0], [23.0, 0.0, 0.0], [0.0, 1.0, 8.0], [0.0, 1.0, 0.0], [0.0, 0.0, 8.0], [0.0, 27.0, 27.0], [0.0, 26.0, 13.0], [0.0, 26.0, 2.0], [0.0, 0.0, 2.0], [0.0, 26.0, 0.0], [0.0, 0.0, 11.0], [0.0, 1.0, 14.0], [0.0, 1.0, 0.0], [0.0, 0.0, 14.0]]}, {"children_left": [1, 2, 3, 4, -1, -1, 7, -1, -1, 10, -1, -1, -1], "children_right": [12, 9, 6, 5, -1, -1, 8, -1, -1, 11, -1, -1, -1], "feature": [7, 26, 11, 7, -2, -2, 24, -2, -2, 20, -2, -2, -2], "threshold": [4.1319655963434343e-07, 6.961547249773048e-08, 7.278951574818393e-07, -3.132852725684643e-06, -2.0, -2.0, -1.0990568043212079e-05, -2.0, -2.0, -9.631402136278666e-06, -2.0, -2.0, -2.0], "value": [[18.0, 41.0, 32.0], [18.0, 41.0, 13.0], [18.0, 2.0, 12.0], [18.0, 0.0, 1.0], [0.0, 0.0, 1.0], [18.0, 0.0, 0.0], [0.0, 2.0, 11.0], [0.0, 2.0, 0.0], [0.0, 0.0, 11.0], [0.0, 39.0, 1.0], [0.0, 0.0, 1.0], [0.0, 39.0, 0.0], [0.0, 0.0, 19.0]]}, {"children_left": [1, 2, 3, -1, -1, 6, 7, -1, 9, -1, 11, -1, 13, -1, -1, -1, 17, 18, -1, -1, -1], "children_right": [16, 5, 4, -1, -1, 15, 8, -1, 10, -1, 12, -1, 14, -1, -1, -1, 20, 19, -1, -1, -1], "feature": [7, 11, 18, -2, -2, 3, 27, -2, 26, -2, 12, -2, 36, -2, -2, -2, 15, 16, -2, -2, -2], "threshold": [4.1319655963434343e-07, -1.0462704480573848e-07, 5.43221176485531e-07, -2.0, -2.0, -6.994462893317177e-07, -1.5835164512978395e-07, -2.0, -2.0172071231172595e-06, -2.0, 2.5269952743656177e-06, -2.0, -1.9331896083940592e-08, -2.0, -2.0, -2.0, -2.0630764652196376e-06, -6.532794031954836e-06, -2.0, -2.0, -2.0], "value": [[26.0, 31.0, 34.0], [26.0, 29.0, 8.0], [19.0, 0.0, 3.0], [19.0, 0.0, 0.0], [0.0, 0.0, 3.0], [7.0, 29.0, 5.0], [7.0, 15.0, 5.0], [0.0, 14.0, 0.0], [7.0, 1.0, 5.0], [7.0, 0.0, 0.0], [0.0, 1.0, 5.0], [0.0, 0.0, 4.0], [0.0, 1.0, 1.0], [0.0, 0.0, 1.0], [0.0, 1.0, 0.0], [0.0, 14.0, 0.0], [0.0, 2.0, 26.0], [0.0, 2.0, 6.0], [0.0, 2.0, 0.0], [0.0, 0.0, 6.0], [0.0, 0.0, 20.0]]}, {"children_left": [1, 2, 3, -1, -1, 6, -1, -1, 9, -1, -1], "children_right": [8, 5, 4, -1, -1, 7, -1, -1, 10, -1, -1], "feature": [7, 23, 18, -2, -2, 9, -2, -2, 13, -2, -2], "threshold": [5.523730663981041e-07, 1.5182449075723525e-07, 8.045115066579456e-06, -2.0, -2.0, 1.1176635155152326e-06, -2.0, -2.0, -8.565722055209335e-06, -2.0, -2.0], "value": [[21.0, 32.0, 38.0], [21.0, 30.0, 6.0], [0.0, 30.0, 1.0], [0.0, 30.0, 0.0], [0.0, 0.0, 1.0], [21.0, 0.0, 5.0], [0.0, 0.0, 5.0], [21.0, 0.0, 0.0], [0.0, 2.0, 32.0], [0.0, 2.0, 0.0], [0.0, 0.0, 32.0]]}, {"children_left": [1, -1, 3, 4, -1, 6, 7, -1, -1, -1, 11, 12, -1, -1, -1], "children_right": [2, -1, 10, 5, -1, 9, 8, -1, -1, -1, 14, 13, -1, -1, -1], "feature": [1, -2, 3, 6, -2, 29, 13, -2, -2, -2, 25, 12, -2, -2, -2], "threshold": [-0.0030315601034089923, -2.0, 5.062064047933745e-07, -2.1983506410805376e-06, -2.0, 2.0658358934610987e-07, -4.483397447074822e-06, -2.0, -2.0, -2.0, -2.364378929087252e-06, -7.997602551768068e-06, -2.0, -2.0, -2.0], "value": [[26.0, 33.0, 32.0], [26.0, 0.0, 0.0], [0.0, 33.0, 32.0], [0.0, 30.0, 12.0], [0.0, 0.0, 9.0], [0.0, 30.0, 3.0], [0.0, 30.0, 1.0], [0.0, 0.0, 1.0], [0.0, 30.0, 0.0], [0.0, 0.0, 2.0], [0.0, 3.0, 20.0], [0.0, 3.0, 1.0], [0.0, 0.0, 1.0], [0.0, 3.0, 0.0], [0.0, 0.0, 19.0]]}, {"children_left": [1, -1, 3, -1, 5, 6, -1, 8, 9, 10, -1, -1, -1, -1, 15, -1, 17, -1, -1], "children_right": [2, -1, 4, -1, 14, 7, -1, 13, 12, 11, -1, -1, -1, -1, 16, -1, 18, -1, -1], "feature": [26, -2, 30, -2, 10, 6, -2, 28, 22, 31, -2, -2, -2, -2, 33, -2, 0, -2, -2], "threshold": [-2.14652328622833e-06, -2.0, -5.547066876943063e-07, -2.0, 3.4887499396063504e-06, -3.006694623763906e-05, -2.0, 3.0812490479092958e-06, 2.3167095264398085e-06, 2.361766828329337e-06, -2.0, -2.0, -2.0, -2.0, 1.1482860529099526e-07, -2.0, 0.9529402554035187, -2.0, -2.0], "value": [[26.0, 33.0, 32.0], [26.0, 0.0, 0.0], [0.0, 33.0, 32.0], [0.0, 0.0, 14.0], [0.0, 33.0, 18.0], [0.0, 32.0, 7.0], [0.0, 0.0, 3.0], [0.0, 32.0, 4.0], [0.0, 32.0, 2.0], [0.0, 32.0, 1.0], [0.0, 32.0, 0.0], [0.0, 0.0, 1.0], [0.0, 0.0, 1.0], [0.0, 0.0, 2.0], [0.0, 1.0, 11.0], [0.0, 0.0, 10.0], [0.0, 1.0, 1.0], [0.0, 1.0, 0.0], [0.0, 0.0, 1.0]]}, {"children_left": [1, -1, 3, 4, 5, 6, -1, -1, -1, -1, 11, 12, -1, -1, -1], "children_right": [2, -1, 10, 9, 8, 7, -1, -1, -1, -1, 14, 13, -1, -1, -1], "feature": [26, -2, 7, 5, 12, 26, -2, -2, -2, -2, 23, 30, -2, -2, -2], "threshold": [-2.141445463621494e-06, -2.0, 4.1319655963434343e-07, 1.117997356914202e-06, -1.2084018692348764e-06, -5.429949485602492e-07, -2.0, -2.0, -2.0, -2.0, -3.339994350426423e-06, -1.0197033439851566e-07, -2.0, -2.0, -2.0], "value": [[18.0, 30.0, 43.0], [18.0, 0.0, 0.0], [0.0, 30.0, 43.0], [0.0, 29.0, 11.0], [0.0, 29.0, 6.0], [0.0, 12.0, 6.0], [0.0, 0.0, 6.0], [0.0, 12.0, 0.0], [0.0, 17.0, 0.0], [0.0, 0.0, 5.0], [0.0, 1.0, 32.0], [0.0, 1.0, 4.0], [0.0, 0.0, 4.0], [0.0, 1.0, 0.0], [0.0, 0.0, 28.0]]}, {"children_left": [1, 2, 3, 4, -1, -1, -1, 8, 9, -1, -1, 12, -1, 14, -1, -1, 17, -1, 19, -1, -1], "children_right": [16, 7, 6, 5, -1, -1, -1, 11, 10, -1, -1, 13, -1, 15, -1, -1, 18, -1, 20, -1, -1], "feature": [3, 12, 11, 20, -2, -2, -2, 9, 1, -2, -2, 33, -2, 0, -2, -2, 2, -2, 18, -2, -2], "threshold": [9.77484248210203e-07, -3.520305824622483e-07, 7.405083435330084e-07, 6.637782064444764e-06, -2.0, -2.0, -2.0, 7.239112107981782e-06, -0.0030300176003947854, -2.0, -2.0, 9.546382839786816e-08, -2.0, 0.9529402554035187, -2.0, -2.0, -6.592036766051024e-05, -2.0, -7.288190346343981e-06, -2.0, -2.0], "value": [[21.0, 40.0, 30.0], [21.0, 36.0, 11.0], [0.0, 34.0, 3.0], [0.0, 34.0, 1.0], [0.0, 34.0, 0.0], [0.0, 0.0, 1.0], [0.0, 0.0, 2.0], [21.0, 2.0, 8.0], [21.0, 0.0, 4.0], [21.0, 0.0, 0.0], [0.0, 0.0, 4.0], [0.0, 2.0, 4.0], [0.0, 0.0, 3.0], [0.0, 2.0, 1.0], [0.0, 2.0, 0.0], [0.0, 0.0, 1.0], [0.0, 4.0, 19.0], [0.0, 3.0, 0.0], [0.0, 1.0, 19.0], [0.0, 1.0, 0.0], [0.0, 0.0, 19.0]]}, {"children_left": [1, 2, -1, 4, 5, 6, -1, 8, -1, -1, -1, -1, 13, -1, -1], "children_right": [12, 3, -1, 11, 10, 7, -1, 9, -1, -1, -1, -1, 14, -1, -1], "feature": [28, 26, -2, 8, 4, 20, -2, 32, -2, -2, -2, -2, 20, -2, -2], "threshold": [3.6420682647531066e-07, -1.996481898913771e-06, -2.0, -5.673812211171025e-06, 4.467712642508559e-06, -1.6351447129636654e-06, -2.0, -7.932153911482942e-08, -2.0, -2.0, -2.0, -2.0, -5.844540851285274e-08, -2.0, -2.0], "value": [[25.0, 39.0, 27.0], [25.0, 17.0, 22.0], [25.0, 0.0, 0.0], [0.0, 17.0, 22.0], [0.0, 17.0, 2.0], [0.0, 3.0, 2.0], [0.0, 2.0, 0.0], [0.0, 1.0, 2.0], [0.0, 1.0, 0.0], [0.0, 0.0, 2.0], [0.0, 14.0, 0.0], [0.0, 0.0, 20.0], [0.0, 22.0, 5.0], [0.0, 0.0, 5.0], [0.0, 22.0, 0.0]]}, {"children_left": [1, 2, -1, 4, 5, -1, -1, -1, 9, -1, 11, -1, 13, -1, -1], "children_right": [8, 3, -1, 7, 6, -1, -1, -1, 10, -1, 12, -1, 14, -1, -1], "feature": [13, 6, -2, 26, 8, -2, -2, -2, 28, -2, 1, -2, 42, -2, -2], "threshold": [2.0950050227952488e-07, -7.686661476213885e-07, -2.0, 1.1564777508965562e-06, -7.902502147771884e-06, -2.0, -2.0, -2.0, -7.998732343139636e-07, -2.0, 0.0007171968463808298, -2.0, -7.442948035674135e-08, -2.0, -2.0], "value": [[25.0, 41.0, 25.0], [0.0, 22.0, 20.0], [0.0, 0.0, 19.0], [0.0, 22.0, 1.0], [0.0, 4.0, 1.0], [0.0, 4.0, 0.0], [0.0, 0.0, 1.0], [0.0, 18.0, 0.0], [25.0, 19.0, 5.0], [0.0, 18.0, 0.0], [25.0, 1.0, 5.0], [25.0, 0.0, 0.0], [0.0, 1.0, 5.0], [0.0, 1.0, 0.0], [0.0, 0.0, 5.0]]}, {"children_left": [1, 2, -1, 4, -1, -1, 7, 8, -1, -1, 11, -1, -1], "children_right": [6, 3, -1, 5, -1, -1, 10, 9, -1, -1, 12, -1, -1], "feature": [23, 17, -2, 0, -2, -2, 20, 11, -2, -2, 16, -2, -2], "threshold": [-2.8404514296198613e-07, 4.3838851979671745e-06, -2.0, 0.952810138463974, -2.0, -2.0, -5.21987075785546e-07, 7.484723520967407e-07, -2.0, -2.0, 1.2673861135681364e-05, -2.0, -2.0], "value": [[19.0, 39.0, 33.0], [0.0, 4.0, 29.0], [0.0, 0.0, 28.0], [0.0, 4.0, 1.0], [0.0, 0.0, 1.0], [0.0, 4.0, 0.0], [19.0, 35.0, 4.0], [19.0, 0.0, 3.0], [19.0, 0.0, 0.0], [0.0, 0.0, 3.0], [0.0, 35.0, 1.0], [0.0, 35.0, 0.0], [0.0, 0.0, 1.0]]}, {"children_left": [1, 2, -1, -1, 5, 6, 7, -1, 9, -1, -1, 12, 13, -1, -1, -1, 17, -1, -1], "children_right": [4, 3, -1, -1, 16, 11, 8, -1, 10, -1, -1, 15, 14, -1, -1, -1, 18, -1, -1], "feature": [28, 6, -2, -2, 0, 8, 20, -2, 43, -2, -2, 4, 0, -2, -2, -2, 12, -2, -2], "threshold": [-8.037982297537383e-07, -2.881912905650097e-06, -2.0, -2.0, 0.9997284710407257, -1.0792112789204111e-05, -1.3262911124911625e-06, -2.0, -5.3082011050586964e-08, -2.0, -2.0, -3.389652010810096e-05, 0.9532030820846558, -2.0, -2.0, -2.0, 7.513293098782015e-08, -2.0, -2.0], "value": [[20.0, 33.0, 38.0], [0.0, 13.0, 1.0], [0.0, 0.0, 1.0], [0.0, 13.0, 0.0], [20.0, 20.0, 37.0], [0.0, 5.0, 37.0], [0.0, 4.0, 6.0], [0.0, 2.0, 0.0], [0.0, 2.0, 6.0], [0.0, 2.0, 0.0], [0.0, 0.0, 6.0], [0.0, 1.0, 31.0], [0.0, 1.0, 5.0], [0.0, 0.0, 5.0], [0.0, 1.0, 0.0], [0.0, 0.0, 26.0], [20.0, 15.0, 0.0], [0.0, 15.0, 0.0], [20.0, 0.0, 0.0]]}, {"children_left": [1, -1, 3, 4, -1, 6, 7, -1, -1, -1, -1], "children_right": [2, -1, 10, 5, -1, 9, 8, -1, -1, -1, -1], "feature": [26, -2, 29, 20, -2, 20, 29, -2, -2, -2, -2], "threshold": [-2.1330784534256964e-06, -2.0, 5.744817954678183e-08, -1.0225908908978454e-05, -2.0, 6.49811869379846e-06, -1.3764565949259122e-06, -2.0, -2.0, -2.0, -2.0], "value": [[24.0, 35.0, 32.0], [24.0, 0.0, 0.0], [0.0, 35.0, 32.0], [0.0, 35.0, 12.0], [0.0, 0.0, 4.0], [0.0, 35.0, 8.0], [0.0, 35.0, 4.0], [0.0, 0.0, 4.0], [0.0, 35.0, 0.0], [0.0, 0.0, 4.0], [0.0, 0.0, 20.0]]}, {"children_left": [1, 2, 3, 4, -1, -1, -1, 8, -1, -1, -1], "children_right": [10, 7, 6, 5, -1, -1, -1, 9, -1, -1, -1], "feature": [0, 26, 23, 0, -2, -2, -2, 9, -2, -2, -2], "threshold": [0.9997520446777344, 5.616099585381562e-08, -3.947544087168353e-06, 0.9528518915176392, -2.0, -2.0, -2.0, -6.793631825985358e-07, -2.0, -2.0, -2.0], "value": [[23.0, 38.0, 30.0], [0.0, 38.0, 30.0], [0.0, 2.0, 14.0], [0.0, 2.0, 1.0], [0.0, 0.0, 1.0], [0.0, 2.0, 0.0], [0.0, 0.0, 13.0], [0.0, 36.0, 16.0], [0.0, 0.0, 13.0], [0.0, 36.0, 3.0], [23.0, 0.0, 0.0]]}, {"children_left": [1, -1, 3, 4, -1, -1, -1], "children_right": [2, -1, 6, 5, -1, -1, -1], "feature": [14, -2, 0, 29, -2, -2, -2], "threshold": [-3.7277958142567513e-07, -2.0, 0.9997520446777344, 2.5928432023647474e-07, -2.0, -2.0, -2.0], "value": [[21.0, 33.0, 37.0], [0.0, 0.0, 27.0], [21.0, 33.0, 10.0], [0.0, 33.0, 10.0], [0.0, 33.0, 9.0], [0.0, 0.0, 1.0], [21.0, 0.0, 0.0]]}, {"children_left": [1, 2, 3, 4, -1, -1, -1, 8, -1, -1, 11, -1, -1], "children_right": [10, 7, 6, 5, -1, -1, -1, 9, -1, -1, 12, -1, -1], "feature": [23, 4, 19, 8, -2, -2, -2, 9, -2, -2, 26, -2, -2], "threshold": [1.2906120261391152e-07, 1.4716376313117507e-06, -1.1074690178247693e-06, 1.76665589606273e-05, -2.0, -2.0, -2.0, 4.888621219834022e-06, -2.0, -2.0, -1.996481898913771e-06, -2.0, -2.0], "value": [[25.0, 37.0, 29.0], [0.0, 37.0, 18.0], [0.0, 5.0, 15.0], [0.0, 5.0, 2.0], [0.0, 5.0, 0.0], [0.0, 0.0, 2.0], [0.0, 0.0, 13.0], [0.0, 32.0, 3.0], [0.0, 32.0, 0.0], [0.0, 0.0, 3.0], [25.0, 0.0, 11.0], [25.0, 0.0, 0.0], [0.0, 0.0, 11.0]]}, {"children_left": [1, 2, 3, -1, -1, 6, -1, -1, 9, 10, -1, 12, -1, -1, 15, -1, 17, -1, -1], "children_right": [8, 5, 4, -1, -1, 7, -1, -1, 14, 11, -1, 13, -1, -1, 16, -1, 18, -1, -1], "feature": [24, 4, 7, -2, -2, 19, -2, -2, 17, 13, -2, 24, -2, -2, 25, -2, 16, -2, -2], "threshold": [4.4844181701364505e-09, 3.173871840544962e-05, -1.4350048104461166e-05, -2.0, -2.0, 4.1838908870772684e-07, -2.0, -2.0, 1.5804236142002992e-07, 1.8966256298824646e-07, -2.0, 4.90250720019958e-07, -2.0, -2.0, -3.566906769947309e-09, -2.0, 5.554985591516015e-06, -2.0, -2.0], "value": [[24.0, 34.0, 33.0], [0.0, 13.0, 20.0], [0.0, 1.0, 15.0], [0.0, 1.0, 0.0], [0.0, 0.0, 15.0], [0.0, 12.0, 5.0], [0.0, 0.0, 5.0], [0.0, 12.0, 0.0], [24.0, 21.0, 13.0], [24.0, 0.0, 10.0], [0.0, 0.0, 6.0], [24.0, 0.0, 4.0], [24.0, 0.0, 0.0], [0.0, 0.0, 4.0], [0.0, 21.0, 3.0], [0.0, 20.0, 0.0], [0.0, 1.0, 3.0], [0.0, 0.0, 3.0], [0.0, 1.0, 0.0]]}, {"children_left": [1, 2, -1, 4, 5, -1, -1, 8, -1, 10, -1, -1, -1], "children_right": [12, 3, -1, 7, 6, -1, -1, 9, -1, 11, -1, -1, -1], "feature": [27, 17, -2, 23, 7, -2, -2, 3, -2, 29, -2, -2, -2], "threshold": [2.7367504173980706e-07, -2.7920860361518862e-06, -2.0, 1.223543968364993e-07, 2.8633239708142355e-05, -2.0, -2.0, -8.579097311667283e-05, -2.0, -2.1390362547890618e-07, -2.0, -2.0, -2.0], "value": [[14.0, 28.0, 49.0], [14.0, 28.0, 13.0], [0.0, 0.0, 6.0], [14.0, 28.0, 7.0], [0.0, 28.0, 2.0], [0.0, 28.0, 0.0], [0.0, 0.0, 2.0], [14.0, 0.0, 5.0], [0.0, 0.0, 3.0], [14.0, 0.0, 2.0], [0.0, 0.0, 2.0], [14.0, 0.0, 0.0], [0.0, 0.0, 36.0]]}, {"children_left": [1, 2, -1, 4, 5, -1, -1, 8, 9, -1, -1, -1, 13, 14, -1, -1, 17, 18, -1, -1, -1], "children_right": [12, 3, -1, 7, 6, -1, -1, 11, 10, -1, -1, -1, 16, 15, -1, -1, 20, 19, -1, -1, -1], "feature": [19, 11, -2, 10, 22, -2, -2, 8, 28, -2, -2, -2, 4, 7, -2, -2, 29, 2, -2, -2, -2], "threshold": [-6.151427633938056e-08, -6.660549704662344e-06, -2.0, -1.4523837421620556e-07, 2.3983861865417566e-06, -2.0, -2.0, -6.092682184544174e-06, -3.1524027832574575e-09, -2.0, -2.0, -2.0, 6.514796382361965e-07, 1.2092405484054325e-05, -2.0, -2.0, 2.0658358934610987e-07, -1.0887488315347582e-05, -2.0, -2.0, -2.0], "value": [[20.0, 35.0, 36.0], [0.0, 28.0, 21.0], [0.0, 0.0, 8.0], [0.0, 28.0, 13.0], [0.0, 27.0, 3.0], [0.0, 27.0, 0.0], [0.0, 0.0, 3.0], [0.0, 1.0, 10.0], [0.0, 1.0, 1.0], [0.0, 1.0, 0.0], [0.0, 0.0, 1.0], [0.0, 0.0, 9.0], [20.0, 7.0, 15.0], [20.0, 0.0, 4.0], [20.0, 0.0, 0.0], [0.0, 0.0, 4.0], [0.0, 7.0, 11.0], [0.0, 7.0, 2.0], [0.0, 7.0, 0.0], [0.0, 0.0, 2.0], [0.0, 0.0, 9.0]]}, {"children_left": [1, 2, 3, -1, 5, -1, -1, 8, 9, -1, 11, -1, -1, -1, -1], "children_right": [14, 7, 4, -1, 6, -1, -1, 13, 10, -1, 12, -1, -1, -1, -1], "feature": [0, 10, 12, -2, 7, -2, -2, 8, 18, -2, 37, -2, -2, -2, -2], "threshold": [0.9997520446777344, -3.732952436052983e-07, -1.707376199533428e-05, -2.0, 4.9261439926340245e-05, -2.0, -2.0, -4.9782925088948105e-06, -2.2299770563449783e-07, -2.0, -1.9999475853182958e-07, -2.0, -2.0, -2.0, -2.0], "value": [[19.0, 31.0, 41.0], [0.0, 31.0, 41.0], [0.0, 21.0, 4.0], [0.0, 0.0, 2.0], [0.0, 21.0, 2.0], [0.0, 21.0, 0.0], [0.0, 0.0, 2.0], [0.0, 10.0, 37.0], [0.0, 10.0, 10.0], [0.0, 8.0, 0.0], [0.0, 2.0, 10.0], [0.0, 2.0, 0.0], [0.0, 0.0, 10.0], [0.0, 0.0, 27.0], [19.0, 0.0, 0.0]]}, {"children_left": [1, 2, 3, -1, 5, -1, 7, -1, -1, 10, 11, -1, -1, -1, 15, -1, -1], "children_right": [14, 9, 4, -1, 6, -1, 8, -1, -1, 13, 12, -1, -1, -1, 16, -1, -1], "feature": [23, 7, 2, -2, 32, -2, 0, -2, -2, 27, 1, -2, -2, -2, 6, -2, -2], "threshold": [1.1143665901158784e-07, 8.002329678902242e-07, 2.5158694199944875e-05, -2.0, -7.409207736230883e-08, -2.0, 0.953158438205719, -2.0, -2.0, 5.160690790262379e-07, 0.0045222267508506775, -2.0, -2.0, -2.0, 2.441353444737615e-06, -2.0, -2.0], "value": [[22.0, 29.0, 40.0], [0.0, 29.0, 24.0], [0.0, 27.0, 7.0], [0.0, 24.0, 0.0], [0.0, 3.0, 7.0], [0.0, 2.0, 0.0], [0.0, 1.0, 7.0], [0.0, 0.0, 7.0], [0.0, 1.0, 0.0], [0.0, 2.0, 17.0], [0.0, 2.0, 7.0], [0.0, 2.0, 0.0], [0.0, 0.0, 7.0], [0.0, 0.0, 10.0], [22.0, 0.0, 16.0], [0.0, 0.0, 13.0], [22.0, 0.0, 3.0]]}, {"children_left": [1, 2, -1, 4, -1, -1, 7, 8, 9, -1, -1, -1, 13, -1, 15, -1, -1], "children_right": [6, 3, -1, 5, -1, -1, 12, 11, 10, -1, -1, -1, 14, -1, 16, -1, -1], "feature": [14, 6, -2, 13, -2, -2, 6, 11, 11, -2, -2, -2, 34, -2, 16, -2, -2], "threshold": [-5.37851505555409e-07, 3.371746697666822e-05, -2.0, -1.7825002487370512e-06, -2.0, -2.0, 2.481784008523391e-06, 7.183596353321775e-07, -6.660140190462016e-06, -2.0, -2.0, -2.0, -1.2039874519587102e-07, -2.0, 2.2320964063737847e-06, -2.0, -2.0], "value": [[22.0, 29.0, 40.0], [0.0, 1.0, 22.0], [0.0, 0.0, 20.0], [0.0, 1.0, 2.0], [0.0, 1.0, 0.0], [0.0, 0.0, 2.0], [22.0, 28.0, 18.0], [0.0, 28.0, 14.0], [0.0, 28.0, 4.0], [0.0, 0.0, 4.0], [0.0, 28.0, 0.0], [0.0, 0.0, 10.0], [22.0, 0.0, 4.0], [7.0, 0.0, 0.0], [15.0, 0.0, 4.0], [15.0, 0.0, 0.0], [0.0, 0.0, 4.0]]}, {"children_left": [1, 2, -1, 4, -1, -1, 7, 8, 9, -1, -1, -1, 13, 14, -1, -1, -1], "children_right": [6, 3, -1, 5, -1, -1, 12, 11, 10, -1, -1, -1, 16, 15, -1, -1, -1], "feature": [27, 22, -2, 13, -2, -2, 15, 18, 12, -2, -2, -2, 13, 9, -2, -2, -2], "threshold": [-1.2384543524035507e-07, -5.031603620864189e-06, -2.0, 2.1434377686091466e-06, -2.0, -2.0, -4.720949107195338e-07, 1.1111546882602852e-07, 1.1655638786578493e-05, -2.0, -2.0, -2.0, -4.651167728297878e-06, 2.621509338496253e-06, -2.0, -2.0, -2.0], "value": [[23.0, 36.0, 32.0], [0.0, 33.0, 7.0], [0.0, 0.0, 6.0], [0.0, 33.0, 1.0], [0.0, 33.0, 0.0], [0.0, 0.0, 1.0], [23.0, 3.0, 25.0], [23.0, 1.0, 4.0], [23.0, 1.0, 0.0], [23.0, 0.0, 0.0], [0.0, 1.0, 0.0], [0.0, 0.0, 4.0], [0.0, 2.0, 21.0], [0.0, 2.0, 2.0], [0.0, 2.0, 0.0], [0.0, 0.0, 2.0], [0.0, 0.0, 19.0]]}, {"children_left": [1, 2, -1, 4, 5, -1, -1, 8, -1, 10, -1, -1, -1], "children_right": [12, 3, -1, 7, 6, -1, -1, 9, -1, 11, -1, -1, -1], "feature": [0, 6, -2, 7, 23, -2, -2, 39, -2, 0, -2, -2, -2], "threshold": [0.9997520446777344, -7.577981744333329e-07, -2.0, 4.1319655963434343e-07, 1.9669300499458586e-07, -2.0, -2.0, -5.286110399405075e-08, -2.0, 0.9528518915176392, -2.0, -2.0, -2.0], "value": [[25.0, 39.0, 27.0], [0.0, 39.0, 27.0], [0.0, 0.0, 21.0], [0.0, 39.0, 6.0], [0.0, 37.0, 2.0], [0.0, 37.0, 0.0], [0.0, 0.0, 2.0], [0.0, 2.0, 4.0], [0.0, 1.0, 0.0], [0.0, 1.0, 4.0], [0.0, 0.0, 4.0], [0.0, 1.0, 0.0], [25.0, 0.0, 0.0]]}, {"children_left": [1, 2, 3, -1, -1, -1, 7, 8, -1, 10, -1, 12, -1, -1, 15, 16, -1, -1, -1], "children_right": [6, 5, 4, -1, -1, -1, 14, 9, -1, 11, -1, 13, -1, -1, 18, 17, -1, -1, -1], "feature": [27, 10, 11, -2, -2, -2, 22, 2, -2, 35, -2, 2, -2, -2, 23, 11, -2, -2, -2], "threshold": [-1.2073072142015917e-07, 9.288556498177059e-06, -6.661626361648132e-06, -2.0, -2.0, -2.0, -2.0464553784904638e-07, -1.6089617815850943e-06, -2.0, -1.014476218585969e-07, -2.0, 0.00037422242166940123, -2.0, -2.0, -3.6257913507142803e-06, 1.2642265119211515e-05, -2.0, -2.0, -2.0], "value": [[23.0, 33.0, 35.0], [0.0, 30.0, 6.0], [0.0, 30.0, 1.0], [0.0, 0.0, 1.0], [0.0, 30.0, 0.0], [0.0, 0.0, 5.0], [23.0, 3.0, 29.0], [23.0, 2.0, 9.0], [23.0, 0.0, 0.0], [0.0, 2.0, 9.0], [0.0, 0.0, 4.0], [0.0, 2.0, 5.0], [0.0, 0.0, 5.0], [0.0, 2.0, 0.0], [0.0, 1.0, 20.0], [0.0, 1.0, 2.0], [0.0, 1.0, 0.0], [0.0, 0.0, 2.0], [0.0, 0.0, 18.0]]}, {"children_left": [1, -1, 3, 4, -1, 6, 7, -1, -1, -1, 11, 12, 13, 14, -1, -1, -1, -1, -1], "children_right": [2, -1, 10, 5, -1, 9, 8, -1, -1, -1, 18, 17, 16, 15, -1, -1, -1, -1, -1], "feature": [26, -2, 12, 17, -2, 24, 7, -2, -2, -2, 23, 23, 23, 37, -2, -2, -2, -2, -2], "threshold": [-1.9523034779922455e-06, -2.0, -2.287717961735325e-06, -5.161240153483959e-06, -2.0, -4.996390288170005e-06, -3.0635692382929847e-07, -2.0, -2.0, -2.0, 1.548653081329121e-07, -2.410954280662736e-07, -6.616075438614644e-07, 2.1124432691976835e-07, -2.0, -2.0, -2.0, -2.0, -2.0], "value": [[20.0, 39.0, 32.0], [20.0, 0.0, 0.0], [0.0, 39.0, 32.0], [0.0, 22.0, 3.0], [0.0, 0.0, 1.0], [0.0, 22.0, 2.0], [0.0, 2.0, 2.0], [0.0, 2.0, 0.0], [0.0, 0.0, 2.0], [0.0, 20.0, 0.0], [0.0, 17.0, 29.0], [0.0, 17.0, 16.0], [0.0, 4.0, 16.0], [0.0, 4.0, 1.0], [0.0, 4.0, 0.0], [0.0, 0.0, 1.0], [0.0, 0.0, 15.0], [0.0, 13.0, 0.0], [0.0, 0.0, 13.0]]}, {"children_left": [1, 2, 3, -1, 5, -1, -1, -1, 9, 10, -1, 12, -1, -1, 15, -1, -1], "children_right": [8, 7, 4, -1, 6, -1, -1, -1, 14, 11, -1, 13, -1, -1, 16, -1, -1], "feature": [21, 3, 18, -2, 3, -2, -2, -2, 9, 3, -2, 10, -2, -2, 11, -2, -2], "threshold": [3.905061518594266e-08, 4.065162784172571e-08, 2.370921947658644e-08, -2.0, -0.00012604381299752276, -2.0, -2.0, -2.0, -6.793631825985358e-07, 3.517093190907872e-05, -2.0, 1.2033087841700763e-06, -2.0, -2.0, 7.183596353321775e-07, -2.0, -2.0], "value": [[24.0, 33.0, 34.0], [24.0, 1.0, 18.0], [24.0, 1.0, 1.0], [24.0, 0.0, 0.0], [0.0, 1.0, 1.0], [0.0, 0.0, 1.0], [0.0, 1.0, 0.0], [0.0, 0.0, 17.0], [0.0, 32.0, 16.0], [0.0, 2.0, 14.0], [0.0, 0.0, 12.0], [0.0, 2.0, 2.0], [0.0, 2.0, 0.0], [0.0, 0.0, 2.0], [0.0, 30.0, 2.0], [0.0, 30.0, 0.0], [0.0, 0.0, 2.0]]}, {"children_left": [1, 2, -1, 4, -1, 6, -1, -1, 9, 10, -1, -1, -1], "children_right": [8, 3, -1, 5, -1, 7, -1, -1, 12, 11, -1, -1, -1], "feature": [9, 6, -2, 26, -2, 0, -2, -2, 19, 13, -2, -2, -2], "threshold": [1.207288562454778e-06, -7.620193098745176e-07, -2.0, -5.592925980124619e-07, -2.0, 0.9521744251251221, -2.0, -2.0, -1.120996884651504e-06, -4.4775654259865405e-06, -2.0, -2.0, -2.0], "value": [[23.0, 34.0, 34.0], [0.0, 30.0, 30.0], [0.0, 0.0, 24.0], [0.0, 30.0, 6.0], [0.0, 0.0, 5.0], [0.0, 30.0, 1.0], [0.0, 0.0, 1.0], [0.0, 30.0, 0.0], [23.0, 4.0, 4.0], [0.0, 4.0, 4.0], [0.0, 0.0, 4.0], [0.0, 4.0, 0.0], [23.0, 0.0, 0.0]]}, {"children_left": [1, -1, 3, 4, 5, -1, 7, -1, -1, -1, 11, 12, -1, -1, -1], "children_right": [2, -1, 10, 9, 6, -1, 8, -1, -1, -1, 14, 13, -1, -1, -1], "feature": [26, -2, 12, 0, 3, -2, 2, -2, -2, -2, 14, 9, -2, -2, -2], "threshold": [-2.1330784534256964e-06, -2.0, -3.5200616821384756e-07, 0.9997278451919556, -1.9430544341503264e-05, -2.0, 0.00016455799413961358, -2.0, -2.0, -2.0, -3.5429410729648225e-06, -4.6652526179968845e-06, -2.0, -2.0, -2.0], "value": [[24.0, 30.0, 37.0], [24.0, 0.0, 0.0], [0.0, 30.0, 37.0], [0.0, 27.0, 23.0], [0.0, 10.0, 23.0], [0.0, 9.0, 0.0], [0.0, 1.0, 23.0], [0.0, 0.0, 23.0], [0.0, 1.0, 0.0], [0.0, 17.0, 0.0], [0.0, 3.0, 14.0], [0.0, 3.0, 1.0], [0.0, 3.0, 0.0], [0.0, 0.0, 1.0], [0.0, 0.0, 13.0]]}, {"children_left": [1, 2, 3, -1, -1, -1, 7, -1, 9, 10, -1, -1, -1], "children_right": [6, 5, 4, -1, -1, -1, 8, -1, 12, 11, -1, -1, -1], "feature": [21, 2, 28, -2, -2, -2, 6, -2, 8, 28, -2, -2, -2], "threshold": [1.108269742644552e-08, -7.939398471989989e-07, -6.781727446281138e-08, -2.0, -2.0, -2.0, -2.0861748151190795e-06, -2.0, 2.5318345819869137e-05, 3.095244125006502e-06, -2.0, -2.0, -2.0], "value": [[28.0, 30.0, 33.0], [28.0, 0.0, 20.0], [28.0, 0.0, 6.0], [28.0, 0.0, 0.0], [0.0, 0.0, 6.0], [0.0, 0.0, 14.0], [0.0, 30.0, 13.0], [0.0, 0.0, 7.0], [0.0, 30.0, 6.0], [0.0, 30.0, 4.0], [0.0, 30.0, 0.0], [0.0, 0.0, 4.0], [0.0, 0.0, 2.0]]}, {"children_left": [1, 2, 3, 4, -1, -1, -1, 8, -1, -1, 11, -1, 13, -1, 15, 16, -1, -1, -1], "children_right": [10, 7, 6, 5, -1, -1, -1, 9, -1, -1, 12, -1, 14, -1, 18, 17, -1, -1, -1], "feature": [20, 4, 2, 28, -2, -2, -2, 19, -2, -2, 9, -2, 5, -2, 17, 0, -2, -2, -2], "threshold": [-5.285773880814304e-07, -1.5448898498249264e-05, -4.394694587972481e-05, 6.36594137404245e-08, -2.0, -2.0, -2.0, 7.584113781433643e-08, -2.0, -2.0, -6.372537200149964e-07, -2.0, 1.117997356914202e-06, -2.0, 2.0263871022052626e-05, 0.9529402554035187, -2.0, -2.0, -2.0], "value": [[23.0, 40.0, 28.0], [23.0, 5.0, 7.0], [0.0, 5.0, 5.0], [0.0, 5.0, 1.0], [0.0, 5.0, 0.0], [0.0, 0.0, 1.0], [0.0, 0.0, 4.0], [23.0, 0.0, 2.0], [0.0, 0.0, 2.0], [23.0, 0.0, 0.0], [0.0, 35.0, 21.0], [0.0, 0.0, 18.0], [0.0, 35.0, 3.0], [0.0, 34.0, 0.0], [0.0, 1.0, 3.0], [0.0, 1.0, 1.0], [0.0, 1.0, 0.0], [0.0, 0.0, 1.0], [0.0, 0.0, 2.0]]}, {"children_left": [1, 2, 3, -1, -1, -1, 7, 8, -1, 10, -1, -1, 13, 14, -1, -1, 17, -1, -1], "children_right": [6, 5, 4, -1, -1, -1, 12, 9, -1, 11, -1, -1, 16, 15, -1, -1, 18, -1, -1], "feature": [18, 2, 28, -2, -2, -2, 16, 10, -2, 17, -2, -2, 13, 2, -2, -2, 13, -2, -2], "threshold": [-4.917368983115011e-07, -6.731586984187743e-05, -7.597460438546477e-09, -2.0, -2.0, -2.0, 2.223106960741461e-07, 2.927021455434442e-06, -2.0, 1.534616842491232e-06, -2.0, -2.0, -1.619150058473906e-07, 0.00011792616788852683, -2.0, -2.0, 3.6695955714094453e-06, -2.0, -2.0], "value": [[25.0, 35.0, 31.0], [25.0, 1.0, 4.0], [0.0, 1.0, 4.0], [0.0, 1.0, 0.0], [0.0, 0.0, 4.0], [25.0, 0.0, 0.0], [0.0, 34.0, 27.0], [0.0, 9.0, 21.0], [0.0, 0.0, 20.0], [0.0, 9.0, 1.0], [0.0, 9.0, 0.0], [0.0, 0.0, 1.0], [0.0, 25.0, 6.0], [0.0, 24.0, 1.0], [0.0, 24.0, 0.0], [0.0, 0.0, 1.0], [0.0, 1.0, 5.0], [0.0, 0.0, 5.0], [0.0, 1.0, 0.0]]}, {"children_left": [1, -1, 3, 4, 5, 6, -1, -1, -1, 10, -1, -1, -1], "children_right": [2, -1, 12, 9, 8, 7, -1, -1, -1, 11, -1, -1, -1], "feature": [1, -2, 29, 4, 1, 16, -2, -2, -2, 21, -2, -2, -2], "threshold": [-0.0030315601034089923, -2.0, 2.605858924198401e-07, 1.367987465528131e-06, 0.004487174795940518, 5.554985591516015e-06, -2.0, -2.0, -2.0, -1.3230352635673626e-07, -2.0, -2.0, -2.0], "value": [[22.0, 31.0, 38.0], [22.0, 0.0, 0.0], [0.0, 31.0, 38.0], [0.0, 31.0, 19.0], [0.0, 2.0, 16.0], [0.0, 2.0, 5.0], [0.0, 0.0, 5.0], [0.0, 2.0, 0.0], [0.0, 0.0, 11.0], [0.0, 29.0, 3.0], [0.0, 0.0, 3.0], [0.0, 29.0, 0.0], [0.0, 0.0, 19.0]]}]