[{"children_left": [1, 2, -1, 4, 5, 6, -1, -1, -1, -1, 11, 12, 13, -1, -1, -1, 17, -1, -1], "children_right": [10, 3, -1, 9, 8, 7, -1, -1, -1, -1, 16, 15, 14, -1, -1, -1, 18, -1, -1], "feature": [18, 26, -2, 10, 25, 18, -2, -2, -2, -2, 23, 26, 11, -2, -2, -2, 21, -2, -2], "threshold": [4.2847347003771574e-08, -1.9198797076569463e-06, -2.0, 4.076775667272159e-06, 9.305037167450791e-07, -2.5503246092739573e-07, -2.0, -2.0, -2.0, -2.0, -2.745317786434498e-07, 1.0647242945083235e-06, 4.324899379071212e-06, -2.0, -2.0, -2.0, 2.4598371339834557e-08, -2.0, -2.0], "value": [[22.0, 19.0, 25.0, 18.0, 26.0], [22.0, 18.0, 0.0, 9.0, 0.0], [22.0, 0.0, 0.0, 0.0, 0.0], [0.0, 18.0, 0.0, 9.0, 0.0], [0.0, 18.0, 0.0, 2.0, 0.0], [0.0, 18.0, 0.0, 1.0, 0.0], [0.0, 18.0, 0.0, 0.0, 0.0], [0.0, 0.0, 0.0, 1.0, 0.0], [0.0, 0.0, 0.0, 1.0, 0.0], [0.0, 0.0, 0.0, 7.0, 0.0], [0.0, 1.0, 25.0, 9.0, 26.0], [0.0, 1.0, 0.0, 3.0, 26.0], [0.0, 1.0, 0.0, 3.0, 0.0], [0.0, 0.0, 0.0, 3.0, 0.0], [0.0, 1.0, 0.0, 0.0, 0.0], [0.0, 0.0, 0.0, 0.0, 26.0], [0.0, 0.0, 25.0, 6.0, 0.0], [0.0, 0.0, 0.0, 6.0, 0.0], [0.0, 0.0, 25.0, 0.0, 0.0]]}, {"children_left": [1, 2, 3, 4, 5, -1, -1, -1, 9, -1, 11, -1, 13, -1, -1, -1, 17, -1, -1], "children_right": [16, 15, 8, 7, 6, -1, -1, -1, 10, -1, 12, -1, 14, -1, -1, -1, 18, -1, -1], "feature": [0, 0, 8, 29, 14, -2, -2, -2, 13, -2, 13, -2, 10, -2, -2, -2, 23, -2, -2], "threshold": [0.9997284710407257, 0.9782557189464569, -4.987850843463093e-06, 2.08208634999707e-07, 1.4910151833191776e-06, -2.0, -2.0, -2.0, -7.643575372640043e-06, -2.0, -3.697991587614524e-06, -2.0, -2.712998139031697e-05, -2.0, -2.0, -2.0, 1.6286315274172125e-07, -2.0, -2.0], "value": [[22.0, 20.0, 22.0, 21.0, 25.0], [0.0, 20.0, 0.0, 21.0, 25.0], [0.0, 20.0, 0.0, 21.0, 0.0], [0.0, 17.0, 0.0, 5.0, 0.0], [0.0, 17.0, 0.0, 2.0, 0.0], [0.0, 17.0, 0.0, 0.0, 0.0], [0.0, 0.0, 0.0, 2.0, 0.0], [0.0, 0.0, 0.0, 3.0, 0.0], [0.0, 3.0, 0.0, 16.0, 0.0], [0.0, 0.0, 0.0, 13.0, 0.0], [0.0, 3.0, 0.0, 3.0, 0.0], [0.0, 2.0, 0.0, 0.0, 0.0], [0.0, 1.0, 0.0, 3.0, 0.0], [0.0, 1.0, 0.0, 0.0, 0.0], [0.0, 0.0, 0.0, 3.0, 0.0], [0.0, 0.0, 0.0, 0.0, 25.0], [22.0, 0.0, 22.0, 0.0, 0.0], [0.0, 0.0, 22.0, 0.0, 0.0], [22.0, 0.0, 0.0, 0.0, 0.0]]}, {"children_left": [1, -1, 3, 4, 5, -1, -1, -1, 9, 10, -1, 12, -1, -1, 15, 16, -1, -1, -1], "children_right": [2, -1, 8, 7, 6, -1, -1, -1, 14, 11, -1, 13, -1, -1, 18, 17, -1, -1, -1], "feature": [29, -2, 8, 29, 11, -2, -2, -2, 4, 0, -2, 22, -2, -2, 0, 23, -2, -2, -2], "threshold": [-1.4066212656871357e-06, -2.0, -4.987850843463093e-06, 2.0658358934610987e-07, -1.6497130804538074e-05, -2.0, -2.0, -2.0, -3.490502454184252e-06, 0.9530774354934692, -2.0, 4.948930381942773e-06, -2.0, -2.0, 0.9997520446777344, -2.624213450985735e-07, -2.0, -2.0, -2.0], "value": [[23.0, 28.0, 12.0, 22.0, 25.0], [0.0, 0.0, 0.0, 0.0, 18.0], [23.0, 28.0, 12.0, 22.0, 7.0], [0.0, 23.0, 0.0, 5.0, 0.0], [0.0, 23.0, 0.0, 2.0, 0.0], [0.0, 0.0, 0.0, 2.0, 0.0], [0.0, 23.0, 0.0, 0.0, 0.0], [0.0, 0.0, 0.0, 3.0, 0.0], [23.0, 5.0, 12.0, 17.0, 7.0], [0.0, 5.0, 0.0, 17.0, 0.0], [0.0, 0.0, 0.0, 15.0, 0.0], [0.0, 5.0, 0.0, 2.0, 0.0], [0.0, 5.0, 0.0, 0.0, 0.0], [0.0, 0.0, 0.0, 2.0, 0.0], [23.0, 0.0, 12.0, 0.0, 7.0], [0.0, 0.0, 12.0, 0.0, 7.0], [0.0, 0.0, 0.0, 0.0, 7.0], [0.0, 0.0, 12.0, 0.0, 0.0], [23.0, 0.0, 0.0, 0.0, 0.0]]}, {"children_left": [1, 2, 3, 4, -1, 6, -1, -1, 9, -1, -1, 12, 13, -1, -1, -1, 17, 18, -1, -1, 21, -1, -1], "children_right": [16, 11, 8, 5, -1, 7, -1, -1, 10, -1, -1, 15, 14, -1, -1, -1, 20, 19, -1, -1, 22, -1, -1], "feature": [14, 20, 16, 7, -2, 4, -2, -2, 2, -2, -2, 26, 7, -2, -2, -2, 28, 24, -2, -2, 23, -2, -2], "threshold": [8.152110808623547e-07, 5.524183848137909e-07, -8.473122647956188e-07, -1.3465273696056101e-05, -2.0, -5.247469562164042e-05, -2.0, -2.0, 0.00014122425193363597, -2.0, -2.0, 1.1564777508965562e-06, 2.387186214036774e-06, -2.0, -2.0, -2.0, -6.015636699885363e-08, 4.85241407943704e-07, -2.0, -2.0, -9.025428994391405e-06, -2.0, -2.0], "value": [[18.0, 16.0, 30.0, 27.0, 19.0], [0.0, 15.0, 30.0, 9.0, 19.0], [0.0, 13.0, 0.0, 8.0, 19.0], [0.0, 13.0, 0.0, 6.0, 0.0], [0.0, 8.0, 0.0, 0.0, 0.0], [0.0, 5.0, 0.0, 6.0, 0.0], [0.0, 5.0, 0.0, 0.0, 0.0], [0.0, 0.0, 0.0, 6.0, 0.0], [0.0, 0.0, 0.0, 2.0, 19.0], [0.0, 0.0, 0.0, 0.0, 19.0], [0.0, 0.0, 0.0, 2.0, 0.0], [0.0, 2.0, 30.0, 1.0, 0.0], [0.0, 2.0, 0.0, 1.0, 0.0], [0.0, 2.0, 0.0, 0.0, 0.0], [0.0, 0.0, 0.0, 1.0, 0.0], [0.0, 0.0, 30.0, 0.0, 0.0], [18.0, 1.0, 0.0, 18.0, 0.0], [18.0, 0.0, 0.0, 5.0, 0.0], [18.0, 0.0, 0.0, 0.0, 0.0], [0.0, 0.0, 0.0, 5.0, 0.0], [0.0, 1.0, 0.0, 13.0, 0.0], [0.0, 1.0, 0.0, 0.0, 0.0], [0.0, 0.0, 0.0, 13.0, 0.0]]}, {"children_left": [1, 2, -1, 4, 5, -1, -1, 8, 9, -1, -1, -1, 13, -1, 15, -1, -1], "children_right": [12, 3, -1, 7, 6, -1, -1, 11, 10, -1, -1, -1, 14, -1, 16, -1, -1], "feature": [0, 28, -2, 14, 25, -2, -2, 24, 10, -2, -2, -2, 9, -2, 3, -2, -2], "threshold": [0.9782512784004211, -8.33790295473591e-07, -2.0, -6.142613528936636e-06, 7.423414203344691e-07, -2.0, -2.0, -1.581418746354757e-05, -2.8514157747849822e-05, -2.0, -2.0, -2.0, -6.886155290430906e-07, -2.0, -7.166451396756202e-07, -2.0, -2.0], "value": [[22.0, 19.0, 20.0, 26.0, 23.0], [0.0, 19.0, 0.0, 26.0, 0.0], [0.0, 12.0, 0.0, 0.0, 0.0], [0.0, 7.0, 0.0, 26.0, 0.0], [0.0, 6.0, 0.0, 4.0, 0.0], [0.0, 6.0, 0.0, 0.0, 0.0], [0.0, 0.0, 0.0, 4.0, 0.0], [0.0, 1.0, 0.0, 22.0, 0.0], [0.0, 1.0, 0.0, 1.0, 0.0], [0.0, 1.0, 0.0, 0.0, 0.0], [0.0, 0.0, 0.0, 1.0, 0.0], [0.0, 0.0, 0.0, 21.0, 0.0], [22.0, 0.0, 20.0, 0.0, 23.0], [0.0, 0.0, 0.0, 0.0, 23.0], [22.0, 0.0, 20.0, 0.0, 0.0], [22.0, 0.0, 0.0, 0.0, 0.0], [0.0, 0.0, 20.0, 0.0, 0.0]]}, {"children_left": [1, 2, -1, 4, 5, -1, 7, -1, -1, 10, -1, -1, 13, 14, -1, -1, -1], "children_right": [12, 3, -1, 9, 6, -1, 8, -1, -1, 11, -1, -1, 16, 15, -1, -1, -1], "feature": [26, 1, -2, 28, 19, -2, 24, -2, -2, 17, -2, -2, 17, 8, -2, -2, -2], "threshold": [1.4044809404367697e-06, 0.0004049635026603937, -2.0, 2.2366497987036382e-08, -6.635814315814059e-06, -2.0, 4.872594672633568e-06, -2.0, -2.0, 1.960480489060501e-06, -2.0, -2.0, 3.153012038126235e-07, 1.0588458820848246e-06, -2.0, -2.0, -2.0], "value": [[19.0, 26.0, 26.0, 17.0, 22.0], [19.0, 26.0, 0.0, 14.0, 0.0], [19.0, 0.0, 0.0, 0.0, 0.0], [0.0, 26.0, 0.0, 14.0, 0.0], [0.0, 24.0, 0.0, 3.0, 0.0], [0.0, 0.0, 0.0, 2.0, 0.0], [0.0, 24.0, 0.0, 1.0, 0.0], [0.0, 24.0, 0.0, 0.0, 0.0], [0.0, 0.0, 0.0, 1.0, 0.0], [0.0, 2.0, 0.0, 11.0, 0.0], [0.0, 0.0, 0.0, 11.0, 0.0], [0.0, 2.0, 0.0, 0.0, 0.0], [0.0, 0.0, 26.0, 3.0, 22.0], [0.0, 0.0, 0.0, 3.0, 22.0], [0.0, 0.0, 0.0, 0.0, 22.0], [0.0, 0.0, 0.0, 3.0, 0.0], [0.0, 0.0, 26.0, 0.0, 0.0]]}, {"children_left": [1, 2, 3, 4, -1, 6, -1, -1, 9, 10, -1, -1, -1, 14, -1, -1, 17, -1, 19, -1, -1], "children_right": [16, 13, 8, 5, -1, 7, -1, -1, 12, 11, -1, -1, -1, 15, -1, -1, 18, -1, 20, -1, -1], "feature": [20, 23, 15, 26, -2, 5, -2, -2, 16, 12, -2, -2, -2, 0, -2, -2, 27, -2, 9, -2, -2], "threshold": [5.572698569267232e-07, 1.0313572929021575e-07, 2.9987564786893017e-07, 6.105438501435856e-07, -2.0, -2.2471928105005645e-05, -2.0, -2.0, -3.73749355730979e-06, 9.094478173210518e-06, -2.0, -2.0, -2.0, 0.9781585931777954, -2.0, -2.0, -1.3354139696275524e-06, -2.0, -6.699146979372017e-06, -2.0, -2.0], "value": [[21.0, 24.0, 27.0, 19.0, 19.0], [21.0, 22.0, 0.0, 13.0, 19.0], [0.0, 22.0, 0.0, 3.0, 19.0], [0.0, 21.0, 0.0, 1.0, 2.0], [0.0, 21.0, 0.0, 0.0, 0.0], [0.0, 0.0, 0.0, 1.0, 2.0], [0.0, 0.0, 0.0, 1.0, 0.0], [0.0, 0.0, 0.0, 0.0, 2.0], [0.0, 1.0, 0.0, 2.0, 17.0], [0.0, 1.0, 0.0, 2.0, 0.0], [0.0, 0.0, 0.0, 2.0, 0.0], [0.0, 1.0, 0.0, 0.0, 0.0], [0.0, 0.0, 0.0, 0.0, 17.0], [21.0, 0.0, 0.0, 10.0, 0.0], [0.0, 0.0, 0.0, 10.0, 0.0], [21.0, 0.0, 0.0, 0.0, 0.0], [0.0, 2.0, 27.0, 6.0, 0.0], [0.0, 0.0, 27.0, 0.0, 0.0], [0.0, 2.0, 0.0, 6.0, 0.0], [0.0, 2.0, 0.0, 0.0, 0.0], [0.0, 0.0, 0.0, 6.0, 0.0]]}, {"children_left": [1, -1, 3, 4, 5, 6, -1, -1, 9, -1, -1, 12, 13, -1, -1, -1, 17, -1, 19, -1, -1], "children_right": [2, -1, 16, 11, 8, 7, -1, -1, 10, -1, -1, 15, 14, -1, -1, -1, 18, -1, 20, -1, -1], "feature": [27, -2, 9, 18, 12, 10, -2, -2, 14, -2, -2, 0, 10, -2, -2, -2, 11, -2, 21, -2, -2], "threshold": [-1.3354139696275524e-06, -2.0, 1.2064581937920593e-06, 1.2218075617909108e-07, -2.2939525479159784e-06, 1.2133673635617015e-05, -2.0, -2.0, -3.303027696688332e-06, -2.0, -2.0, 0.9782557189464569, -2.7395275537855923e-05, -2.0, -2.0, -2.0, -2.0175226183027917e-06, -2.0, -3.722138700368305e-06, -2.0, -2.0], "value": [[21.0, 16.0, 26.0, 23.0, 24.0], [0.0, 0.0, 26.0, 0.0, 0.0], [21.0, 16.0, 0.0, 23.0, 24.0], [0.0, 16.0, 0.0, 17.0, 24.0], [0.0, 15.0, 0.0, 11.0, 0.0], [0.0, 13.0, 0.0, 1.0, 0.0], [0.0, 13.0, 0.0, 0.0, 0.0], [0.0, 0.0, 0.0, 1.0, 0.0], [0.0, 2.0, 0.0, 10.0, 0.0], [0.0, 2.0, 0.0, 0.0, 0.0], [0.0, 0.0, 0.0, 10.0, 0.0], [0.0, 1.0, 0.0, 6.0, 24.0], [0.0, 1.0, 0.0, 6.0, 0.0], [0.0, 1.0, 0.0, 0.0, 0.0], [0.0, 0.0, 0.0, 6.0, 0.0], [0.0, 0.0, 0.0, 0.0, 24.0], [21.0, 0.0, 0.0, 6.0, 0.0], [0.0, 0.0, 0.0, 5.0, 0.0], [21.0, 0.0, 0.0, 1.0, 0.0], [0.0, 0.0, 0.0, 1.0, 0.0], [21.0, 0.0, 0.0, 0.0, 0.0]]}, {"children_left": [1, 2, 3, -1, 5, -1, 7, -1, -1, 10, -1, -1, 13, -1, -1], "children_right": [12, 9, 4, -1, 6, -1, 8, -1, -1, 11, -1, -1, 14, -1, -1], "feature": [26, 8, 21, -2, 18, -2, 12, -2, -2, 26, -2, -2, 27, -2, -2], "threshold": [1.4587733971893613e-06, -5.411486085904471e-06, -2.4299499514768286e-06, -2.0, -1.6910059663644006e-07, -2.0, 2.4783598746580537e-06, -2.0, -2.0, -2.1541889623222232e-06, -2.0, -2.0, -6.113723713951913e-07, -2.0, -2.0], "value": [[20.0, 23.0, 17.0, 21.0, 29.0], [20.0, 23.0, 0.0, 21.0, 0.0], [0.0, 23.0, 0.0, 3.0, 0.0], [0.0, 0.0, 0.0, 2.0, 0.0], [0.0, 23.0, 0.0, 1.0, 0.0], [0.0, 20.0, 0.0, 0.0, 0.0], [0.0, 3.0, 0.0, 1.0, 0.0], [0.0, 0.0, 0.0, 1.0, 0.0], [0.0, 3.0, 0.0, 0.0, 0.0], [20.0, 0.0, 0.0, 18.0, 0.0], [20.0, 0.0, 0.0, 0.0, 0.0], [0.0, 0.0, 0.0, 18.0, 0.0], [0.0, 0.0, 17.0, 0.0, 29.0], [0.0, 0.0, 17.0, 0.0, 0.0], [0.0, 0.0, 0.0, 0.0, 29.0]]}, {"children_left": [1, 2, 3, 4, -1, 6, -1, -1, 9, 10, 11, -1, -1, -1, -1, 16, -1, -1, -1], "children_right": [18, 15, 8, 5, -1, 7, -1, -1, 14, 13, 12, -1, -1, -1, -1, 17, -1, -1, -1], "feature": [0, 28, 5, 26, -2, 15, -2, -2, 26, 7, 7, -2, -2, -2, -2, 0, -2, -2, -2], "threshold": [0.9997520446777344, 3.663171668222276e-07, -3.877430145848848e-06, -1.4238601053762068e-07, -2.0, -9.439988275516953e-06, -2.0, -2.0, 5.086952725719129e-07, -1.5824830370547716e-05, -4.244678257236956e-05, -2.0, -2.0, -2.0, -2.0, 0.9763531982898712, -2.0, -2.0, -2.0], "value": [[31.0, 21.0, 19.0, 18.0, 21.0], [0.0, 21.0, 19.0, 18.0, 21.0], [0.0, 21.0, 0.0, 14.0, 21.0], [0.0, 19.0, 0.0, 4.0, 0.0], [0.0, 0.0, 0.0, 2.0, 0.0], [0.0, 19.0, 0.0, 2.0, 0.0], [0.0, 0.0, 0.0, 2.0, 0.0], [0.0, 19.0, 0.0, 0.0, 0.0], [0.0, 2.0, 0.0, 10.0, 21.0], [0.0, 2.0, 0.0, 10.0, 0.0], [0.0, 2.0, 0.0, 2.0, 0.0], [0.0, 0.0, 0.0, 2.0, 0.0], [0.0, 2.0, 0.0, 0.0, 0.0], [0.0, 0.0, 0.0, 8.0, 0.0], [0.0, 0.0, 0.0, 0.0, 21.0], [0.0, 0.0, 19.0, 4.0, 0.0], [0.0, 0.0, 0.0, 4.0, 0.0], [0.0, 0.0, 19.0, 0.0, 0.0], [31.0, 0.0, 0.0, 0.0, 0.0]]}, {"children_left": [1, 2, -1, -1, 5, -1, 7, 8, 9, -1, -1, -1, 13, -1, 15, -1, 17, -1, -1], "children_right": [4, 3, -1, -1, 6, -1, 12, 11, 10, -1, -1, -1, 14, -1, 16, -1, 18, -1, -1], "feature": [11, 22, -2, -2, 26, -2, 1, 11, 18, -2, -2, -2, 6, -2, 7, -2, 24, -2, -2], "threshold": [-2.009197359598147e-06, -1.1365053524059476e-05, -2.0, -2.0, -1.9115126974611485e-06, -2.0, 0.0006418843986466527, 5.895063148741997e-08, 6.320609315935144e-07, -2.0, -2.0, -2.0, -5.530034195544431e-05, -2.0, -1.3437363577395445e-05, -2.0, 1.069052203206411e-06, -2.0, -2.0], "value": [[30.0, 25.0, 19.0, 24.0, 12.0], [0.0, 1.0, 0.0, 22.0, 0.0], [0.0, 1.0, 0.0, 0.0, 0.0], [0.0, 0.0, 0.0, 22.0, 0.0], [30.0, 24.0, 19.0, 2.0, 12.0], [30.0, 0.0, 0.0, 0.0, 0.0], [0.0, 24.0, 19.0, 2.0, 12.0], [0.0, 0.0, 19.0, 0.0, 12.0], [0.0, 0.0, 19.0, 0.0, 3.0], [0.0, 0.0, 19.0, 0.0, 0.0], [0.0, 0.0, 0.0, 0.0, 3.0], [0.0, 0.0, 0.0, 0.0, 9.0], [0.0, 24.0, 0.0, 2.0, 0.0], [0.0, 0.0, 0.0, 1.0, 0.0], [0.0, 24.0, 0.0, 1.0, 0.0], [0.0, 18.0, 0.0, 0.0, 0.0], [0.0, 6.0, 0.0, 1.0, 0.0], [0.0, 0.0, 0.0, 1.0, 0.0], [0.0, 6.0, 0.0, 0.0, 0.0]]}, {"children_left": [1, 2, 3, 4, -1, 6, 7, 8, -1, -1, -1, 12, -1, -1, -1, -1, 17, 18, -1, -1, -1], "children_right": [16, 15, 14, 5, -1, 11, 10, 9, -1, -1, -1, 13, -1, -1, -1, -1, 20, 19, -1, -1, -1], "feature": [26, 0, 5, 16, -2, 16, 8, 11, -2, -2, -2, 4, -2, -2, -2, -2, 27, 20, -2, -2, -2], "threshold": [1.3674599586011027e-06, 0.9782799184322357, 1.0808183333210764e-05, -9.773394140211167e-06, -2.0, -1.1477442285467987e-06, -9.390600553160766e-06, 5.698036261492234e-06, -2.0, -2.0, -2.0, -6.434992485537805e-06, -2.0, -2.0, -2.0, -2.0, 7.673528727991652e-07, -2.5727278227805073e-06, -2.0, -2.0, -2.0], "value": [[17.0, 27.0, 19.0, 23.0, 24.0], [17.0, 27.0, 0.0, 21.0, 0.0], [0.0, 27.0, 0.0, 21.0, 0.0], [0.0, 27.0, 0.0, 10.0, 0.0], [0.0, 0.0, 0.0, 5.0, 0.0], [0.0, 27.0, 0.0, 5.0, 0.0], [0.0, 24.0, 0.0, 1.0, 0.0], [0.0, 4.0, 0.0, 1.0, 0.0], [0.0, 0.0, 0.0, 1.0, 0.0], [0.0, 4.0, 0.0, 0.0, 0.0], [0.0, 20.0, 0.0, 0.0, 0.0], [0.0, 3.0, 0.0, 4.0, 0.0], [0.0, 3.0, 0.0, 0.0, 0.0], [0.0, 0.0, 0.0, 4.0, 0.0], [0.0, 0.0, 0.0, 11.0, 0.0], [17.0, 0.0, 0.0, 0.0, 0.0], [0.0, 0.0, 19.0, 2.0, 24.0], [0.0, 0.0, 19.0, 2.0, 0.0], [0.0, 0.0, 0.0, 2.0, 0.0], [0.0, 0.0, 19.0, 0.0, 0.0], [0.0, 0.0, 0.0, 0.0, 24.0]]}, {"children_left": [1, -1, 3, -1, 5, 6, 7, -1, 9, -1, -1, -1, 13, -1, -1], "children_right": [2, -1, 4, -1, 12, 11, 8, -1, 10, -1, -1, -1, 14, -1, -1], "feature": [26, -2, 27, -2, 27, 22, 19, -2, 13, -2, -2, -2, 4, -2, -2], "threshold": [-2.1330784534256964e-06, -2.0, -1.6268635363303474e-06, -2.0, 7.916068511804042e-07, 1.8808739241649164e-06, -8.4938596955908e-06, -2.0, -2.1346769244701136e-05, -2.0, -2.0, -2.0, 3.223954718123423e-05, -2.0, -2.0], "value": [[22.0, 23.0, 18.0, 26.0, 21.0], [22.0, 0.0, 0.0, 0.0, 0.0], [0.0, 23.0, 18.0, 26.0, 21.0], [0.0, 0.0, 18.0, 0.0, 0.0], [0.0, 23.0, 0.0, 26.0, 21.0], [0.0, 23.0, 0.0, 23.0, 0.0], [0.0, 23.0, 0.0, 8.0, 0.0], [0.0, 0.0, 0.0, 5.0, 0.0], [0.0, 23.0, 0.0, 3.0, 0.0], [0.0, 0.0, 0.0, 3.0, 0.0], [0.0, 23.0, 0.0, 0.0, 0.0], [0.0, 0.0, 0.0, 15.0, 0.0], [0.0, 0.0, 0.0, 3.0, 21.0], [0.0, 0.0, 0.0, 0.0, 21.0], [0.0, 0.0, 0.0, 3.0, 0.0]]}, {"children_left": [1, 2, -1, 4, 5, 6, -1, -1, -1, -1, 11, 12, -1, 14, -1, -1, 17, -1, -1], "children_right": [10, 3, -1, 9, 8, 7, -1, -1, -1, -1, 16, 13, -1, 15, -1, -1, 18, -1, -1], "feature": [5, 1, -2, 10, 27, 26, -2, -2, -2, -2, 28, 5, -2, 0, -2, -2, 21, -2, -2], "threshold": [5.510447209644553e-09, 0.0006388599285855889, -2.0, 4.0787397210806375e-06, 7.779480206693279e-07, 1.1352655064911232e-06, -2.0, -2.0, -2.0, -2.0, 3.5781594931449945e-07, 1.8896707842941396e-06, -2.0, 0.9528626501560211, -2.0, -2.0, -1.1186509993876825e-06, -2.0, -2.0], "value": [[22.0, 17.0, 22.0, 27.0, 22.0], [22.0, 15.0, 0.0, 12.0, 0.0], [22.0, 0.0, 0.0, 0.0, 0.0], [0.0, 15.0, 0.0, 12.0, 0.0], [0.0, 15.0, 0.0, 5.0, 0.0], [0.0, 15.0, 0.0, 1.0, 0.0], [0.0, 15.0, 0.0, 0.0, 0.0], [0.0, 0.0, 0.0, 1.0, 0.0], [0.0, 0.0, 0.0, 4.0, 0.0], [0.0, 0.0, 0.0, 7.0, 0.0], [0.0, 2.0, 22.0, 15.0, 22.0], [0.0, 2.0, 0.0, 13.0, 22.0], [0.0, 0.0, 0.0, 0.0, 22.0], [0.0, 2.0, 0.0, 13.0, 0.0], [0.0, 0.0, 0.0, 13.0, 0.0], [0.0, 2.0, 0.0, 0.0, 0.0], [0.0, 0.0, 22.0, 2.0, 0.0], [0.0, 0.0, 0.0, 2.0, 0.0], [0.0, 0.0, 22.0, 0.0, 0.0]]}, {"children_left": [1, 2, 3, 4, -1, -1, 7, 8, 9, -1, -1, -1, -1, 14, 15, -1, -1, -1, -1], "children_right": [18, 13, 6, 5, -1, -1, 12, 11, 10, -1, -1, -1, -1, 17, 16, -1, -1, -1, -1], "feature": [0, 22, 7, 24, -2, -2, 23, 15, 3, -2, -2, -2, -2, 28, 12, -2, -2, -2, -2], "threshold": [0.9997520446777344, 5.500731390384317e-07, -1.3475925243255915e-05, 5.104218018914253e-06, -2.0, -2.0, 1.1493359863834485e-07, -1.58324206722682e-06, 7.294098213606048e-05, -2.0, -2.0, -2.0, -2.0, 3.3680524325063743e-07, 2.0186907931929454e-05, -2.0, -2.0, -2.0, -2.0], "value": [[27.0, 16.0, 21.0, 26.0, 20.0], [0.0, 16.0, 21.0, 26.0, 20.0], [0.0, 13.0, 0.0, 10.0, 20.0], [0.0, 11.0, 0.0, 1.0, 0.0], [0.0, 11.0, 0.0, 0.0, 0.0], [0.0, 0.0, 0.0, 1.0, 0.0], [0.0, 2.0, 0.0, 9.0, 20.0], [0.0, 2.0, 0.0, 1.0, 20.0], [0.0, 2.0, 0.0, 1.0, 0.0], [0.0, 2.0, 0.0, 0.0, 0.0], [0.0, 0.0, 0.0, 1.0, 0.0], [0.0, 0.0, 0.0, 0.0, 20.0], [0.0, 0.0, 0.0, 8.0, 0.0], [0.0, 3.0, 21.0, 16.0, 0.0], [0.0, 3.0, 0.0, 16.0, 0.0], [0.0, 0.0, 0.0, 16.0, 0.0], [0.0, 3.0, 0.0, 0.0, 0.0], [0.0, 0.0, 21.0, 0.0, 0.0], [27.0, 0.0, 0.0, 0.0, 0.0]]}, {"children_left": [1, -1, 3, -1, 5, 6, 7, -1, 9, -1, -1, -1, -1], "children_right": [2, -1, 4, -1, 12, 11, 8, -1, 10, -1, -1, -1, -1], "feature": [27, -2, 1, -2, 23, 27, 17, -2, 29, -2, -2, -2, -2], "threshold": [-1.3354139696275524e-06, -2.0, -0.003030015854164958, -2.0, 1.5237399608736268e-07, 6.148912348180602e-07, -2.6310423777431424e-06, -2.0, -3.764581606446882e-07, -2.0, -2.0, -2.0, -2.0], "value": [[24.0, 16.0, 22.0, 27.0, 21.0], [0.0, 0.0, 22.0, 0.0, 0.0], [24.0, 16.0, 0.0, 27.0, 21.0], [24.0, 0.0, 0.0, 0.0, 0.0], [0.0, 16.0, 0.0, 27.0, 21.0], [0.0, 16.0, 0.0, 7.0, 21.0], [0.0, 16.0, 0.0, 7.0, 0.0], [0.0, 0.0, 0.0, 6.0, 0.0], [0.0, 16.0, 0.0, 1.0, 0.0], [0.0, 0.0, 0.0, 1.0, 0.0], [0.0, 16.0, 0.0, 0.0, 0.0], [0.0, 0.0, 0.0, 0.0, 21.0], [0.0, 0.0, 0.0, 20.0, 0.0]]}, {"children_left": [1, 2, -1, 4, -1, 6, -1, 8, -1, 10, -1, -1, 13, -1, -1], "children_right": [12, 3, -1, 5, -1, 7, -1, 9, -1, 11, -1, -1, 14, -1, -1], "feature": [27, 27, -2, 26, -2, 13, -2, 18, -2, 5, -2, -2, 6, -2, -2], "threshold": [6.896124773447809e-07, -1.6268635363303474e-06, -2.0, -2.0026718061672e-06, -2.0, -9.000735644804081e-06, -2.0, -1.7273881894652732e-05, -2.0, 2.260866142478335e-05, -2.0, -2.0, 4.3682865680239047e-07, -2.0, -2.0], "value": [[21.0, 23.0, 19.0, 21.0, 26.0], [21.0, 23.0, 19.0, 19.0, 0.0], [0.0, 0.0, 19.0, 0.0, 0.0], [21.0, 23.0, 0.0, 19.0, 0.0], [21.0, 0.0, 0.0, 0.0, 0.0], [0.0, 23.0, 0.0, 19.0, 0.0], [0.0, 0.0, 0.0, 13.0, 0.0], [0.0, 23.0, 0.0, 6.0, 0.0], [0.0, 0.0, 0.0, 4.0, 0.0], [0.0, 23.0, 0.0, 2.0, 0.0], [0.0, 23.0, 0.0, 0.0, 0.0], [0.0, 0.0, 0.0, 2.0, 0.0], [0.0, 0.0, 0.0, 2.0, 26.0], [0.0, 0.0, 0.0, 0.0, 26.0], [0.0, 0.0, 0.0, 2.0, 0.0]]}, {"children_left": [1, 2, 3, -1, -1, 6, -1, -1, 9, -1, 11, 12, -1, 14, -1, -1, -1], "children_right": [8, 5, 4, -1, -1, 7, -1, -1, 10, -1, 16, 13, -1, 15, -1, -1, -1], "feature": [18, 18, 20, -2, -2, 9, -2, -2, 27, -2, 0, 28, -2, 7, -2, -2, -2], "threshold": [-4.6986647816993354e-07, -1.21668725228119e-06, -1.1704043117788387e-05, -2.0, -2.0, -3.581034491162427e-06, -2.0, -2.0, -1.3573636010733026e-06, -2.0, 0.9763657748699188, -8.323884230776457e-07, -2.0, -1.7291946278419346e-05, -2.0, -2.0, -2.0], "value": [[26.0, 12.0, 22.0, 23.0, 27.0], [26.0, 2.0, 0.0, 7.0, 0.0], [0.0, 1.0, 0.0, 7.0, 0.0], [0.0, 1.0, 0.0, 0.0, 0.0], [0.0, 0.0, 0.0, 7.0, 0.0], [26.0, 1.0, 0.0, 0.0, 0.0], [0.0, 1.0, 0.0, 0.0, 0.0], [26.0, 0.0, 0.0, 0.0, 0.0], [0.0, 10.0, 22.0, 16.0, 27.0], [0.0, 0.0, 22.0, 0.0, 0.0], [0.0, 10.0, 0.0, 16.0, 27.0], [0.0, 10.0, 0.0, 16.0, 0.0], [0.0, 9.0, 0.0, 0.0, 0.0], [0.0, 1.0, 0.0, 16.0, 0.0], [0.0, 1.0, 0.0, 0.0, 0.0], [0.0, 0.0, 0.0, 16.0, 0.0], [0.0, 0.0, 0.0, 0.0, 27.0]]}, {"children_left": [1, -1, 3, 4, -1, 6, -1, 8, -1, -1, 11, -1, -1], "children_right": [2, -1, 10, 5, -1, 7, -1, 9, -1, -1, 12, -1, -1], "feature": [1, -2, 0, 11, -2, 17, -2, 28, -2, -2, 14, -2, -2], "threshold": [-0.0030315644107759, -2.0, 0.9781299531459808, -2.7690656523304824e-07, -2.0, -1.0380302285284415e-05, -2.0, 2.9028248889062525e-06, -2.0, -2.0, -4.6586890789512836e-07, -2.0, -2.0], "value": [[22.0, 19.0, 18.0, 19.0, 32.0], [22.0, 0.0, 0.0, 0.0, 0.0], [0.0, 19.0, 18.0, 19.0, 32.0], [0.0, 19.0, 0.0, 19.0, 0.0], [0.0, 0.0, 0.0, 13.0, 0.0], [0.0, 19.0, 0.0, 6.0, 0.0], [0.0, 0.0, 0.0, 4.0, 0.0], [0.0, 19.0, 0.0, 2.0, 0.0], [0.0, 19.0, 0.0, 0.0, 0.0], [0.0, 0.0, 0.0, 2.0, 0.0], [0.0, 0.0, 18.0, 0.0, 32.0], [0.0, 0.0, 0.0, 0.0, 32.0], [0.0, 0.0, 18.0, 0.0, 0.0]]}, {"children_left": [1, 2, -1, 4, -1, 6, 7, -1, 9, -1, -1, -1, 13, -1, 15, 16, -1, -1, -1], "children_right": [12, 3, -1, 5, -1, 11, 8, -1, 10, -1, -1, -1, 14, -1, 18, 17, -1, -1, -1], "feature": [15, 1, -2, 15, -2, 28, 5, -2, 2, -2, -2, -2, 27, -2, 4, 26, -2, -2, -2], "threshold": [2.2184375669809242e-07, -0.003028679988346994, -2.0, -3.409701776035945e-06, -2.0, 4.794944885588848e-08, -3.160631194987218e-06, -2.0, 0.00021138935488806965, -2.0, -2.0, -2.0, -1.6179285466932924e-06, -2.0, -3.113916022812191e-06, 5.798505355869565e-07, -2.0, -2.0, -2.0], "value": [[23.0, 16.0, 31.0, 21.0, 19.0], [23.0, 15.0, 0.0, 11.0, 1.0], [23.0, 0.0, 0.0, 0.0, 0.0], [0.0, 15.0, 0.0, 11.0, 1.0], [0.0, 0.0, 0.0, 8.0, 0.0], [0.0, 15.0, 0.0, 3.0, 1.0], [0.0, 15.0, 0.0, 0.0, 1.0], [0.0, 13.0, 0.0, 0.0, 0.0], [0.0, 2.0, 0.0, 0.0, 1.0], [0.0, 0.0, 0.0, 0.0, 1.0], [0.0, 2.0, 0.0, 0.0, 0.0], [0.0, 0.0, 0.0, 3.0, 0.0], [0.0, 1.0, 31.0, 10.0, 18.0], [0.0, 0.0, 31.0, 0.0, 0.0], [0.0, 1.0, 0.0, 10.0, 18.0], [0.0, 1.0, 0.0, 10.0, 0.0], [0.0, 0.0, 0.0, 10.0, 0.0], [0.0, 1.0, 0.0, 0.0, 0.0], [0.0, 0.0, 0.0, 0.0, 18.0]]}, {"children_left": [1, -1, 3, 4, -1, 6, 7, -1, 9, -1, -1, -1, 13, -1, -1], "children_right": [2, -1, 12, 5, -1, 11, 8, -1, 10, -1, -1, -1, 14, -1, -1], "feature": [1, -2, 27, 1, -2, 5, 0, -2, 11, -2, -2, -2, 10, -2, -2], "threshold": [-0.003031564294360578, -2.0, 7.673528727991652e-07, 0.00040579086635261774, -2.0, 2.532319626880053e-06, 0.9522962272167206, -2.0, -3.2352141715819016e-05, -2.0, -2.0, -2.0, 1.7731038326473936e-06, -2.0, -2.0], "value": [[27.0, 20.0, 22.0, 14.0, 27.0], [27.0, 0.0, 0.0, 0.0, 0.0], [0.0, 20.0, 22.0, 14.0, 27.0], [0.0, 20.0, 22.0, 13.0, 0.0], [0.0, 0.0, 22.0, 0.0, 0.0], [0.0, 20.0, 0.0, 13.0, 0.0], [0.0, 20.0, 0.0, 3.0, 0.0], [0.0, 0.0, 0.0, 2.0, 0.0], [0.0, 20.0, 0.0, 1.0, 0.0], [0.0, 0.0, 0.0, 1.0, 0.0], [0.0, 20.0, 0.0, 0.0, 0.0], [0.0, 0.0, 0.0, 10.0, 0.0], [0.0, 0.0, 0.0, 1.0, 27.0], [0.0, 0.0, 0.0, 0.0, 27.0], [0.0, 0.0, 0.0, 1.0, 0.0]]}, {"children_left": [1, -1, 3, 4, 5, -1, 7, -1, -1, -1, 11, -1, -1], "children_right": [2, -1, 10, 9, 6, -1, 8, -1, -1, -1, 12, -1, -1], "feature": [26, -2, 28, 27, 6, -2, 8, -2, -2, -2, 10, -2, -2], "threshold": [-2.1330784534256964e-06, -2.0, 3.665298464738953e-07, 5.410922270243645e-07, -2.665861484274501e-05, -2.0, 2.3770368898112793e-05, -2.0, -2.0, -2.0, 9.678352910214016e-07, -2.0, -2.0], "value": [[22.0, 26.0, 21.0, 19.0, 22.0], [22.0, 0.0, 0.0, 0.0, 0.0], [0.0, 26.0, 21.0, 19.0, 22.0], [0.0, 26.0, 0.0, 12.0, 22.0], [0.0, 26.0, 0.0, 12.0, 0.0], [0.0, 0.0, 0.0, 10.0, 0.0], [0.0, 26.0, 0.0, 2.0, 0.0], [0.0, 26.0, 0.0, 0.0, 0.0], [0.0, 0.0, 0.0, 2.0, 0.0], [0.0, 0.0, 0.0, 0.0, 22.0], [0.0, 0.0, 21.0, 7.0, 0.0], [0.0, 0.0, 21.0, 0.0, 0.0], [0.0, 0.0, 0.0, 7.0, 0.0]]}, {"children_left": [1, 2, -1, 4, -1, 6, 7, -1, -1, 10, -1, -1, 13, 14, -1, -1, 17, -1, -1], "children_right": [12, 3, -1, 5, -1, 9, 8, -1, -1, 11, -1, -1, 16, 15, -1, -1, 18, -1, -1], "feature": [26, 26, -2, 6, -2, 28, 5, -2, -2, 17, -2, -2, 10, 15, -2, -2, 6, -2, -2], "threshold": [6.072786362665283e-07, -1.981561297270673e-06, -2.0, -2.6076429094246123e-05, -2.0, 6.889178116864514e-08, 7.358599953022349e-05, -2.0, -2.0, 1.971305010783908e-06, -2.0, -2.0, -3.818202500838197e-07, -7.68464683176262e-06, -2.0, -2.0, -1.078283685274073e-05, -2.0, -2.0], "value": [[21.0, 24.0, 12.0, 23.0, 30.0], [21.0, 24.0, 0.0, 20.0, 0.0], [21.0, 0.0, 0.0, 0.0, 0.0], [0.0, 24.0, 0.0, 20.0, 0.0], [0.0, 0.0, 0.0, 16.0, 0.0], [0.0, 24.0, 0.0, 4.0, 0.0], [0.0, 23.0, 0.0, 1.0, 0.0], [0.0, 23.0, 0.0, 0.0, 0.0], [0.0, 0.0, 0.0, 1.0, 0.0], [0.0, 1.0, 0.0, 3.0, 0.0], [0.0, 0.0, 0.0, 3.0, 0.0], [0.0, 1.0, 0.0, 0.0, 0.0], [0.0, 0.0, 12.0, 3.0, 30.0], [0.0, 0.0, 12.0, 2.0, 0.0], [0.0, 0.0, 0.0, 2.0, 0.0], [0.0, 0.0, 12.0, 0.0, 0.0], [0.0, 0.0, 0.0, 1.0, 30.0], [0.0, 0.0, 0.0, 1.0, 0.0], [0.0, 0.0, 0.0, 0.0, 30.0]]}, {"children_left": [1, 2, 3, -1, 5, -1, 7, -1, -1, -1, 11, 12, -1, -1, -1], "children_right": [10, 9, 4, -1, 6, -1, 8, -1, -1, -1, 14, 13, -1, -1, -1], "feature": [0, 10, 13, -2, 27, -2, 18, -2, -2, -2, 9, 2, -2, -2, -2], "threshold": [0.9782512784004211, 1.5078542219271185e-05, -9.059973763214657e-06, -2.0, 2.0390459809505046e-07, -2.0, 1.9355539961907198e-06, -2.0, -2.0, -2.0, 4.913794668937044e-07, 1.0896922049141722e-06, -2.0, -2.0, -2.0], "value": [[22.0, 26.0, 21.0, 24.0, 17.0], [0.0, 26.0, 0.0, 24.0, 0.0], [0.0, 26.0, 0.0, 12.0, 0.0], [0.0, 0.0, 0.0, 7.0, 0.0], [0.0, 26.0, 0.0, 5.0, 0.0], [0.0, 25.0, 0.0, 0.0, 0.0], [0.0, 1.0, 0.0, 5.0, 0.0], [0.0, 0.0, 0.0, 5.0, 0.0], [0.0, 1.0, 0.0, 0.0, 0.0], [0.0, 0.0, 0.0, 12.0, 0.0], [22.0, 0.0, 21.0, 0.0, 17.0], [0.0, 0.0, 21.0, 0.0, 17.0], [0.0, 0.0, 0.0, 0.0, 17.0], [0.0, 0.0, 21.0, 0.0, 0.0], [22.0, 0.0, 0.0, 0.0, 0.0]]}, {"children_left": [1, 2, 3, 4, -1, -1, 7, -1, -1, 10, -1, -1, 13, 14, -1, 16, -1, -1, 19, -1, -1], "children_right": [12, 9, 6, 5, -1, -1, 8, -1, -1, 11, -1, -1, 18, 15, -1, 17, -1, -1, 20, -1, -1], "feature": [9, 0, 23, 24, -2, -2, 10, -2, -2, 7, -2, -2, 4, 12, -2, 20, -2, -2, 10, -2, -2], "threshold": [1.2064581937920593e-06, 0.9782557189464569, 1.5237399608736268e-07, 4.872594672633568e-06, -2.0, -2.0, -2.7395275537855923e-05, -2.0, -2.0, 7.964407160443443e-07, -2.0, -2.0, -4.449860202981881e-06, 4.717393494502176e-06, -2.0, -1.1657265304165776e-06, -2.0, -2.0, 2.7094704222463406e-06, -2.0, -2.0], "value": [[27.0, 21.0, 16.0, 28.0, 18.0], [0.0, 20.0, 16.0, 18.0, 18.0], [0.0, 20.0, 0.0, 18.0, 0.0], [0.0, 19.0, 0.0, 4.0, 0.0], [0.0, 19.0, 0.0, 0.0, 0.0], [0.0, 0.0, 0.0, 4.0, 0.0], [0.0, 1.0, 0.0, 14.0, 0.0], [0.0, 1.0, 0.0, 0.0, 0.0], [0.0, 0.0, 0.0, 14.0, 0.0], [0.0, 0.0, 16.0, 0.0, 18.0], [0.0, 0.0, 16.0, 0.0, 0.0], [0.0, 0.0, 0.0, 0.0, 18.0], [27.0, 1.0, 0.0, 10.0, 0.0], [0.0, 1.0, 0.0, 7.0, 0.0], [0.0, 0.0, 0.0, 6.0, 0.0], [0.0, 1.0, 0.0, 1.0, 0.0], [0.0, 0.0, 0.0, 1.0, 0.0], [0.0, 1.0, 0.0, 0.0, 0.0], [27.0, 0.0, 0.0, 3.0, 0.0], [27.0, 0.0, 0.0, 0.0, 0.0], [0.0, 0.0, 0.0, 3.0, 0.0]]}, {"children_left": [1, -1, 3, -1, 5, 6, 7, -1, -1, -1, 11, -1, 13, -1, -1], "children_right": [2, -1, 4, -1, 10, 9, 8, -1, -1, -1, 12, -1, 14, -1, -1], "feature": [1, -2, 27, -2, 4, 9, 17, -2, -2, -2, 1, -2, 28, -2, -2], "threshold": [-0.0030315601034089923, -2.0, -1.6398781781390426e-06, -2.0, -3.114069954790466e-06, -4.669063145001928e-06, 2.944091761492018e-06, -2.0, -2.0, -2.0, 0.0007690498605370522, -2.0, -6.589050300931376e-07, -2.0, -2.0], "value": [[23.0, 19.0, 23.0, 21.0, 24.0], [23.0, 0.0, 0.0, 0.0, 0.0], [0.0, 19.0, 23.0, 21.0, 24.0], [0.0, 0.0, 23.0, 0.0, 0.0], [0.0, 19.0, 0.0, 21.0, 24.0], [0.0, 6.0, 0.0, 18.0, 0.0], [0.0, 6.0, 0.0, 5.0, 0.0], [0.0, 0.0, 0.0, 5.0, 0.0], [0.0, 6.0, 0.0, 0.0, 0.0], [0.0, 0.0, 0.0, 13.0, 0.0], [0.0, 13.0, 0.0, 3.0, 24.0], [0.0, 0.0, 0.0, 0.0, 24.0], [0.0, 13.0, 0.0, 3.0, 0.0], [0.0, 13.0, 0.0, 0.0, 0.0], [0.0, 0.0, 0.0, 3.0, 0.0]]}, {"children_left": [1, 2, 3, -1, -1, 6, 7, -1, -1, 10, -1, 12, -1, -1, 15, 16, -1, -1, -1], "children_right": [14, 5, 4, -1, -1, 9, 8, -1, -1, 11, -1, 13, -1, -1, 18, 17, -1, -1, -1], "feature": [9, 1, 20, -2, -2, 6, 25, -2, -2, 26, -2, 19, -2, -2, 22, 11, -2, -2, -2], "threshold": [1.2006633482997131e-06, 0.0004086639964953065, 5.779654941306944e-07, -2.0, -2.0, -2.3394044546876103e-05, -1.12009217900777e-05, -2.0, -2.0, -5.592925980124619e-07, -2.0, 1.5979128534127085e-05, -2.0, -2.0, -5.595299796823383e-07, 4.578746832351044e-06, -2.0, -2.0, -2.0], "value": [[30.0, 20.0, 16.0, 21.0, 23.0], [0.0, 19.0, 16.0, 13.0, 23.0], [0.0, 0.0, 16.0, 0.0, 23.0], [0.0, 0.0, 0.0, 0.0, 23.0], [0.0, 0.0, 16.0, 0.0, 0.0], [0.0, 19.0, 0.0, 13.0, 0.0], [0.0, 1.0, 0.0, 7.0, 0.0], [0.0, 1.0, 0.0, 0.0, 0.0], [0.0, 0.0, 0.0, 7.0, 0.0], [0.0, 18.0, 0.0, 6.0, 0.0], [0.0, 0.0, 0.0, 5.0, 0.0], [0.0, 18.0, 0.0, 1.0, 0.0], [0.0, 18.0, 0.0, 0.0, 0.0], [0.0, 0.0, 0.0, 1.0, 0.0], [30.0, 1.0, 0.0, 8.0, 0.0], [30.0, 1.0, 0.0, 0.0, 0.0], [30.0, 0.0, 0.0, 0.0, 0.0], [0.0, 1.0, 0.0, 0.0, 0.0], [0.0, 0.0, 0.0, 8.0, 0.0]]}, {"children_left": [1, 2, 3, -1, -1, 6, -1, -1, 9, -1, 11, 12, -1, 14, -1, -1, 17, -1, -1], "children_right": [8, 5, 4, -1, -1, 7, -1, -1, 10, -1, 16, 13, -1, 15, -1, -1, 18, -1, -1], "feature": [14, 3, 26, -2, -2, 8, -2, -2, 1, -2, 9, 1, -2, 20, -2, -2, 3, -2, -2], "threshold": [-5.278537003050587e-07, 1.0023633421951672e-05, -7.81091102908249e-08, -2.0, -2.0, -6.129772827989655e-06, -2.0, -2.0, -0.0030315640615299344, -2.0, 2.8512363314803224e-07, 0.00042362057138234377, -2.0, -1.3006571634832653e-05, -2.0, -2.0, -3.8853095247759484e-05, -2.0, -2.0], "value": [[21.0, 19.0, 27.0, 18.0, 25.0], [0.0, 2.0, 0.0, 3.0, 25.0], [0.0, 0.0, 0.0, 1.0, 25.0], [0.0, 0.0, 0.0, 1.0, 0.0], [0.0, 0.0, 0.0, 0.0, 25.0], [0.0, 2.0, 0.0, 2.0, 0.0], [0.0, 2.0, 0.0, 0.0, 0.0], [0.0, 0.0, 0.0, 2.0, 0.0], [21.0, 17.0, 27.0, 15.0, 0.0], [21.0, 0.0, 0.0, 0.0, 0.0], [0.0, 17.0, 27.0, 15.0, 0.0], [0.0, 2.0, 27.0, 6.0, 0.0], [0.0, 0.0, 27.0, 0.0, 0.0], [0.0, 2.0, 0.0, 6.0, 0.0], [0.0, 2.0, 0.0, 0.0, 0.0], [0.0, 0.0, 0.0, 6.0, 0.0], [0.0, 15.0, 0.0, 9.0, 0.0], [0.0, 15.0, 0.0, 0.0, 0.0], [0.0, 0.0, 0.0, 9.0, 0.0]]}, {"children_left": [1, 2, -1, 4, -1, -1, 7, 8, 9, 10, 11, -1, -1, -1, -1, -1, -1], "children_right": [6, 3, -1, 5, -1, -1, 16, 15, 14, 13, 12, -1, -1, -1, -1, -1, -1], "feature": [29, 7, -2, 10, -2, -2, 0, 5, 14, 8, 27, -2, -2, -2, -2, -2, -2], "threshold": [-2.2181773573493047e-07, 8.048053814491141e-07, -2.0, 1.4909091447634637e-05, -2.0, -2.0, 0.9997348785400391, 2.496082743164152e-06, 2.337006264951924e-06, -4.7416695849733514e-06, 7.779480206693279e-07, -2.0, -2.0, -2.0, -2.0, -2.0, -2.0], "value": [[27.0, 18.0, 26.0, 24.0, 15.0], [0.0, 0.0, 26.0, 3.0, 11.0], [0.0, 0.0, 26.0, 0.0, 0.0], [0.0, 0.0, 0.0, 3.0, 11.0], [0.0, 0.0, 0.0, 0.0, 11.0], [0.0, 0.0, 0.0, 3.0, 0.0], [27.0, 18.0, 0.0, 21.0, 4.0], [0.0, 18.0, 0.0, 21.0, 4.0], [0.0, 18.0, 0.0, 8.0, 4.0], [0.0, 18.0, 0.0, 3.0, 4.0], [0.0, 18.0, 0.0, 3.0, 0.0], [0.0, 18.0, 0.0, 0.0, 0.0], [0.0, 0.0, 0.0, 3.0, 0.0], [0.0, 0.0, 0.0, 0.0, 4.0], [0.0, 0.0, 0.0, 5.0, 0.0], [0.0, 0.0, 0.0, 13.0, 0.0], [27.0, 0.0, 0.0, 0.0, 0.0]]}, {"children_left": [1, 2, -1, 4, 5, 6, 7, -1, -1, -1, -1, -1, 13, -1, -1], "children_right": [12, 3, -1, 11, 10, 9, 8, -1, -1, -1, -1, -1, 14, -1, -1], "feature": [26, 26, -2, 23, 10, 26, 11, -2, -2, -2, -2, -2, 27, -2, -2], "threshold": [1.8587432464300946e-06, -2.1330784534256964e-06, -2.0, 1.5237399608736268e-07, 1.7138454040832585e-05, 6.105438501435856e-07, -1.926632211990409e-06, -2.0, -2.0, -2.0, -2.0, -2.0, -5.731542387366062e-07, -2.0, -2.0], "value": [[22.0, 25.0, 29.0, 15.0, 19.0], [22.0, 25.0, 0.0, 15.0, 2.0], [22.0, 0.0, 0.0, 0.0, 0.0], [0.0, 25.0, 0.0, 15.0, 2.0], [0.0, 25.0, 0.0, 5.0, 2.0], [0.0, 25.0, 0.0, 1.0, 2.0], [0.0, 25.0, 0.0, 1.0, 0.0], [0.0, 0.0, 0.0, 1.0, 0.0], [0.0, 25.0, 0.0, 0.0, 0.0], [0.0, 0.0, 0.0, 0.0, 2.0], [0.0, 0.0, 0.0, 4.0, 0.0], [0.0, 0.0, 0.0, 10.0, 0.0], [0.0, 0.0, 29.0, 0.0, 17.0], [0.0, 0.0, 29.0, 0.0, 0.0], [0.0, 0.0, 0.0, 0.0, 17.0]]}, {"children_left": [1, 2, -1, 4, -1, 6, -1, -1, 9, -1, 11, -1, 13, -1, 15, 16, -1, -1, -1], "children_right": [8, 3, -1, 5, -1, 7, -1, -1, 10, -1, 12, -1, 14, -1, 18, 17, -1, -1, -1], "feature": [6, 13, -2, 14, -2, 8, -2, -2, 6, -2, 1, -2, 18, -2, 8, 28, -2, -2, -2], "threshold": [-7.686661476213885e-07, -8.137827080645366e-06, -2.0, 2.4495233219568036e-06, -2.0, -3.245177595090354e-05, -2.0, -2.0, 1.1603489538103418e-06, -2.0, 0.0006388599285855889, -2.0, -1.5899919389994466e-06, -2.0, -3.226444619031099e-06, 2.7560990218944426e-06, -2.0, -2.0, -2.0], "value": [[14.0, 23.0, 21.0, 28.0, 24.0], [0.0, 1.0, 0.0, 14.0, 24.0], [0.0, 0.0, 0.0, 12.0, 0.0], [0.0, 1.0, 0.0, 2.0, 24.0], [0.0, 0.0, 0.0, 0.0, 24.0], [0.0, 1.0, 0.0, 2.0, 0.0], [0.0, 0.0, 0.0, 2.0, 0.0], [0.0, 1.0, 0.0, 0.0, 0.0], [14.0, 22.0, 21.0, 14.0, 0.0], [0.0, 0.0, 21.0, 0.0, 0.0], [14.0, 22.0, 0.0, 14.0, 0.0], [14.0, 0.0, 0.0, 0.0, 0.0], [0.0, 22.0, 0.0, 14.0, 0.0], [0.0, 0.0, 0.0, 7.0, 0.0], [0.0, 22.0, 0.0, 7.0, 0.0], [0.0, 22.0, 0.0, 4.0, 0.0], [0.0, 22.0, 0.0, 0.0, 0.0], [0.0, 0.0, 0.0, 4.0, 0.0], [0.0, 0.0, 0.0, 3.0, 0.0]]}, {"children_left": [1, 2, 3, -1, 5, -1, 7, -1, 9, -1, -1, -1, 13, -1, -1], "children_right": [12, 11, 4, -1, 6, -1, 8, -1, 10, -1, -1, -1, 14, -1, -1], "feature": [27, 26, 15, -2, 26, -2, 17, -2, 13, -2, -2, -2, 7, -2, -2], "threshold": [7.673528727991652e-07, 1.9388640453144035e-06, -3.2782211292214924e-06, -2.0, -1.981561297270673e-06, -2.0, -6.256862491227366e-06, -2.0, 4.775540583068505e-05, -2.0, -2.0, -2.0, -6.167123132172492e-06, -2.0, -2.0], "value": [[14.0, 23.0, 18.0, 23.0, 32.0], [14.0, 23.0, 18.0, 18.0, 0.0], [14.0, 23.0, 0.0, 18.0, 0.0], [0.0, 0.0, 0.0, 12.0, 0.0], [14.0, 23.0, 0.0, 6.0, 0.0], [14.0, 0.0, 0.0, 0.0, 0.0], [0.0, 23.0, 0.0, 6.0, 0.0], [0.0, 0.0, 0.0, 5.0, 0.0], [0.0, 23.0, 0.0, 1.0, 0.0], [0.0, 23.0, 0.0, 0.0, 0.0], [0.0, 0.0, 0.0, 1.0, 0.0], [0.0, 0.0, 18.0, 0.0, 0.0], [0.0, 0.0, 0.0, 5.0, 32.0], [0.0, 0.0, 0.0, 5.0, 0.0], [0.0, 0.0, 0.0, 0.0, 32.0]]}, {"children_left": [1, -1, 3, -1, 5, 6, 7, 8, -1, -1, -1, 12, -1, 14, -1, -1, -1], "children_right": [2, -1, 4, -1, 16, 11, 10, 9, -1, -1, -1, 13, -1, 15, -1, -1, -1], "feature": [27, -2, 26, -2, 0, 7, 25, 17, -2, -2, -2, 21, -2, 0, -2, -2, -2], "threshold": [-1.306234082676383e-06, -2.0, -2.141445463621494e-06, -2.0, 0.9782512784004211, -1.3443984698824352e-05, 2.7262740900368954e-06, -6.256862491227366e-06, -2.0, -2.0, -2.0, 1.0559573695445579e-06, -2.0, 0.9528518915176392, -2.0, -2.0, -2.0], "value": [[26.0, 14.0, 27.0, 22.0, 21.0], [0.0, 0.0, 27.0, 0.0, 0.0], [26.0, 14.0, 0.0, 22.0, 21.0], [26.0, 0.0, 0.0, 0.0, 0.0], [0.0, 14.0, 0.0, 22.0, 21.0], [0.0, 14.0, 0.0, 22.0, 0.0], [0.0, 13.0, 0.0, 4.0, 0.0], [0.0, 13.0, 0.0, 1.0, 0.0], [0.0, 0.0, 0.0, 1.0, 0.0], [0.0, 13.0, 0.0, 0.0, 0.0], [0.0, 0.0, 0.0, 3.0, 0.0], [0.0, 1.0, 0.0, 18.0, 0.0], [0.0, 0.0, 0.0, 15.0, 0.0], [0.0, 1.0, 0.0, 3.0, 0.0], [0.0, 0.0, 0.0, 3.0, 0.0], [0.0, 1.0, 0.0, 0.0, 0.0], [0.0, 0.0, 0.0, 0.0, 21.0]]}, {"children_left": [1, 2, -1, 4, 5, -1, 7, 8, -1, -1, -1, 12, -1, -1, -1], "children_right": [14, 3, -1, 11, 6, -1, 10, 9, -1, -1, -1, 13, -1, -1, -1], "feature": [27, 1, -2, 6, 27, -2, 14, 13, -2, -2, -2, 14, -2, -2, -2], "threshold": [6.456234586948995e-07, -0.0030315601034089923, -2.0, 1.1834858169024187e-06, -1.2982199706357278e-06, -2.0, -6.142613528936636e-06, 1.5441602045029867e-05, -2.0, -2.0, -2.0, 2.3446022225925844e-06, -2.0, -2.0, -2.0], "value": [[22.0, 23.0, 21.0, 13.0, 31.0], [22.0, 23.0, 21.0, 13.0, 0.0], [22.0, 0.0, 0.0, 0.0, 0.0], [0.0, 23.0, 21.0, 13.0, 0.0], [0.0, 1.0, 21.0, 11.0, 0.0], [0.0, 0.0, 21.0, 0.0, 0.0], [0.0, 1.0, 0.0, 11.0, 0.0], [0.0, 1.0, 0.0, 1.0, 0.0], [0.0, 0.0, 0.0, 1.0, 0.0], [0.0, 1.0, 0.0, 0.0, 0.0], [0.0, 0.0, 0.0, 10.0, 0.0], [0.0, 22.0, 0.0, 2.0, 0.0], [0.0, 22.0, 0.0, 0.0, 0.0], [0.0, 0.0, 0.0, 2.0, 0.0], [0.0, 0.0, 0.0, 0.0, 31.0]]}, {"children_left": [1, 2, -1, 4, 5, -1, -1, 8, 9, -1, 11, 12, -1, -1, -1, 16, -1, -1, 19, -1, -1], "children_right": [18, 3, -1, 7, 6, -1, -1, 15, 10, -1, 14, 13, -1, -1, -1, 17, -1, -1, 20, -1, -1], "feature": [28, 1, -2, 8, 10, -2, -2, 21, 9, -2, 11, 1, -2, -2, -2, 13, -2, -2, 26, -2, -2], "threshold": [3.300438038422726e-07, -0.003030015155673027, -2.0, -4.7573414008184045e-06, -2.5575670406396966e-05, -2.0, -2.0, -1.1834727970949643e-06, -2.5653003831394017e-05, -2.0, 2.6592026188154705e-05, 0.004174937144853175, -2.0, -2.0, -2.0, -7.81828344997848e-06, -2.0, -2.0, 1.0634599192371752e-06, -2.0, -2.0], "value": [[22.0, 24.0, 24.0, 13.0, 27.0], [22.0, 24.0, 0.0, 7.0, 27.0], [22.0, 0.0, 0.0, 0.0, 0.0], [0.0, 24.0, 0.0, 7.0, 27.0], [0.0, 21.0, 0.0, 1.0, 0.0], [0.0, 0.0, 0.0, 1.0, 0.0], [0.0, 21.0, 0.0, 0.0, 0.0], [0.0, 3.0, 0.0, 6.0, 27.0], [0.0, 3.0, 0.0, 4.0, 0.0], [0.0, 0.0, 0.0, 2.0, 0.0], [0.0, 3.0, 0.0, 2.0, 0.0], [0.0, 1.0, 0.0, 2.0, 0.0], [0.0, 1.0, 0.0, 0.0, 0.0], [0.0, 0.0, 0.0, 2.0, 0.0], [0.0, 2.0, 0.0, 0.0, 0.0], [0.0, 0.0, 0.0, 2.0, 27.0], [0.0, 0.0, 0.0, 2.0, 0.0], [0.0, 0.0, 0.0, 0.0, 27.0], [0.0, 0.0, 24.0, 6.0, 0.0], [0.0, 0.0, 0.0, 6.0, 0.0], [0.0, 0.0, 24.0, 0.0, 0.0]]}, {"children_left": [1, -1, 3, -1, 5, -1, 7, 8, -1, -1, 11, -1, 13, -1, -1], "children_right": [2, -1, 4, -1, 6, -1, 10, 9, -1, -1, 12, -1, 14, -1, -1], "feature": [27, -2, 29, -2, 6, -2, 8, 26, -2, -2, 1, -2, 27, -2, -2], "threshold": [-1.3354139696275524e-06, -2.0, -1.4066212656871357e-06, -2.0, -1.7218503330695967e-05, -2.0, -4.748629038431318e-06, -5.941278367060931e-07, -2.0, -2.0, -0.0030293588060885668, -2.0, 7.828462003089953e-07, -2.0, -2.0], "value": [[21.0, 23.0, 24.0, 23.0, 19.0], [0.0, 0.0, 24.0, 0.0, 0.0], [21.0, 23.0, 0.0, 23.0, 19.0], [0.0, 0.0, 0.0, 0.0, 16.0], [21.0, 23.0, 0.0, 23.0, 3.0], [0.0, 0.0, 0.0, 15.0, 0.0], [21.0, 23.0, 0.0, 8.0, 3.0], [0.0, 23.0, 0.0, 1.0, 0.0], [0.0, 0.0, 0.0, 1.0, 0.0], [0.0, 23.0, 0.0, 0.0, 0.0], [21.0, 0.0, 0.0, 7.0, 3.0], [21.0, 0.0, 0.0, 0.0, 0.0], [0.0, 0.0, 0.0, 7.0, 3.0], [0.0, 0.0, 0.0, 7.0, 0.0], [0.0, 0.0, 0.0, 0.0, 3.0]]}, {"children_left": [1, 2, 3, -1, 5, -1, -1, 8, -1, -1, 11, 12, 13, 14, -1, -1, -1, -1, 19, -1, -1], "children_right": [10, 7, 4, -1, 6, -1, -1, 9, -1, -1, 18, 17, 16, 15, -1, -1, -1, -1, 20, -1, -1], "feature": [5, 21, 3, -2, 10, -2, -2, 29, -2, -2, 4, 27, 3, 14, -2, -2, -2, -2, 8, -2, -2], "threshold": [-6.645954897521733e-10, -6.219977422006195e-08, 1.374502551243495e-05, -2.0, -3.760873823921429e-05, -2.0, -2.0, 2.0658358934610987e-07, -2.0, -2.0, 1.475627811942104e-06, 7.673528727991652e-07, -3.099344115753411e-05, -6.981971324648839e-06, -2.0, -2.0, -2.0, -2.0, -1.4752180135246817e-05, -2.0, -2.0], "value": [[26.0, 20.0, 22.0, 18.0, 24.0], [26.0, 19.0, 0.0, 5.0, 0.0], [26.0, 2.0, 0.0, 4.0, 0.0], [26.0, 0.0, 0.0, 0.0, 0.0], [0.0, 2.0, 0.0, 4.0, 0.0], [0.0, 2.0, 0.0, 0.0, 0.0], [0.0, 0.0, 0.0, 4.0, 0.0], [0.0, 17.0, 0.0, 1.0, 0.0], [0.0, 17.0, 0.0, 0.0, 0.0], [0.0, 0.0, 0.0, 1.0, 0.0], [0.0, 1.0, 22.0, 13.0, 24.0], [0.0, 1.0, 0.0, 12.0, 24.0], [0.0, 1.0, 0.0, 12.0, 0.0], [0.0, 1.0, 0.0, 3.0, 0.0], [0.0, 1.0, 0.0, 0.0, 0.0], [0.0, 0.0, 0.0, 3.0, 0.0], [0.0, 0.0, 0.0, 9.0, 0.0], [0.0, 0.0, 0.0, 0.0, 24.0], [0.0, 0.0, 22.0, 1.0, 0.0], [0.0, 0.0, 0.0, 1.0, 0.0], [0.0, 0.0, 22.0, 0.0, 0.0]]}, {"children_left": [1, 2, 3, 4, -1, 6, -1, -1, -1, -1, 11, 12, 13, -1, -1, -1, -1], "children_right": [10, 9, 8, 5, -1, 7, -1, -1, -1, -1, 16, 15, 14, -1, -1, -1, -1], "feature": [5, 10, 28, 14, -2, 27, -2, -2, -2, -2, 27, 27, 17, -2, -2, -2, -2], "threshold": [-4.118848153211729e-06, 4.0787397210806375e-06, 2.9028248889062525e-06, 2.337006264951924e-06, -2.0, 1.709086561163531e-08, -2.0, -2.0, -2.0, -2.0, 5.902580824113102e-07, -1.7644435157393445e-07, -2.6299607327473495e-06, -2.0, -2.0, -2.0, -2.0], "value": [[21.0, 36.0, 14.0, 16.0, 23.0], [0.0, 36.0, 0.0, 5.0, 0.0], [0.0, 36.0, 0.0, 3.0, 0.0], [0.0, 36.0, 0.0, 1.0, 0.0], [0.0, 34.0, 0.0, 0.0, 0.0], [0.0, 2.0, 0.0, 1.0, 0.0], [0.0, 2.0, 0.0, 0.0, 0.0], [0.0, 0.0, 0.0, 1.0, 0.0], [0.0, 0.0, 0.0, 2.0, 0.0], [0.0, 0.0, 0.0, 2.0, 0.0], [21.0, 0.0, 14.0, 11.0, 23.0], [21.0, 0.0, 14.0, 11.0, 0.0], [0.0, 0.0, 14.0, 11.0, 0.0], [0.0, 0.0, 0.0, 11.0, 0.0], [0.0, 0.0, 14.0, 0.0, 0.0], [21.0, 0.0, 0.0, 0.0, 0.0], [0.0, 0.0, 0.0, 0.0, 23.0]]}, {"children_left": [1, 2, -1, 4, 5, -1, 7, -1, 9, -1, -1, 12, -1, 14, -1, -1, 17, 18, -1, -1, -1], "children_right": [16, 3, -1, 11, 6, -1, 8, -1, 10, -1, -1, 13, -1, 15, -1, -1, 20, 19, -1, -1, -1], "feature": [22, 1, -2, 15, 3, -2, 16, -2, 19, -2, -2, 17, -2, 19, -2, -2, 15, 23, -2, -2, -2], "threshold": [5.500731390384317e-07, -0.0030300176003947854, -2.0, 2.77640239687571e-07, -3.886721970047802e-05, -2.0, -2.222151522346394e-06, -2.0, 1.7896114101745297e-07, -2.0, -2.0, 2.173513390602011e-06, -2.0, 8.423916085575911e-06, -2.0, -2.0, -1.3298644461201548e-06, -4.466745394893223e-06, -2.0, -2.0, -2.0], "value": [[20.0, 21.0, 27.0, 16.0, 26.0], [20.0, 18.0, 0.0, 12.0, 26.0], [20.0, 0.0, 0.0, 0.0, 0.0], [0.0, 18.0, 0.0, 12.0, 26.0], [0.0, 16.0, 0.0, 10.0, 2.0], [0.0, 13.0, 0.0, 0.0, 0.0], [0.0, 3.0, 0.0, 10.0, 2.0], [0.0, 3.0, 0.0, 0.0, 0.0], [0.0, 0.0, 0.0, 10.0, 2.0], [0.0, 0.0, 0.0, 10.0, 0.0], [0.0, 0.0, 0.0, 0.0, 2.0], [0.0, 2.0, 0.0, 2.0, 24.0], [0.0, 0.0, 0.0, 0.0, 24.0], [0.0, 2.0, 0.0, 2.0, 0.0], [0.0, 2.0, 0.0, 0.0, 0.0], [0.0, 0.0, 0.0, 2.0, 0.0], [0.0, 3.0, 27.0, 4.0, 0.0], [0.0, 3.0, 0.0, 4.0, 0.0], [0.0, 3.0, 0.0, 0.0, 0.0], [0.0, 0.0, 0.0, 4.0, 0.0], [0.0, 0.0, 27.0, 0.0, 0.0]]}, {"children_left": [1, 2, 3, 4, -1, -1, 7, 8, -1, -1, -1, 12, -1, -1, 15, 16, -1, -1, 19, -1, -1], "children_right": [14, 11, 6, 5, -1, -1, 10, 9, -1, -1, -1, 13, -1, -1, 18, 17, -1, -1, 20, -1, -1], "feature": [17, 7, 24, 20, -2, -2, 10, 23, -2, -2, -2, 0, -2, -2, 23, 0, -2, -2, 11, -2, -2], "threshold": [2.946381023605227e-07, 2.560755945069104e-07, -4.464244938162665e-07, 2.6707315612384264e-06, -2.0, -2.0, 1.5895662812681621e-06, 1.868383370151605e-05, -2.0, -2.0, -2.0, 0.9755188524723053, -2.0, -2.0, -4.606747765478758e-07, 0.9525985717773438, -2.0, -2.0, 2.931595977040402e-05, -2.0, -2.0], "value": [[18.0, 22.0, 25.0, 26.0, 19.0], [18.0, 11.0, 0.0, 19.0, 19.0], [18.0, 11.0, 0.0, 16.0, 0.0], [0.0, 11.0, 0.0, 2.0, 0.0], [0.0, 11.0, 0.0, 0.0, 0.0], [0.0, 0.0, 0.0, 2.0, 0.0], [18.0, 0.0, 0.0, 14.0, 0.0], [18.0, 0.0, 0.0, 1.0, 0.0], [18.0, 0.0, 0.0, 0.0, 0.0], [0.0, 0.0, 0.0, 1.0, 0.0], [0.0, 0.0, 0.0, 13.0, 0.0], [0.0, 0.0, 0.0, 3.0, 19.0], [0.0, 0.0, 0.0, 3.0, 0.0], [0.0, 0.0, 0.0, 0.0, 19.0], [0.0, 11.0, 25.0, 7.0, 0.0], [0.0, 11.0, 0.0, 6.0, 0.0], [0.0, 0.0, 0.0, 6.0, 0.0], [0.0, 11.0, 0.0, 0.0, 0.0], [0.0, 0.0, 25.0, 1.0, 0.0], [0.0, 0.0, 25.0, 0.0, 0.0], [0.0, 0.0, 0.0, 1.0, 0.0]]}, {"children_left": [1, 2, 3, -1, -1, -1, 7, 8, -1, -1, 11, 12, -1, -1, 15, 16, -1, 18, -1, -1, -1], "children_right": [6, 5, 4, -1, -1, -1, 10, 9, -1, -1, 14, 13, -1, -1, 20, 17, -1, 19, -1, -1, -1], "feature": [7, 14, 22, -2, -2, -2, 6, 0, -2, -2, 29, 13, -2, -2, 28, 6, -2, 22, -2, -2, -2], "threshold": [-1.3437363577395445e-05, 3.3282839524417795e-06, 1.6039907393405883e-06, -2.0, -2.0, -2.0, -7.616661079623555e-07, 0.9762435257434845, -2.0, -2.0, -2.2080795503143236e-07, -1.8782835553565747e-07, -2.0, -2.0, -4.31885283092015e-09, 1.0708132322179154e-05, -2.0, 2.6496689997657086e-06, -2.0, -2.0, -2.0], "value": [[15.0, 29.0, 24.0, 20.0, 22.0], [0.0, 25.0, 0.0, 4.0, 0.0], [0.0, 25.0, 0.0, 1.0, 0.0], [0.0, 25.0, 0.0, 0.0, 0.0], [0.0, 0.0, 0.0, 1.0, 0.0], [0.0, 0.0, 0.0, 3.0, 0.0], [15.0, 4.0, 24.0, 16.0, 22.0], [0.0, 0.0, 0.0, 9.0, 22.0], [0.0, 0.0, 0.0, 9.0, 0.0], [0.0, 0.0, 0.0, 0.0, 22.0], [15.0, 4.0, 24.0, 7.0, 0.0], [0.0, 0.0, 24.0, 1.0, 0.0], [0.0, 0.0, 24.0, 0.0, 0.0], [0.0, 0.0, 0.0, 1.0, 0.0], [15.0, 4.0, 0.0, 6.0, 0.0], [15.0, 4.0, 0.0, 1.0, 0.0], [15.0, 0.0, 0.0, 0.0, 0.0], [0.0, 4.0, 0.0, 1.0, 0.0], [0.0, 4.0, 0.0, 0.0, 0.0], [0.0, 0.0, 0.0, 1.0, 0.0], [0.0, 0.0, 0.0, 5.0, 0.0]]}, {"children_left": [1, 2, 3, 4, 5, -1, -1, 8, -1, -1, 11, 12, 13, -1, -1, -1, -1, 18, -1, -1, -1], "children_right": [20, 17, 10, 7, 6, -1, -1, 9, -1, -1, 16, 15, 14, -1, -1, -1, -1, 19, -1, -1, -1], "feature": [0, 28, 5, 24, 7, -2, -2, 4, -2, -2, 26, 2, 4, -2, -2, -2, -2, 5, -2, -2, -2], "threshold": [0.9997520446777344, 3.508418302544669e-07, -3.867250654820964e-06, -8.200975969430147e-07, 8.257588888227474e-06, -2.0, -2.0, -0.00010734779789345339, -2.0, -2.0, 1.8558556007519655e-06, 0.0002630736562423408, -4.117270805181761e-06, -2.0, -2.0, -2.0, -2.0, -3.981464253399736e-06, -2.0, -2.0, -2.0], "value": [[25.0, 15.0, 22.0, 23.0, 25.0], [0.0, 15.0, 22.0, 23.0, 25.0], [0.0, 15.0, 0.0, 18.0, 25.0], [0.0, 14.0, 0.0, 8.0, 0.0], [0.0, 1.0, 0.0, 7.0, 0.0], [0.0, 1.0, 0.0, 0.0, 0.0], [0.0, 0.0, 0.0, 7.0, 0.0], [0.0, 13.0, 0.0, 1.0, 0.0], [0.0, 0.0, 0.0, 1.0, 0.0], [0.0, 13.0, 0.0, 0.0, 0.0], [0.0, 1.0, 0.0, 10.0, 25.0], [0.0, 1.0, 0.0, 10.0, 1.0], [0.0, 0.0, 0.0, 10.0, 1.0], [0.0, 0.0, 0.0, 10.0, 0.0], [0.0, 0.0, 0.0, 0.0, 1.0], [0.0, 1.0, 0.0, 0.0, 0.0], [0.0, 0.0, 0.0, 0.0, 24.0], [0.0, 0.0, 22.0, 5.0, 0.0], [0.0, 0.0, 0.0, 5.0, 0.0], [0.0, 0.0, 22.0, 0.0, 0.0], [25.0, 0.0, 0.0, 0.0, 0.0]]}, {"children_left": [1, 2, 3, 4, -1, -1, -1, 8, -1, -1, 11, 12, 13, -1, -1, -1, -1], "children_right": [10, 7, 6, 5, -1, -1, -1, 9, -1, -1, 16, 15, 14, -1, -1, -1, -1], "feature": [20, 23, 0, 11, -2, -2, -2, 1, -2, -2, 8, 22, 16, -2, -2, -2, -2], "threshold": [5.609439597265009e-07, 1.0313572929021575e-07, 0.9768522381782532, -2.220326894075697e-05, -2.0, -2.0, -2.0, 0.0004227920435369015, -2.0, -2.0, 8.321679160872009e-06, -6.151950344701618e-07, 4.06748358727782e-06, -2.0, -2.0, -2.0, -2.0], "value": [[22.0, 20.0, 27.0, 17.0, 24.0], [22.0, 18.0, 0.0, 7.0, 24.0], [0.0, 18.0, 0.0, 1.0, 24.0], [0.0, 18.0, 0.0, 1.0, 0.0], [0.0, 0.0, 0.0, 1.0, 0.0], [0.0, 18.0, 0.0, 0.0, 0.0], [0.0, 0.0, 0.0, 0.0, 24.0], [22.0, 0.0, 0.0, 6.0, 0.0], [22.0, 0.0, 0.0, 0.0, 0.0], [0.0, 0.0, 0.0, 6.0, 0.0], [0.0, 2.0, 27.0, 10.0, 0.0], [0.0, 2.0, 27.0, 3.0, 0.0], [0.0, 2.0, 0.0, 3.0, 0.0], [0.0, 0.0, 0.0, 3.0, 0.0], [0.0, 2.0, 0.0, 0.0, 0.0], [0.0, 0.0, 27.0, 0.0, 0.0], [0.0, 0.0, 0.0, 7.0, 0.0]]}, {"children_left": [1, 2, -1, 4, 5, -1, -1, 8, -1, 10, -1, -1, 13, -1, 15, -1, -1], "children_right": [12, 3, -1, 7, 6, -1, -1, 9, -1, 11, -1, -1, 14, -1, 16, -1, -1], "feature": [0, 0, -2, 6, 5, -2, -2, 26, -2, 16, -2, -2, 9, -2, 4, -2, -2], "threshold": [0.9782512784004211, 0.9522962272167206, -2.0, -2.3394044546876103e-05, -0.0001132259494625032, -2.0, -2.0, -5.863034928665911e-07, -2.0, 2.0849888187512988e-05, -2.0, -2.0, -6.872660947010445e-07, -2.0, 1.0632823688183635e-06, -2.0, -2.0], "value": [[21.0, 22.0, 14.0, 26.0, 27.0], [0.0, 22.0, 0.0, 26.0, 0.0], [0.0, 0.0, 0.0, 15.0, 0.0], [0.0, 22.0, 0.0, 11.0, 0.0], [0.0, 2.0, 0.0, 8.0, 0.0], [0.0, 2.0, 0.0, 0.0, 0.0], [0.0, 0.0, 0.0, 8.0, 0.0], [0.0, 20.0, 0.0, 3.0, 0.0], [0.0, 0.0, 0.0, 2.0, 0.0], [0.0, 20.0, 0.0, 1.0, 0.0], [0.0, 20.0, 0.0, 0.0, 0.0], [0.0, 0.0, 0.0, 1.0, 0.0], [21.0, 0.0, 14.0, 0.0, 27.0], [0.0, 0.0, 0.0, 0.0, 27.0], [21.0, 0.0, 14.0, 0.0, 0.0], [21.0, 0.0, 0.0, 0.0, 0.0], [0.0, 0.0, 14.0, 0.0, 0.0]]}, {"children_left": [1, 2, 3, -1, 5, -1, 7, -1, -1, -1, 11, 12, -1, -1, -1], "children_right": [10, 9, 4, -1, 6, -1, 8, -1, -1, -1, 14, 13, -1, -1, -1], "feature": [0, 10, 26, -2, 8, -2, 20, -2, -2, -2, 0, 7, -2, -2, -2], "threshold": [0.9781299531459808, 4.076775667272159e-06, -1.6254035273277623e-07, -2.0, -3.2255178439299925e-06, -2.0, -1.9955851712438744e-05, -2.0, -2.0, -2.0, 0.9997520446777344, 5.511653000667138e-07, -2.0, -2.0, -2.0], "value": [[23.0, 16.0, 22.0, 29.0, 20.0], [0.0, 16.0, 0.0, 29.0, 0.0], [0.0, 16.0, 0.0, 12.0, 0.0], [0.0, 0.0, 0.0, 7.0, 0.0], [0.0, 16.0, 0.0, 5.0, 0.0], [0.0, 15.0, 0.0, 0.0, 0.0], [0.0, 1.0, 0.0, 5.0, 0.0], [0.0, 1.0, 0.0, 0.0, 0.0], [0.0, 0.0, 0.0, 5.0, 0.0], [0.0, 0.0, 0.0, 17.0, 0.0], [23.0, 0.0, 22.0, 0.0, 20.0], [0.0, 0.0, 22.0, 0.0, 20.0], [0.0, 0.0, 22.0, 0.0, 0.0], [0.0, 0.0, 0.0, 0.0, 20.0], [23.0, 0.0, 0.0, 0.0, 0.0]]}, {"children_left": [1, 2, 3, -1, 5, 6, -1, -1, -1, 10, -1, -1, 13, -1, 15, 16, 17, -1, -1, -1, -1], "children_right": [12, 9, 4, -1, 8, 7, -1, -1, -1, 11, -1, -1, 14, -1, 20, 19, 18, -1, -1, -1, -1], "feature": [9, 9, 24, -2, 25, 14, -2, -2, -2, 12, -2, -2, 1, -2, 26, 4, 0, -2, -2, -2, -2], "threshold": [-6.478406930909841e-07, -1.7068977058443124e-06, -1.982592948479578e-05, -2.0, -2.364378929087252e-06, 5.4061986247688765e-06, -2.0, -2.0, -2.0, -1.3519944729978306e-05, -2.0, -2.0, -0.0030315601034089923, -2.0, 1.4834285479992104e-06, 3.163756349522373e-05, 0.9528626501560211, -2.0, -2.0, -2.0, -2.0], "value": [[22.0, 19.0, 22.0, 19.0, 28.0], [0.0, 5.0, 0.0, 13.0, 28.0], [0.0, 5.0, 0.0, 11.0, 0.0], [0.0, 2.0, 0.0, 0.0, 0.0], [0.0, 3.0, 0.0, 11.0, 0.0], [0.0, 3.0, 0.0, 2.0, 0.0], [0.0, 3.0, 0.0, 0.0, 0.0], [0.0, 0.0, 0.0, 2.0, 0.0], [0.0, 0.0, 0.0, 9.0, 0.0], [0.0, 0.0, 0.0, 2.0, 28.0], [0.0, 0.0, 0.0, 2.0, 0.0], [0.0, 0.0, 0.0, 0.0, 28.0], [22.0, 14.0, 22.0, 6.0, 0.0], [22.0, 0.0, 0.0, 0.0, 0.0], [0.0, 14.0, 22.0, 6.0, 0.0], [0.0, 14.0, 0.0, 6.0, 0.0], [0.0, 1.0, 0.0, 6.0, 0.0], [0.0, 0.0, 0.0, 6.0, 0.0], [0.0, 1.0, 0.0, 0.0, 0.0], [0.0, 13.0, 0.0, 0.0, 0.0], [0.0, 0.0, 22.0, 0.0, 0.0]]}, {"children_left": [1, -1, 3, -1, 5, 6, 7, 8, -1, -1, 11, -1, -1, 14, -1, -1, -1], "children_right": [2, -1, 4, -1, 16, 13, 10, 9, -1, -1, 12, -1, -1, 15, -1, -1, -1], "feature": [1, -2, 27, -2, 0, 23, 29, 11, -2, -2, 25, -2, -2, 20, -2, -2, -2], "threshold": [-0.0030315601034089923, -2.0, -1.6179285466932924e-06, -2.0, 0.9782512784004211, 1.0313572929021575e-07, 6.326698752390225e-08, -2.780991223971796e-07, -2.0, -2.0, -1.7179602451733444e-07, -2.0, -2.0, 8.260374443125329e-06, -2.0, -2.0, -2.0], "value": [[23.0, 19.0, 23.0, 25.0, 20.0], [23.0, 0.0, 0.0, 0.0, 0.0], [0.0, 19.0, 23.0, 25.0, 20.0], [0.0, 0.0, 23.0, 0.0, 0.0], [0.0, 19.0, 0.0, 25.0, 20.0], [0.0, 19.0, 0.0, 25.0, 0.0], [0.0, 17.0, 0.0, 5.0, 0.0], [0.0, 16.0, 0.0, 1.0, 0.0], [0.0, 0.0, 0.0, 1.0, 0.0], [0.0, 16.0, 0.0, 0.0, 0.0], [0.0, 1.0, 0.0, 4.0, 0.0], [0.0, 0.0, 0.0, 4.0, 0.0], [0.0, 1.0, 0.0, 0.0, 0.0], [0.0, 2.0, 0.0, 20.0, 0.0], [0.0, 0.0, 0.0, 20.0, 0.0], [0.0, 2.0, 0.0, 0.0, 0.0], [0.0, 0.0, 0.0, 0.0, 20.0]]}, {"children_left": [1, -1, 3, 4, -1, -1, 7, 8, -1, -1, 11, 12, -1, -1, 15, -1, 17, -1, -1], "children_right": [2, -1, 6, 5, -1, -1, 10, 9, -1, -1, 14, 13, -1, -1, 16, -1, 18, -1, -1], "feature": [27, -2, 1, 2, -2, -2, 7, 10, -2, -2, 6, 5, -2, -2, 20, -2, 8, -2, -2], "threshold": [-1.3354139696275524e-06, -2.0, 0.0004258159315213561, -9.51712124219739e-07, -2.0, -2.0, -1.3437363577395445e-05, 1.5078542219271185e-05, -2.0, -2.0, 4.196014742774423e-05, -4.927922964270692e-05, -2.0, -2.0, -1.25054045838624e-05, -2.0, 9.093646440305747e-06, -2.0, -2.0], "value": [[19.0, 20.0, 29.0, 22.0, 20.0], [0.0, 0.0, 29.0, 0.0, 0.0], [19.0, 20.0, 0.0, 22.0, 20.0], [19.0, 0.0, 0.0, 0.0, 20.0], [19.0, 0.0, 0.0, 0.0, 0.0], [0.0, 0.0, 0.0, 0.0, 20.0], [0.0, 20.0, 0.0, 22.0, 0.0], [0.0, 15.0, 0.0, 1.0, 0.0], [0.0, 15.0, 0.0, 0.0, 0.0], [0.0, 0.0, 0.0, 1.0, 0.0], [0.0, 5.0, 0.0, 21.0, 0.0], [0.0, 1.0, 0.0, 19.0, 0.0], [0.0, 1.0, 0.0, 0.0, 0.0], [0.0, 0.0, 0.0, 19.0, 0.0], [0.0, 4.0, 0.0, 2.0, 0.0], [0.0, 0.0, 0.0, 1.0, 0.0], [0.0, 4.0, 0.0, 1.0, 0.0], [0.0, 4.0, 0.0, 0.0, 0.0], [0.0, 0.0, 0.0, 1.0, 0.0]]}, {"children_left": [1, 2, 3, -1, -1, 6, 7, -1, 9, 10, -1, -1, -1, -1, 15, -1, -1], "children_right": [14, 5, 4, -1, -1, 13, 8, -1, 12, 11, -1, -1, -1, -1, 16, -1, -1], "feature": [28, 8, 21, -2, -2, 0, 1, -2, 2, 5, -2, -2, -2, -2, 19, -2, -2], "threshold": [3.300438038422726e-07, -5.419372314463544e-06, -2.4299499514768286e-06, -2.0, -2.0, 0.9997352659702301, 0.0004086639964953065, -2.0, 0.00016455799413961358, -0.0001132259494625032, -2.0, -2.0, -2.0, -2.0, -7.540576341114047e-08, -2.0, -2.0], "value": [[20.0, 24.0, 24.0, 22.0, 20.0], [20.0, 24.0, 0.0, 15.0, 20.0], [0.0, 22.0, 0.0, 2.0, 0.0], [0.0, 0.0, 0.0, 2.0, 0.0], [0.0, 22.0, 0.0, 0.0, 0.0], [20.0, 2.0, 0.0, 13.0, 20.0], [0.0, 2.0, 0.0, 13.0, 20.0], [0.0, 0.0, 0.0, 0.0, 20.0], [0.0, 2.0, 0.0, 13.0, 0.0], [0.0, 1.0, 0.0, 13.0, 0.0], [0.0, 1.0, 0.0, 0.0, 0.0], [0.0, 0.0, 0.0, 13.0, 0.0], [0.0, 1.0, 0.0, 0.0, 0.0], [20.0, 0.0, 0.0, 0.0, 0.0], [0.0, 0.0, 24.0, 7.0, 0.0], [0.0, 0.0, 24.0, 0.0, 0.0], [0.0, 0.0, 0.0, 7.0, 0.0]]}, {"children_left": [1, 2, -1, 4, -1, 6, -1, -1, 9, 10, -1, -1, 13, -1, 15, -1, -1], "children_right": [8, 3, -1, 5, -1, 7, -1, -1, 12, 11, -1, -1, 14, -1, 16, -1, -1], "feature": [15, 26, -2, 17, -2, 5, -2, -2, 10, 11, -2, -2, 1, -2, 7, -2, -2], "threshold": [-5.232194553173031e-07, -1.4833552626214441e-06, -2.0, -2.1393663018898224e-06, -2.0, 3.665408735287201e-05, -2.0, -2.0, -3.8570858151842913e-07, -1.01981325748568e-05, -2.0, -2.0, 0.0006856489926576614, -2.0, -1.3475925243255915e-05, -2.0, -2.0], "value": [[24.0, 17.0, 26.0, 21.0, 22.0], [24.0, 3.0, 0.0, 7.0, 0.0], [24.0, 0.0, 0.0, 0.0, 0.0], [0.0, 3.0, 0.0, 7.0, 0.0], [0.0, 0.0, 0.0, 5.0, 0.0], [0.0, 3.0, 0.0, 2.0, 0.0], [0.0, 3.0, 0.0, 0.0, 0.0], [0.0, 0.0, 0.0, 2.0, 0.0], [0.0, 14.0, 26.0, 14.0, 22.0], [0.0, 3.0, 26.0, 0.0, 0.0], [0.0, 3.0, 0.0, 0.0, 0.0], [0.0, 0.0, 26.0, 0.0, 0.0], [0.0, 11.0, 0.0, 14.0, 22.0], [0.0, 0.0, 0.0, 0.0, 22.0], [0.0, 11.0, 0.0, 14.0, 0.0], [0.0, 11.0, 0.0, 0.0, 0.0], [0.0, 0.0, 0.0, 14.0, 0.0]]}, {"children_left": [1, 2, 3, 4, -1, -1, 7, 8, -1, -1, -1, 12, -1, -1, 15, -1, -1], "children_right": [14, 11, 6, 5, -1, -1, 10, 9, -1, -1, -1, 13, -1, -1, 16, -1, -1], "feature": [28, 9, 2, 5, -2, -2, 20, 8, -2, -2, -2, 21, -2, -2, 6, -2, -2], "threshold": [3.5760326966283174e-07, 1.2064581937920593e-06, -4.420857294462621e-05, 1.1048488431697479e-05, -2.0, -2.0, -9.415710948701417e-07, 3.094541625614511e-05, -2.0, -2.0, -2.0, -1.3598352381904988e-06, -2.0, -2.0, 1.1695077928308706e-06, -2.0, -2.0], "value": [[19.0, 26.0, 32.0, 17.0, 16.0], [19.0, 26.0, 0.0, 15.0, 16.0], [0.0, 26.0, 0.0, 5.0, 16.0], [0.0, 23.0, 0.0, 2.0, 0.0], [0.0, 23.0, 0.0, 0.0, 0.0], [0.0, 0.0, 0.0, 2.0, 0.0], [0.0, 3.0, 0.0, 3.0, 16.0], [0.0, 3.0, 0.0, 3.0, 0.0], [0.0, 3.0, 0.0, 0.0, 0.0], [0.0, 0.0, 0.0, 3.0, 0.0], [0.0, 0.0, 0.0, 0.0, 16.0], [19.0, 0.0, 0.0, 10.0, 0.0], [0.0, 0.0, 0.0, 10.0, 0.0], [19.0, 0.0, 0.0, 0.0, 0.0], [0.0, 0.0, 32.0, 2.0, 0.0], [0.0, 0.0, 32.0, 0.0, 0.0], [0.0, 0.0, 0.0, 2.0, 0.0]]}, {"children_left": [1, -1, 3, 4, -1, -1, 7, 8, 9, -1, 11, -1, -1, 14, -1, -1, 17, -1, -1], "children_right": [2, -1, 6, 5, -1, -1, 16, 13, 10, -1, 12, -1, -1, 15, -1, -1, 18, -1, -1], "feature": [27, -2, 1, 26, -2, -2, 13, 6, 2, -2, 6, -2, -2, 24, -2, -2, 11, -2, -2], "threshold": [-1.6268635363303474e-06, -2.0, 0.00042649253737181425, -9.916702765622176e-07, -2.0, -2.0, 1.5620921658410225e-06, 3.274774189776508e-05, 0.00018242096120957285, -2.0, 6.915706762811169e-07, -2.0, -2.0, -3.459820391071844e-06, -2.0, -2.0, -1.2262268814566823e-05, -2.0, -2.0], "value": [[16.0, 17.0, 29.0, 23.0, 25.0], [0.0, 0.0, 29.0, 0.0, 0.0], [16.0, 17.0, 0.0, 23.0, 25.0], [16.0, 0.0, 0.0, 0.0, 25.0], [16.0, 0.0, 0.0, 0.0, 0.0], [0.0, 0.0, 0.0, 0.0, 25.0], [0.0, 17.0, 0.0, 23.0, 0.0], [0.0, 4.0, 0.0, 21.0, 0.0], [0.0, 1.0, 0.0, 19.0, 0.0], [0.0, 0.0, 0.0, 18.0, 0.0], [0.0, 1.0, 0.0, 1.0, 0.0], [0.0, 1.0, 0.0, 0.0, 0.0], [0.0, 0.0, 0.0, 1.0, 0.0], [0.0, 3.0, 0.0, 2.0, 0.0], [0.0, 0.0, 0.0, 2.0, 0.0], [0.0, 3.0, 0.0, 0.0, 0.0], [0.0, 13.0, 0.0, 2.0, 0.0], [0.0, 0.0, 0.0, 2.0, 0.0], [0.0, 13.0, 0.0, 0.0, 0.0]]}, {"children_left": [1, -1, 3, 4, 5, -1, -1, 8, -1, -1, 11, -1, 13, -1, -1], "children_right": [2, -1, 10, 7, 6, -1, -1, 9, -1, -1, 12, -1, 14, -1, -1], "feature": [1, -2, 20, 5, 17, -2, -2, 8, -2, -2, 27, -2, 5, -2, -2], "threshold": [-0.0030315601034089923, -2.0, 5.657954318394331e-07, -3.877430145848848e-06, -4.578455047976604e-06, -2.0, -2.0, 2.2426006580644753e-06, -2.0, -2.0, -1.6179285466932924e-06, -2.0, -9.57636129896855e-05, -2.0, -2.0], "value": [[25.0, 18.0, 22.0, 23.0, 22.0], [25.0, 0.0, 0.0, 0.0, 0.0], [0.0, 18.0, 22.0, 23.0, 22.0], [0.0, 16.0, 0.0, 10.0, 22.0], [0.0, 16.0, 0.0, 6.0, 0.0], [0.0, 0.0, 0.0, 6.0, 0.0], [0.0, 16.0, 0.0, 0.0, 0.0], [0.0, 0.0, 0.0, 4.0, 22.0], [0.0, 0.0, 0.0, 0.0, 22.0], [0.0, 0.0, 0.0, 4.0, 0.0], [0.0, 2.0, 22.0, 13.0, 0.0], [0.0, 0.0, 22.0, 0.0, 0.0], [0.0, 2.0, 0.0, 13.0, 0.0], [0.0, 2.0, 0.0, 0.0, 0.0], [0.0, 0.0, 0.0, 13.0, 0.0]]}, {"children_left": [1, 2, 3, 4, -1, -1, -1, -1, 9, 10, 11, -1, -1, -1, 15, -1, 17, -1, -1], "children_right": [8, 7, 6, 5, -1, -1, -1, -1, 14, 13, 12, -1, -1, -1, 16, -1, 18, -1, -1], "feature": [6, 6, 10, 21, -2, -2, -2, -2, 5, 18, 18, -2, -2, -2, 6, -2, 11, -2, -2], "threshold": [1.1603489538103418e-06, -7.741100418456881e-07, 3.2362892739001836e-06, -2.9291747836168724e-06, -2.0, -2.0, -2.0, -2.0, -4.127043467860858e-06, -2.525535052200212e-07, -1.0676648003027367e-05, -2.0, -2.0, -2.0, 1.1628569382082787e-05, -2.0, -5.189712737774244e-06, -2.0, -2.0], "value": [[23.0, 22.0, 22.0, 21.0, 22.0], [0.0, 0.0, 22.0, 9.0, 22.0], [0.0, 0.0, 0.0, 9.0, 22.0], [0.0, 0.0, 0.0, 1.0, 22.0], [0.0, 0.0, 0.0, 1.0, 0.0], [0.0, 0.0, 0.0, 0.0, 22.0], [0.0, 0.0, 0.0, 8.0, 0.0], [0.0, 0.0, 22.0, 0.0, 0.0], [23.0, 22.0, 0.0, 12.0, 0.0], [0.0, 21.0, 0.0, 6.0, 0.0], [0.0, 21.0, 0.0, 2.0, 0.0], [0.0, 0.0, 0.0, 2.0, 0.0], [0.0, 21.0, 0.0, 0.0, 0.0], [0.0, 0.0, 0.0, 4.0, 0.0], [23.0, 1.0, 0.0, 6.0, 0.0], [23.0, 0.0, 0.0, 0.0, 0.0], [0.0, 1.0, 0.0, 6.0, 0.0], [0.0, 0.0, 0.0, 6.0, 0.0], [0.0, 1.0, 0.0, 0.0, 0.0]]}, {"children_left": [1, -1, 3, 4, 5, -1, -1, -1, 9, 10, -1, -1, 13, -1, 15, -1, -1], "children_right": [2, -1, 8, 7, 6, -1, -1, -1, 12, 11, -1, -1, 14, -1, 16, -1, -1], "feature": [26, -2, 5, 13, 23, -2, -2, -2, 17, 7, -2, -2, 12, -2, 5, -2, -2], "threshold": [-2.141445463621494e-06, -2.0, -3.974958620034386e-06, 1.591508862475166e-06, -3.947544087168353e-06, -2.0, -2.0, -2.0, 3.138532242985548e-07, -1.7873877311558317e-06, -2.0, -2.0, 1.9586481982969417e-06, -2.0, 2.257242454106745e-05, -2.0, -2.0], "value": [[24.0, 26.0, 22.0, 18.0, 20.0], [24.0, 0.0, 0.0, 0.0, 0.0], [0.0, 26.0, 22.0, 18.0, 20.0], [0.0, 25.0, 0.0, 11.0, 0.0], [0.0, 1.0, 0.0, 11.0, 0.0], [0.0, 1.0, 0.0, 0.0, 0.0], [0.0, 0.0, 0.0, 11.0, 0.0], [0.0, 24.0, 0.0, 0.0, 0.0], [0.0, 1.0, 22.0, 7.0, 20.0], [0.0, 0.0, 0.0, 2.0, 20.0], [0.0, 0.0, 0.0, 2.0, 0.0], [0.0, 0.0, 0.0, 0.0, 20.0], [0.0, 1.0, 22.0, 5.0, 0.0], [0.0, 0.0, 22.0, 0.0, 0.0], [0.0, 1.0, 0.0, 5.0, 0.0], [0.0, 1.0, 0.0, 0.0, 0.0], [0.0, 0.0, 0.0, 5.0, 0.0]]}, {"children_left": [1, 2, 3, 4, -1, -1, -1, 8, 9, 10, -1, -1, -1, -1, 15, -1, 17, 18, -1, -1, -1], "children_right": [14, 7, 6, 5, -1, -1, -1, 13, 12, 11, -1, -1, -1, -1, 16, -1, 20, 19, -1, -1, -1], "feature": [14, 5, 4, 11, -2, -2, -2, 0, 26, 7, -2, -2, -2, -2, 25, -2, 0, 27, -2, -2, -2], "threshold": [8.656799934669834e-07, -3.964150657509435e-06, 6.291276076808572e-05, -2.185407174692955e-05, -2.0, -2.0, -2.0, 0.9997284710407257, 1.096454397497837e-06, -1.726996197248809e-05, -2.0, -2.0, -2.0, -2.0, -2.7181798856190653e-07, -2.0, 0.9781585931777954, -4.356436988928181e-09, -2.0, -2.0, -2.0], "value": [[21.0, 22.0, 24.0, 27.0, 16.0], [0.0, 19.0, 24.0, 10.0, 16.0], [0.0, 18.0, 0.0, 4.0, 0.0], [0.0, 18.0, 0.0, 1.0, 0.0], [0.0, 0.0, 0.0, 1.0, 0.0], [0.0, 18.0, 0.0, 0.0, 0.0], [0.0, 0.0, 0.0, 3.0, 0.0], [0.0, 1.0, 24.0, 6.0, 16.0], [0.0, 1.0, 0.0, 6.0, 16.0], [0.0, 1.0, 0.0, 6.0, 0.0], [0.0, 1.0, 0.0, 0.0, 0.0], [0.0, 0.0, 0.0, 6.0, 0.0], [0.0, 0.0, 0.0, 0.0, 16.0], [0.0, 0.0, 24.0, 0.0, 0.0], [21.0, 3.0, 0.0, 17.0, 0.0], [0.0, 0.0, 0.0, 12.0, 0.0], [21.0, 3.0, 0.0, 5.0, 0.0], [0.0, 3.0, 0.0, 5.0, 0.0], [0.0, 3.0, 0.0, 0.0, 0.0], [0.0, 0.0, 0.0, 5.0, 0.0], [21.0, 0.0, 0.0, 0.0, 0.0]]}, {"children_left": [1, -1, 3, -1, 5, 6, 7, -1, -1, 10, -1, 12, -1, -1, -1], "children_right": [2, -1, 4, -1, 14, 9, 8, -1, -1, 11, -1, 13, -1, -1, -1], "feature": [1, -2, 1, -2, 0, 7, 17, -2, -2, 17, -2, 26, -2, -2, -2], "threshold": [-0.0030315598705783486, -2.0, -0.0030291854636743665, -2.0, 0.9782512784004211, -1.3465273696056101e-05, -6.256862491227366e-06, -2.0, -2.0, 2.944091761492018e-06, -2.0, 2.3019374850719032e-07, -2.0, -2.0, -2.0], "value": [[25.0, 21.0, 22.0, 19.0, 23.0], [25.0, 0.0, 0.0, 0.0, 0.0], [0.0, 21.0, 22.0, 19.0, 23.0], [0.0, 0.0, 22.0, 0.0, 0.0], [0.0, 21.0, 0.0, 19.0, 23.0], [0.0, 21.0, 0.0, 19.0, 0.0], [0.0, 17.0, 0.0, 1.0, 0.0], [0.0, 0.0, 0.0, 1.0, 0.0], [0.0, 17.0, 0.0, 0.0, 0.0], [0.0, 4.0, 0.0, 18.0, 0.0], [0.0, 0.0, 0.0, 16.0, 0.0], [0.0, 4.0, 0.0, 2.0, 0.0], [0.0, 4.0, 0.0, 0.0, 0.0], [0.0, 0.0, 0.0, 2.0, 0.0], [0.0, 0.0, 0.0, 0.0, 23.0]]}, {"children_left": [1, 2, -1, 4, 5, 6, -1, -1, 9, -1, -1, -1, 13, 14, -1, -1, 17, -1, -1], "children_right": [12, 3, -1, 11, 8, 7, -1, -1, 10, -1, -1, -1, 16, 15, -1, -1, 18, -1, -1], "feature": [13, 1, -2, 27, 10, 26, -2, -2, 9, -2, -2, -2, 21, 0, -2, -2, 26, -2, -2], "threshold": [2.1202312305845794e-07, -0.0030291868606582284, -2.0, 6.896124773447809e-07, -1.3582364772446454e-05, 1.8578864668938877e-08, -2.0, -2.0, -6.626543381571537e-06, -2.0, -2.0, -2.0, -2.3283605088408876e-07, 0.9782799184322357, -2.0, -2.0, 5.45607150570504e-08, -2.0, -2.0], "value": [[25.0, 25.0, 21.0, 21.0, 18.0], [0.0, 6.0, 21.0, 17.0, 18.0], [0.0, 0.0, 21.0, 0.0, 0.0], [0.0, 6.0, 0.0, 17.0, 18.0], [0.0, 6.0, 0.0, 17.0, 0.0], [0.0, 5.0, 0.0, 2.0, 0.0], [0.0, 5.0, 0.0, 0.0, 0.0], [0.0, 0.0, 0.0, 2.0, 0.0], [0.0, 1.0, 0.0, 15.0, 0.0], [0.0, 1.0, 0.0, 0.0, 0.0], [0.0, 0.0, 0.0, 15.0, 0.0], [0.0, 0.0, 0.0, 0.0, 18.0], [25.0, 19.0, 0.0, 4.0, 0.0], [25.0, 2.0, 0.0, 0.0, 0.0], [0.0, 2.0, 0.0, 0.0, 0.0], [25.0, 0.0, 0.0, 0.0, 0.0], [0.0, 17.0, 0.0, 4.0, 0.0], [0.0, 0.0, 0.0, 4.0, 0.0], [0.0, 17.0, 0.0, 0.0, 0.0]]}, {"children_left": [1, -1, 3, 4, 5, 6, -1, -1, -1, 10, -1, -1, 13, -1, -1], "children_right": [2, -1, 12, 9, 8, 7, -1, -1, -1, 11, -1, -1, 14, -1, -1], "feature": [26, -2, 28, 21, 7, 15, -2, -2, -2, 16, -2, -2, 0, -2, -2], "threshold": [-1.9523034779922455e-06, -2.0, 3.663171668222276e-07, 1.772490065832244e-08, -1.5824830370547716e-05, -1.8986541704180127e-05, -2.0, -2.0, -2.0, -7.876125067696194e-07, -2.0, -2.0, 0.9763531982898712, -2.0, -2.0], "value": [[22.0, 24.0, 22.0, 20.0, 22.0], [22.0, 0.0, 0.0, 0.0, 0.0], [0.0, 24.0, 22.0, 20.0, 22.0], [0.0, 24.0, 0.0, 18.0, 22.0], [0.0, 6.0, 0.0, 18.0, 0.0], [0.0, 6.0, 0.0, 1.0, 0.0], [0.0, 0.0, 0.0, 1.0, 0.0], [0.0, 6.0, 0.0, 0.0, 0.0], [0.0, 0.0, 0.0, 17.0, 0.0], [0.0, 18.0, 0.0, 0.0, 22.0], [0.0, 18.0, 0.0, 0.0, 0.0], [0.0, 0.0, 0.0, 0.0, 22.0], [0.0, 0.0, 22.0, 2.0, 0.0], [0.0, 0.0, 0.0, 2.0, 0.0], [0.0, 0.0, 22.0, 0.0, 0.0]]}, {"children_left": [1, 2, 3, -1, 5, -1, -1, -1, 9, 10, -1, -1, 13, -1, -1], "children_right": [8, 7, 4, -1, 6, -1, -1, -1, 12, 11, -1, -1, 14, -1, -1], "feature": [6, 6, 1, -2, 21, -2, -2, -2, 8, 4, -2, -2, 8, -2, -2], "threshold": [1.1603133218685002e-06, -7.686661476213885e-07, 0.00042649253737181425, -2.0, -1.0857598226721166e-05, -2.0, -2.0, -2.0, -3.9990996469896345e-06, 6.291597674135119e-05, -2.0, -2.0, 1.6006704868232191e-06, -2.0, -2.0], "value": [[26.0, 25.0, 24.0, 21.0, 14.0], [0.0, 1.0, 24.0, 9.0, 14.0], [0.0, 1.0, 0.0, 9.0, 14.0], [0.0, 0.0, 0.0, 0.0, 14.0], [0.0, 1.0, 0.0, 9.0, 0.0], [0.0, 1.0, 0.0, 0.0, 0.0], [0.0, 0.0, 0.0, 9.0, 0.0], [0.0, 0.0, 24.0, 0.0, 0.0], [26.0, 24.0, 0.0, 12.0, 0.0], [0.0, 24.0, 0.0, 4.0, 0.0], [0.0, 24.0, 0.0, 0.0, 0.0], [0.0, 0.0, 0.0, 4.0, 0.0], [26.0, 0.0, 0.0, 8.0, 0.0], [26.0, 0.0, 0.0, 0.0, 0.0], [0.0, 0.0, 0.0, 8.0, 0.0]]}, {"children_left": [1, 2, 3, -1, 5, 6, -1, -1, -1, -1, 11, 12, -1, -1, 15, -1, -1], "children_right": [10, 9, 4, -1, 8, 7, -1, -1, -1, -1, 14, 13, -1, -1, 16, -1, -1], "feature": [6, 6, 13, -2, 13, 13, -2, -2, -2, -2, 23, 4, -2, -2, 2, -2, -2], "threshold": [1.1603489538103418e-06, -7.616661079623555e-07, -8.137827080645366e-06, -2.0, 2.530936154271357e-05, -4.124784084069688e-06, -2.0, -2.0, -2.0, -2.0, 1.30626329308825e-07, -7.493872180930339e-05, -2.0, -2.0, -4.072507897490141e-05, -2.0, -2.0], "value": [[26.0, 18.0, 21.0, 21.0, 24.0], [0.0, 1.0, 21.0, 14.0, 24.0], [0.0, 1.0, 0.0, 14.0, 24.0], [0.0, 0.0, 0.0, 12.0, 0.0], [0.0, 1.0, 0.0, 2.0, 24.0], [0.0, 1.0, 0.0, 0.0, 24.0], [0.0, 1.0, 0.0, 0.0, 0.0], [0.0, 0.0, 0.0, 0.0, 24.0], [0.0, 0.0, 0.0, 2.0, 0.0], [0.0, 0.0, 21.0, 0.0, 0.0], [26.0, 17.0, 0.0, 7.0, 0.0], [0.0, 17.0, 0.0, 2.0, 0.0], [0.0, 0.0, 0.0, 2.0, 0.0], [0.0, 17.0, 0.0, 0.0, 0.0], [26.0, 0.0, 0.0, 5.0, 0.0], [0.0, 0.0, 0.0, 5.0, 0.0], [26.0, 0.0, 0.0, 0.0, 0.0]]}, {"children_left": [1, 2, -1, 4, 5, -1, 7, -1, -1, 10, 11, -1, -1, -1, 15, -1, 17, -1, -1], "children_right": [14, 3, -1, 9, 6, -1, 8, -1, -1, 13, 12, -1, -1, -1, 16, -1, 18, -1, -1], "feature": [28, 1, -2, 8, 21, -2, 6, -2, -2, 20, 7, -2, -2, -2, 24, -2, 6, -2, -2], "threshold": [3.5955572741386277e-07, -0.0030300182988867164, -2.0, 1.470409074499912e-06, -5.547395929283994e-07, -2.0, 4.5996551989446743e-07, -2.0, -2.0, -1.9955851712438744e-05, -1.7683594251138857e-05, -2.0, -2.0, -2.0, -7.42242107776292e-08, -2.0, -4.571724303303881e-05, -2.0, -2.0], "value": [[22.0, 13.0, 23.0, 36.0, 16.0], [22.0, 13.0, 0.0, 28.0, 16.0], [22.0, 0.0, 0.0, 0.0, 0.0], [0.0, 13.0, 0.0, 28.0, 16.0], [0.0, 12.0, 0.0, 8.0, 16.0], [0.0, 0.0, 0.0, 8.0, 0.0], [0.0, 12.0, 0.0, 0.0, 16.0], [0.0, 0.0, 0.0, 0.0, 16.0], [0.0, 12.0, 0.0, 0.0, 0.0], [0.0, 1.0, 0.0, 20.0, 0.0], [0.0, 1.0, 0.0, 2.0, 0.0], [0.0, 1.0, 0.0, 0.0, 0.0], [0.0, 0.0, 0.0, 2.0, 0.0], [0.0, 0.0, 0.0, 18.0, 0.0], [0.0, 0.0, 23.0, 8.0, 0.0], [0.0, 0.0, 0.0, 7.0, 0.0], [0.0, 0.0, 23.0, 1.0, 0.0], [0.0, 0.0, 0.0, 1.0, 0.0], [0.0, 0.0, 23.0, 0.0, 0.0]]}, {"children_left": [1, -1, 3, 4, -1, 6, 7, -1, -1, 10, -1, 12, -1, -1, 15, -1, -1], "children_right": [2, -1, 14, 5, -1, 9, 8, -1, -1, 11, -1, 13, -1, -1, 16, -1, -1], "feature": [27, -2, 26, 1, -2, 11, 5, -2, -2, 18, -2, 9, -2, -2, 25, -2, -2], "threshold": [-1.3354139696275524e-06, -2.0, 1.433232910130755e-06, 0.0004049635026603937, -2.0, -1.926632211990409e-06, -0.0001132259494625032, -2.0, -2.0, -2.4843400581175956e-07, -2.0, 7.706922161787588e-06, -2.0, -2.0, -1.7713132915986307e-07, -2.0, -2.0], "value": [[22.0, 21.0, 22.0, 21.0, 24.0], [0.0, 0.0, 22.0, 0.0, 0.0], [22.0, 21.0, 0.0, 21.0, 24.0], [22.0, 21.0, 0.0, 20.0, 0.0], [22.0, 0.0, 0.0, 0.0, 0.0], [0.0, 21.0, 0.0, 20.0, 0.0], [0.0, 2.0, 0.0, 14.0, 0.0], [0.0, 2.0, 0.0, 0.0, 0.0], [0.0, 0.0, 0.0, 14.0, 0.0], [0.0, 19.0, 0.0, 6.0, 0.0], [0.0, 16.0, 0.0, 0.0, 0.0], [0.0, 3.0, 0.0, 6.0, 0.0], [0.0, 0.0, 0.0, 6.0, 0.0], [0.0, 3.0, 0.0, 0.0, 0.0], [0.0, 0.0, 0.0, 1.0, 24.0], [0.0, 0.0, 0.0, 1.0, 0.0], [0.0, 0.0, 0.0, 0.0, 24.0]]}, {"children_left": [1, 2, 3, 4, -1, -1, -1, 8, 9, 10, -1, -1, -1, -1, 15, 16, -1, -1, 19, -1, 21, -1, -1], "children_right": [14, 7, 6, 5, -1, -1, -1, 13, 12, 11, -1, -1, -1, -1, 18, 17, -1, -1, 20, -1, 22, -1, -1], "feature": [6, 14, 6, 3, -2, -2, -2, 28, 4, 13, -2, -2, -2, -2, 3, 27, -2, -2, 26, -2, 25, -2, -2], "threshold": [1.1603133218685002e-06, -4.6586890789512836e-07, -1.865356216512737e-05, 0.00013613267583423294, -2.0, -2.0, -2.0, 3.3680524325063743e-07, -3.175594656568137e-05, -1.457837424823083e-05, -2.0, -2.0, -2.0, -2.0, -3.8853095247759484e-05, 2.9411916813160133e-07, -2.0, -2.0, -1.9115126974611485e-06, -2.0, -8.983799233419631e-07, -2.0, -2.0], "value": [[26.0, 19.0, 22.0, 24.0, 19.0], [0.0, 4.0, 22.0, 15.0, 19.0], [0.0, 1.0, 0.0, 3.0, 19.0], [0.0, 1.0, 0.0, 3.0, 0.0], [0.0, 0.0, 0.0, 3.0, 0.0], [0.0, 1.0, 0.0, 0.0, 0.0], [0.0, 0.0, 0.0, 0.0, 19.0], [0.0, 3.0, 22.0, 12.0, 0.0], [0.0, 3.0, 0.0, 12.0, 0.0], [0.0, 3.0, 0.0, 3.0, 0.0], [0.0, 0.0, 0.0, 3.0, 0.0], [0.0, 3.0, 0.0, 0.0, 0.0], [0.0, 0.0, 0.0, 9.0, 0.0], [0.0, 0.0, 22.0, 0.0, 0.0], [26.0, 15.0, 0.0, 9.0, 0.0], [0.0, 11.0, 0.0, 1.0, 0.0], [0.0, 11.0, 0.0, 0.0, 0.0], [0.0, 0.0, 0.0, 1.0, 0.0], [26.0, 4.0, 0.0, 8.0, 0.0], [26.0, 0.0, 0.0, 0.0, 0.0], [0.0, 4.0, 0.0, 8.0, 0.0], [0.0, 4.0, 0.0, 0.0, 0.0], [0.0, 0.0, 0.0, 8.0, 0.0]]}, {"children_left": [1, 2, 3, 4, -1, 6, -1, -1, 9, -1, -1, 12, -1, -1, 15, 16, -1, -1, 19, -1, -1], "children_right": [14, 11, 8, 5, -1, 7, -1, -1, 10, -1, -1, 13, -1, -1, 18, 17, -1, -1, 20, -1, -1], "feature": [9, 0, 28, 15, -2, 0, -2, -2, 2, -2, -2, 22, -2, -2, 4, 3, -2, -2, 2, -2, -2], "threshold": [1.2064581937920593e-06, 0.9782512784004211, 2.3179861585731487e-08, -6.057303266970848e-06, -2.0, 0.951917976140976, -2.0, -2.0, 0.00018242096120957285, -2.0, -2.0, 5.740751305438607e-07, -2.0, -2.0, -4.449860202981881e-06, 1.1506364899105392e-05, -2.0, -2.0, 1.4267174378801428e-05, -2.0, -2.0], "value": [[24.0, 21.0, 19.0, 24.0, 22.0], [0.0, 20.0, 19.0, 16.0, 22.0], [0.0, 20.0, 0.0, 16.0, 0.0], [0.0, 19.0, 0.0, 3.0, 0.0], [0.0, 0.0, 0.0, 2.0, 0.0], [0.0, 19.0, 0.0, 1.0, 0.0], [0.0, 0.0, 0.0, 1.0, 0.0], [0.0, 19.0, 0.0, 0.0, 0.0], [0.0, 1.0, 0.0, 13.0, 0.0], [0.0, 0.0, 0.0, 13.0, 0.0], [0.0, 1.0, 0.0, 0.0, 0.0], [0.0, 0.0, 19.0, 0.0, 22.0], [0.0, 0.0, 0.0, 0.0, 22.0], [0.0, 0.0, 19.0, 0.0, 0.0], [24.0, 1.0, 0.0, 8.0, 0.0], [0.0, 1.0, 0.0, 7.0, 0.0], [0.0, 1.0, 0.0, 0.0, 0.0], [0.0, 0.0, 0.0, 7.0, 0.0], [24.0, 0.0, 0.0, 1.0, 0.0], [24.0, 0.0, 0.0, 0.0, 0.0], [0.0, 0.0, 0.0, 1.0, 0.0]]}, {"children_left": [1, -1, 3, 4, -1, -1, 7, -1, 9, 10, -1, -1, -1], "children_right": [2, -1, 6, 5, -1, -1, 8, -1, 12, 11, -1, -1, -1], "feature": [27, -2, 1, 12, -2, -2, 28, -2, 9, 17, -2, -2, -2], "threshold": [-1.6179285466932924e-06, -2.0, 0.0004086639964953065, 3.0678713613951913e-07, -2.0, -2.0, -8.323884230776457e-07, -2.0, -6.626543381571537e-06, 2.944091761492018e-06, -2.0, -2.0, -2.0], "value": [[15.0, 30.0, 18.0, 27.0, 20.0], [0.0, 0.0, 18.0, 0.0, 0.0], [15.0, 30.0, 0.0, 27.0, 20.0], [15.0, 0.0, 0.0, 0.0, 20.0], [0.0, 0.0, 0.0, 0.0, 20.0], [15.0, 0.0, 0.0, 0.0, 0.0], [0.0, 30.0, 0.0, 27.0, 0.0], [0.0, 23.0, 0.0, 0.0, 0.0], [0.0, 7.0, 0.0, 27.0, 0.0], [0.0, 7.0, 0.0, 8.0, 0.0], [0.0, 0.0, 0.0, 8.0, 0.0], [0.0, 7.0, 0.0, 0.0, 0.0], [0.0, 0.0, 0.0, 19.0, 0.0]]}, {"children_left": [1, 2, 3, -1, -1, 6, 7, 8, -1, -1, -1, 12, -1, -1, -1], "children_right": [14, 5, 4, -1, -1, 11, 10, 9, -1, -1, -1, 13, -1, -1, -1], "feature": [0, 8, 23, -2, -2, 10, 10, 29, -2, -2, -2, 7, -2, -2, -2], "threshold": [0.9997520446777344, -4.796049410060732e-06, 1.5237399608736268e-07, -2.0, -2.0, -3.866068780666865e-07, -1.3763478733608281e-05, 2.1569256603015674e-07, -2.0, -2.0, -2.0, 1.0420748992601148e-06, -2.0, -2.0, -2.0], "value": [[30.0, 24.0, 17.0, 15.0, 24.0], [0.0, 24.0, 17.0, 15.0, 24.0], [0.0, 23.0, 0.0, 5.0, 0.0], [0.0, 23.0, 0.0, 0.0, 0.0], [0.0, 0.0, 0.0, 5.0, 0.0], [0.0, 1.0, 17.0, 10.0, 24.0], [0.0, 1.0, 17.0, 6.0, 0.0], [0.0, 1.0, 0.0, 6.0, 0.0], [0.0, 0.0, 0.0, 6.0, 0.0], [0.0, 1.0, 0.0, 0.0, 0.0], [0.0, 0.0, 17.0, 0.0, 0.0], [0.0, 0.0, 0.0, 4.0, 24.0], [0.0, 0.0, 0.0, 4.0, 0.0], [0.0, 0.0, 0.0, 0.0, 24.0], [30.0, 0.0, 0.0, 0.0, 0.0]]}, {"children_left": [1, -1, 3, 4, 5, -1, 7, -1, 9, -1, -1, -1, -1], "children_right": [2, -1, 12, 11, 6, -1, 8, -1, 10, -1, -1, -1, -1], "feature": [27, -2, 0, 0, 18, -2, 20, -2, 26, -2, -2, -2, -2], "threshold": [-1.6179285466932924e-06, -2.0, 0.9997352659702301, 0.9782512784004211, -1.598471840225102e-06, -2.0, -6.555079380632378e-06, -2.0, -5.238276479246906e-07, -2.0, -2.0, -2.0, -2.0], "value": [[24.0, 18.0, 29.0, 19.0, 20.0], [0.0, 0.0, 29.0, 0.0, 0.0], [24.0, 18.0, 0.0, 19.0, 20.0], [0.0, 18.0, 0.0, 19.0, 20.0], [0.0, 18.0, 0.0, 19.0, 0.0], [0.0, 0.0, 0.0, 10.0, 0.0], [0.0, 18.0, 0.0, 9.0, 0.0], [0.0, 0.0, 0.0, 4.0, 0.0], [0.0, 18.0, 0.0, 5.0, 0.0], [0.0, 0.0, 0.0, 5.0, 0.0], [0.0, 18.0, 0.0, 0.0, 0.0], [0.0, 0.0, 0.0, 0.0, 20.0], [24.0, 0.0, 0.0, 0.0, 0.0]]}, {"children_left": [1, 2, 3, -1, -1, 6, -1, -1, 9, 10, -1, -1, -1], "children_right": [8, 5, 4, -1, -1, 7, -1, -1, 12, 11, -1, -1, -1], "feature": [0, 18, 5, -2, -2, 13, -2, -2, 28, 4, -2, -2, -2], "threshold": [0.9782512784004211, -2.525535052200212e-07, -2.5542192361172056e-06, -2.0, -2.0, 3.2313903375325026e-06, -2.0, -2.0, 2.788414406040829e-07, 5.322424527776093e-07, -2.0, -2.0, -2.0], "value": [[19.0, 28.0, 25.0, 20.0, 18.0], [0.0, 28.0, 0.0, 20.0, 0.0], [0.0, 26.0, 0.0, 7.0, 0.0], [0.0, 26.0, 0.0, 0.0, 0.0], [0.0, 0.0, 0.0, 7.0, 0.0], [0.0, 2.0, 0.0, 13.0, 0.0], [0.0, 0.0, 0.0, 13.0, 0.0], [0.0, 2.0, 0.0, 0.0, 0.0], [19.0, 0.0, 25.0, 0.0, 18.0], [19.0, 0.0, 0.0, 0.0, 18.0], [19.0, 0.0, 0.0, 0.0, 0.0], [0.0, 0.0, 0.0, 0.0, 18.0], [0.0, 0.0, 25.0, 0.0, 0.0]]}, {"children_left": [1, 2, 3, -1, 5, -1, -1, 8, -1, 10, -1, -1, 13, 14, -1, -1, -1], "children_right": [12, 7, 4, -1, 6, -1, -1, 9, -1, 11, -1, -1, 16, 15, -1, -1, -1], "feature": [26, 7, 17, -2, 24, -2, -2, 1, -2, 0, -2, -2, 20, 10, -2, -2, -2], "threshold": [1.4044809404367697e-06, -1.3475760169967543e-05, -4.547220839867805e-06, -2.0, 6.649838951489073e-06, -2.0, -2.0, 0.0006360397674143314, -2.0, 0.9529620110988617, -2.0, -2.0, 5.779654941306944e-07, -1.3226533475574342e-05, -2.0, -2.0, -2.0], "value": [[14.0, 25.0, 25.0, 25.0, 21.0], [14.0, 25.0, 0.0, 23.0, 0.0], [0.0, 16.0, 0.0, 3.0, 0.0], [0.0, 0.0, 0.0, 2.0, 0.0], [0.0, 16.0, 0.0, 1.0, 0.0], [0.0, 16.0, 0.0, 0.0, 0.0], [0.0, 0.0, 0.0, 1.0, 0.0], [14.0, 9.0, 0.0, 20.0, 0.0], [14.0, 0.0, 0.0, 0.0, 0.0], [0.0, 9.0, 0.0, 20.0, 0.0], [0.0, 0.0, 0.0, 20.0, 0.0], [0.0, 9.0, 0.0, 0.0, 0.0], [0.0, 0.0, 25.0, 2.0, 21.0], [0.0, 0.0, 0.0, 2.0, 21.0], [0.0, 0.0, 0.0, 2.0, 0.0], [0.0, 0.0, 0.0, 0.0, 21.0], [0.0, 0.0, 25.0, 0.0, 0.0]]}, {"children_left": [1, 2, -1, -1, 5, 6, -1, 8, -1, 10, -1, -1, 13, 14, -1, 16, -1, -1, -1], "children_right": [4, 3, -1, -1, 12, 7, -1, 9, -1, 11, -1, -1, 18, 15, -1, 17, -1, -1, -1], "feature": [7, 5, -2, -2, 22, 11, -2, 26, -2, 24, -2, -2, 0, 1, -2, 17, -2, -2, -2], "threshold": [-1.3443984698824352e-05, 2.3778795480211556e-05, -2.0, -2.0, -2.0085221308363543e-07, -1.1732521855378764e-05, -2.0, -1.3076687821467203e-06, -2.0, 1.8260078675780278e-06, -2.0, -2.0, 0.9997284710407257, 0.0006390679627656937, -2.0, 3.709041152433201e-06, -2.0, -2.0, -2.0], "value": [[29.0, 23.0, 17.0, 21.0, 20.0], [0.0, 20.0, 0.0, 3.0, 0.0], [0.0, 20.0, 0.0, 0.0, 0.0], [0.0, 0.0, 0.0, 3.0, 0.0], [29.0, 3.0, 17.0, 18.0, 20.0], [29.0, 1.0, 0.0, 4.0, 1.0], [0.0, 0.0, 0.0, 4.0, 0.0], [29.0, 1.0, 0.0, 0.0, 1.0], [29.0, 0.0, 0.0, 0.0, 0.0], [0.0, 1.0, 0.0, 0.0, 1.0], [0.0, 0.0, 0.0, 0.0, 1.0], [0.0, 1.0, 0.0, 0.0, 0.0], [0.0, 2.0, 17.0, 14.0, 19.0], [0.0, 2.0, 0.0, 14.0, 19.0], [0.0, 0.0, 0.0, 0.0, 19.0], [0.0, 2.0, 0.0, 14.0, 0.0], [0.0, 0.0, 0.0, 14.0, 0.0], [0.0, 2.0, 0.0, 0.0, 0.0], [0.0, 0.0, 17.0, 0.0, 0.0]]}, {"children_left": [1, -1, 3, 4, 5, -1, 7, -1, 9, -1, -1, -1, 13, -1, 15, -1, -1], "children_right": [2, -1, 12, 11, 6, -1, 8, -1, 10, -1, -1, -1, 14, -1, 16, -1, -1], "feature": [27, -2, 8, 26, 17, -2, 27, -2, 11, -2, -2, -2, 8, -2, 21, -2, -2], "threshold": [-1.6179285466932924e-06, -2.0, 6.968272714402701e-07, 1.4367076914822974e-06, -2.6622765858519415e-06, -2.0, 7.483553652321007e-07, -2.0, 7.608195975450371e-07, -2.0, -2.0, -2.0, 2.3710286995992647e-06, -2.0, -9.203175750371884e-06, -2.0, -2.0], "value": [[32.0, 15.0, 22.0, 19.0, 22.0], [0.0, 0.0, 22.0, 0.0, 0.0], [32.0, 15.0, 0.0, 19.0, 22.0], [0.0, 13.0, 0.0, 10.0, 22.0], [0.0, 13.0, 0.0, 10.0, 2.0], [0.0, 0.0, 0.0, 9.0, 0.0], [0.0, 13.0, 0.0, 1.0, 2.0], [0.0, 13.0, 0.0, 0.0, 0.0], [0.0, 0.0, 0.0, 1.0, 2.0], [0.0, 0.0, 0.0, 0.0, 2.0], [0.0, 0.0, 0.0, 1.0, 0.0], [0.0, 0.0, 0.0, 0.0, 20.0], [32.0, 2.0, 0.0, 9.0, 0.0], [32.0, 0.0, 0.0, 0.0, 0.0], [0.0, 2.0, 0.0, 9.0, 0.0], [0.0, 2.0, 0.0, 0.0, 0.0], [0.0, 0.0, 0.0, 9.0, 0.0]]}, {"children_left": [1, -1, 3, 4, -1, 6, 7, -1, -1, 10, -1, -1, -1], "children_right": [2, -1, 12, 5, -1, 9, 8, -1, -1, 11, -1, -1, -1], "feature": [1, -2, 0, 1, -2, 8, 28, -2, -2, 13, -2, -2, -2], "threshold": [-0.0030315601034089923, -2.0, 0.9997284710407257, 0.00040798739064484835, -2.0, -5.4184455393624376e-06, -4.69552645654403e-08, -2.0, -2.0, 2.348904445170774e-05, -2.0, -2.0, -2.0], "value": [[25.0, 23.0, 26.0, 16.0, 20.0], [25.0, 0.0, 0.0, 0.0, 0.0], [0.0, 23.0, 26.0, 16.0, 20.0], [0.0, 23.0, 0.0, 16.0, 20.0], [0.0, 0.0, 0.0, 0.0, 20.0], [0.0, 23.0, 0.0, 16.0, 0.0], [0.0, 22.0, 0.0, 4.0, 0.0], [0.0, 22.0, 0.0, 0.0, 0.0], [0.0, 0.0, 0.0, 4.0, 0.0], [0.0, 1.0, 0.0, 12.0, 0.0], [0.0, 0.0, 0.0, 12.0, 0.0], [0.0, 1.0, 0.0, 0.0, 0.0], [0.0, 0.0, 26.0, 0.0, 0.0]]}, {"children_left": [1, 2, -1, -1, 5, 6, 7, -1, -1, -1, 11, 12, -1, -1, 15, -1, -1], "children_right": [4, 3, -1, -1, 10, 9, 8, -1, -1, -1, 14, 13, -1, -1, 16, -1, -1], "feature": [1, 15, -2, -2, 14, 14, 0, -2, -2, -2, 1, 15, -2, -2, 3, -2, -2], "threshold": [-0.0030291866278275847, -2.0982638204714021e-07, -2.0, -2.0, -5.307805253096376e-07, -4.0574647073299275e-06, 0.9528459906578064, -2.0, -2.0, -2.0, 0.004688223358243704, 2.9061376153549645e-05, -2.0, -2.0, -1.0024795301433187e-05, -2.0, -2.0], "value": [[16.0, 21.0, 28.0, 26.0, 19.0], [16.0, 0.0, 28.0, 0.0, 0.0], [16.0, 0.0, 0.0, 0.0, 0.0], [0.0, 0.0, 28.0, 0.0, 0.0], [0.0, 21.0, 0.0, 26.0, 19.0], [0.0, 9.0, 0.0, 4.0, 19.0], [0.0, 9.0, 0.0, 4.0, 0.0], [0.0, 0.0, 0.0, 4.0, 0.0], [0.0, 9.0, 0.0, 0.0, 0.0], [0.0, 0.0, 0.0, 0.0, 19.0], [0.0, 12.0, 0.0, 22.0, 0.0], [0.0, 1.0, 0.0, 17.0, 0.0], [0.0, 0.0, 0.0, 17.0, 0.0], [0.0, 1.0, 0.0, 0.0, 0.0], [0.0, 11.0, 0.0, 5.0, 0.0], [0.0, 11.0, 0.0, 0.0, 0.0], [0.0, 0.0, 0.0, 5.0, 0.0]]}, {"children_left": [1, -1, 3, 4, 5, -1, 7, -1, -1, -1, 11, -1, 13, -1, 15, -1, -1], "children_right": [2, -1, 10, 9, 6, -1, 8, -1, -1, -1, 12, -1, 14, -1, 16, -1, -1], "feature": [26, -2, 15, 25, 15, -2, 23, -2, -2, -2, 1, -2, 1, -2, 14, -2, -2], "threshold": [-1.9439364677964477e-06, -2.0, 2.4080011939986434e-07, 9.284908628615085e-07, -3.409701776035945e-06, -2.0, 2.4595675185423715e-07, -2.0, -2.0, -2.0, -0.0030291854636743665, -2.0, 0.0004079879727214575, -2.0, -3.618164697627435e-06, -2.0, -2.0], "value": [[28.0, 24.0, 24.0, 15.0, 19.0], [28.0, 0.0, 0.0, 0.0, 0.0], [0.0, 24.0, 24.0, 15.0, 19.0], [0.0, 22.0, 0.0, 13.0, 0.0], [0.0, 22.0, 0.0, 5.0, 0.0], [0.0, 0.0, 0.0, 3.0, 0.0], [0.0, 22.0, 0.0, 2.0, 0.0], [0.0, 22.0, 0.0, 0.0, 0.0], [0.0, 0.0, 0.0, 2.0, 0.0], [0.0, 0.0, 0.0, 8.0, 0.0], [0.0, 2.0, 24.0, 2.0, 19.0], [0.0, 0.0, 24.0, 0.0, 0.0], [0.0, 2.0, 0.0, 2.0, 19.0], [0.0, 0.0, 0.0, 0.0, 19.0], [0.0, 2.0, 0.0, 2.0, 0.0], [0.0, 2.0, 0.0, 0.0, 0.0], [0.0, 0.0, 0.0, 2.0, 0.0]]}, {"children_left": [1, 2, 3, -1, 5, 6, -1, -1, -1, -1, 11, -1, 13, -1, -1], "children_right": [10, 9, 4, -1, 8, 7, -1, -1, -1, -1, 12, -1, 14, -1, -1], "feature": [23, 27, 27, -2, 10, 12, -2, -2, -2, -2, 0, -2, 24, -2, -2], "threshold": [1.3258199604848642e-07, 5.410922270243645e-07, -1.3125517597245562e-06, -2.0, 1.7138454040832585e-05, 3.7714611607952975e-05, -2.0, -2.0, -2.0, -2.0, 0.9566796720027924, -2.0, 1.3654855663958188e-06, -2.0, -2.0], "value": [[17.0, 23.0, 19.0, 27.0, 24.0], [0.0, 22.0, 19.0, 6.0, 24.0], [0.0, 22.0, 19.0, 6.0, 0.0], [0.0, 0.0, 19.0, 0.0, 0.0], [0.0, 22.0, 0.0, 6.0, 0.0], [0.0, 22.0, 0.0, 1.0, 0.0], [0.0, 22.0, 0.0, 0.0, 0.0], [0.0, 0.0, 0.0, 1.0, 0.0], [0.0, 0.0, 0.0, 5.0, 0.0], [0.0, 0.0, 0.0, 0.0, 24.0], [17.0, 1.0, 0.0, 21.0, 0.0], [0.0, 0.0, 0.0, 21.0, 0.0], [17.0, 1.0, 0.0, 0.0, 0.0], [17.0, 0.0, 0.0, 0.0, 0.0], [0.0, 1.0, 0.0, 0.0, 0.0]]}, {"children_left": [1, 2, 3, 4, 5, -1, -1, 8, -1, -1, 11, -1, -1, 14, -1, 16, -1, -1, 19, 20, -1, -1, 23, -1, -1], "children_right": [18, 13, 10, 7, 6, -1, -1, 9, -1, -1, 12, -1, -1, 15, -1, 17, -1, -1, 22, 21, -1, -1, 24, -1, -1], "feature": [14, 2, 18, 27, 27, -2, -2, 1, -2, -2, 1, -2, -2, 25, -2, 11, -2, -2, 3, 1, -2, -2, 24, -2, -2], "threshold": [8.449487154393864e-07, 1.0896922049141722e-06, 1.2218075617909108e-07, 2.2907885099954228e-07, -7.61560770001779e-07, -2.0, -2.0, 0.0008107796311378479, -2.0, -2.0, 0.0007301655132323503, -2.0, -2.0, -3.184640107178893e-08, -2.0, -7.556066066172207e-06, -2.0, -2.0, 6.106671435190947e-07, 0.0004227920435369015, -2.0, -2.0, -1.7431520518584875e-05, -2.0, -2.0], "value": [[28.0, 18.0, 23.0, 23.0, 18.0], [0.0, 16.0, 23.0, 15.0, 18.0], [0.0, 14.0, 0.0, 9.0, 18.0], [0.0, 14.0, 0.0, 7.0, 2.0], [0.0, 14.0, 0.0, 2.0, 0.0], [0.0, 0.0, 0.0, 2.0, 0.0], [0.0, 14.0, 0.0, 0.0, 0.0], [0.0, 0.0, 0.0, 5.0, 2.0], [0.0, 0.0, 0.0, 0.0, 2.0], [0.0, 0.0, 0.0, 5.0, 0.0], [0.0, 0.0, 0.0, 2.0, 16.0], [0.0, 0.0, 0.0, 0.0, 16.0], [0.0, 0.0, 0.0, 2.0, 0.0], [0.0, 2.0, 23.0, 6.0, 0.0], [0.0, 0.0, 23.0, 0.0, 0.0], [0.0, 2.0, 0.0, 6.0, 0.0], [0.0, 0.0, 0.0, 6.0, 0.0], [0.0, 2.0, 0.0, 0.0, 0.0], [28.0, 2.0, 0.0, 8.0, 0.0], [28.0, 0.0, 0.0, 1.0, 0.0], [28.0, 0.0, 0.0, 0.0, 0.0], [0.0, 0.0, 0.0, 1.0, 0.0], [0.0, 2.0, 0.0, 7.0, 0.0], [0.0, 2.0, 0.0, 0.0, 0.0], [0.0, 0.0, 0.0, 7.0, 0.0]]}, {"children_left": [1, 2, 3, 4, -1, -1, 7, -1, 9, -1, -1, 12, -1, -1, 15, -1, 17, -1, -1], "children_right": [14, 11, 6, 5, -1, -1, 8, -1, 10, -1, -1, 13, -1, -1, 16, -1, 18, -1, -1], "feature": [20, 0, 2, 29, -2, -2, 17, -2, 14, -2, -2, 27, -2, -2, 25, -2, 20, -2, -2], "threshold": [5.609439597265009e-07, 0.9781299531459808, -4.4190357584739104e-05, 2.0658358934610987e-07, -2.0, -2.0, 2.944091761492018e-06, -2.0, -1.540403673061519e-06, -2.0, -2.0, 5.99018733282719e-07, -2.0, -2.0, -7.908323951255625e-07, -2.0, 2.6384589659755875e-06, -2.0, -2.0], "value": [[19.0, 20.0, 22.0, 27.0, 22.0], [19.0, 20.0, 0.0, 15.0, 22.0], [0.0, 20.0, 0.0, 15.0, 0.0], [0.0, 18.0, 0.0, 3.0, 0.0], [0.0, 18.0, 0.0, 0.0, 0.0], [0.0, 0.0, 0.0, 3.0, 0.0], [0.0, 2.0, 0.0, 12.0, 0.0], [0.0, 0.0, 0.0, 10.0, 0.0], [0.0, 2.0, 0.0, 2.0, 0.0], [0.0, 2.0, 0.0, 0.0, 0.0], [0.0, 0.0, 0.0, 2.0, 0.0], [19.0, 0.0, 0.0, 0.0, 22.0], [19.0, 0.0, 0.0, 0.0, 0.0], [0.0, 0.0, 0.0, 0.0, 22.0], [0.0, 0.0, 22.0, 12.0, 0.0], [0.0, 0.0, 0.0, 9.0, 0.0], [0.0, 0.0, 22.0, 3.0, 0.0], [0.0, 0.0, 22.0, 0.0, 0.0], [0.0, 0.0, 0.0, 3.0, 0.0]]}, {"children_left": [1, -1, 3, 4, 5, -1, 7, -1, -1, -1, 11, 12, -1, -1, 15, -1, -1], "children_right": [2, -1, 10, 9, 6, -1, 8, -1, -1, -1, 14, 13, -1, -1, 16, -1, -1], "feature": [27, -2, 6, 26, 4, -2, 13, -2, -2, -2, 23, 19, -2, -2, 29, -2, -2], "threshold": [-1.6268635363303474e-06, -2.0, 4.298286171433574e-07, 1.4587733971893613e-06, -3.101261086158047e-06, -2.0, -7.96344328968246e-06, -2.0, -2.0, -2.0, 1.1256001286596984e-07, 4.7277345629481715e-06, -2.0, -2.0, 2.3139165250540827e-07, -2.0, -2.0], "value": [[15.0, 23.0, 23.0, 24.0, 25.0], [0.0, 0.0, 23.0, 0.0, 0.0], [15.0, 23.0, 0.0, 24.0, 25.0], [0.0, 0.0, 0.0, 18.0, 25.0], [0.0, 0.0, 0.0, 18.0, 2.0], [0.0, 0.0, 0.0, 16.0, 0.0], [0.0, 0.0, 0.0, 2.0, 2.0], [0.0, 0.0, 0.0, 2.0, 0.0], [0.0, 0.0, 0.0, 0.0, 2.0], [0.0, 0.0, 0.0, 0.0, 23.0], [15.0, 23.0, 0.0, 6.0, 0.0], [0.0, 23.0, 0.0, 3.0, 0.0], [0.0, 23.0, 0.0, 0.0, 0.0], [0.0, 0.0, 0.0, 3.0, 0.0], [15.0, 0.0, 0.0, 3.0, 0.0], [15.0, 0.0, 0.0, 0.0, 0.0], [0.0, 0.0, 0.0, 3.0, 0.0]]}, {"children_left": [1, 2, 3, -1, -1, -1, 7, 8, -1, 10, -1, -1, 13, -1, -1], "children_right": [6, 5, 4, -1, -1, -1, 12, 9, -1, 11, -1, -1, 14, -1, -1], "feature": [6, 0, 17, -2, -2, -2, 15, 26, -2, 8, -2, -2, 5, -2, -2], "threshold": [-7.686661476213885e-07, 0.9782512784004211, 4.510550184022577e-06, -2.0, -2.0, -2.0, 2.555761788869404e-07, -1.4373888141960833e-06, -2.0, -3.218558390472026e-06, -2.0, -2.0, -1.2307795479671313e-05, -2.0, -2.0], "value": [[23.0, 20.0, 20.0, 20.0, 27.0], [0.0, 2.0, 0.0, 10.0, 27.0], [0.0, 2.0, 0.0, 10.0, 0.0], [0.0, 0.0, 0.0, 10.0, 0.0], [0.0, 2.0, 0.0, 0.0, 0.0], [0.0, 0.0, 0.0, 0.0, 27.0], [23.0, 18.0, 20.0, 10.0, 0.0], [23.0, 18.0, 0.0, 8.0, 0.0], [23.0, 0.0, 0.0, 0.0, 0.0], [0.0, 18.0, 0.0, 8.0, 0.0], [0.0, 18.0, 0.0, 0.0, 0.0], [0.0, 0.0, 0.0, 8.0, 0.0], [0.0, 0.0, 20.0, 2.0, 0.0], [0.0, 0.0, 0.0, 2.0, 0.0], [0.0, 0.0, 20.0, 0.0, 0.0]]}, {"children_left": [1, -1, 3, 4, -1, -1, 7, 8, 9, 10, -1, -1, -1, -1, 15, 16, -1, -1, -1], "children_right": [2, -1, 6, 5, -1, -1, 14, 13, 12, 11, -1, -1, -1, -1, 18, 17, -1, -1, -1], "feature": [29, -2, 7, 10, -2, -2, 1, 0, 26, 18, -2, -2, -2, -2, 20, 25, -2, -2, -2], "threshold": [-1.429274050224194e-06, -2.0, -1.3475925243255915e-05, -2.698311163840117e-06, -2.0, -2.0, 0.004353188909590244, 0.9997520446777344, 1.9758906546485377e-06, 1.2454738396172615e-07, -2.0, -2.0, -2.0, -2.0, -5.51120183445164e-06, -1.0427994311612565e-05, -2.0, -2.0, -2.0], "value": [[18.0, 24.0, 16.0, 29.0, 23.0], [0.0, 0.0, 0.0, 0.0, 20.0], [18.0, 24.0, 16.0, 29.0, 3.0], [0.0, 19.0, 0.0, 1.0, 0.0], [0.0, 0.0, 0.0, 1.0, 0.0], [0.0, 19.0, 0.0, 0.0, 0.0], [18.0, 5.0, 16.0, 28.0, 3.0], [18.0, 3.0, 16.0, 0.0, 3.0], [0.0, 3.0, 16.0, 0.0, 3.0], [0.0, 3.0, 0.0, 0.0, 3.0], [0.0, 3.0, 0.0, 0.0, 0.0], [0.0, 0.0, 0.0, 0.0, 3.0], [0.0, 0.0, 16.0, 0.0, 0.0], [18.0, 0.0, 0.0, 0.0, 0.0], [0.0, 2.0, 0.0, 28.0, 0.0], [0.0, 2.0, 0.0, 2.0, 0.0], [0.0, 0.0, 0.0, 2.0, 0.0], [0.0, 2.0, 0.0, 0.0, 0.0], [0.0, 0.0, 0.0, 26.0, 0.0]]}, {"children_left": [1, 2, 3, 4, 5, 6, -1, -1, -1, -1, -1, -1, 13, -1, -1], "children_right": [12, 11, 10, 9, 8, 7, -1, -1, -1, -1, -1, -1, 14, -1, -1], "feature": [13, 10, 23, 10, 10, 23, -2, -2, -2, -2, -2, -2, 8, -2, -2], "threshold": [1.639905349293258e-06, 2.13088225109459e-06, 1.6363938826202684e-07, -3.866068780666865e-07, -3.463432364014807e-06, -8.40568191051716e-06, -2.0, -2.0, -2.0, -2.0, -2.0, -2.0, -4.501986995819607e-05, -2.0, -2.0], "value": [[28.0, 26.0, 15.0, 24.0, 17.0], [28.0, 4.0, 15.0, 22.0, 17.0], [28.0, 4.0, 15.0, 2.0, 17.0], [0.0, 4.0, 15.0, 2.0, 17.0], [0.0, 4.0, 15.0, 2.0, 0.0], [0.0, 4.0, 0.0, 2.0, 0.0], [0.0, 0.0, 0.0, 2.0, 0.0], [0.0, 4.0, 0.0, 0.0, 0.0], [0.0, 0.0, 15.0, 0.0, 0.0], [0.0, 0.0, 0.0, 0.0, 17.0], [28.0, 0.0, 0.0, 0.0, 0.0], [0.0, 0.0, 0.0, 20.0, 0.0], [0.0, 22.0, 0.0, 2.0, 0.0], [0.0, 0.0, 0.0, 2.0, 0.0], [0.0, 22.0, 0.0, 0.0, 0.0]]}, {"children_left": [1, -1, 3, 4, -1, 6, 7, -1, -1, 10, 11, -1, -1, -1, 15, -1, -1], "children_right": [2, -1, 14, 5, -1, 9, 8, -1, -1, 13, 12, -1, -1, -1, 16, -1, -1], "feature": [26, -2, 0, 28, -2, 7, 13, -2, -2, 14, 18, -2, -2, -2, 9, -2, -2], "threshold": [-2.1330784534256964e-06, -2.0, 0.9765388667583466, -8.279181997750129e-07, -2.0, -1.726996197248809e-05, -1.170446466858266e-05, -2.0, -2.0, -5.948560783508583e-06, 6.205625936672732e-06, -2.0, -2.0, -2.0, -6.872660947010445e-07, -2.0, -2.0], "value": [[22.0, 20.0, 17.0, 26.0, 25.0], [22.0, 0.0, 0.0, 0.0, 0.0], [0.0, 20.0, 17.0, 26.0, 25.0], [0.0, 20.0, 0.0, 26.0, 0.0], [0.0, 14.0, 0.0, 0.0, 0.0], [0.0, 6.0, 0.0, 26.0, 0.0], [0.0, 4.0, 0.0, 2.0, 0.0], [0.0, 0.0, 0.0, 2.0, 0.0], [0.0, 4.0, 0.0, 0.0, 0.0], [0.0, 2.0, 0.0, 24.0, 0.0], [0.0, 2.0, 0.0, 2.0, 0.0], [0.0, 2.0, 0.0, 0.0, 0.0], [0.0, 0.0, 0.0, 2.0, 0.0], [0.0, 0.0, 0.0, 22.0, 0.0], [0.0, 0.0, 17.0, 0.0, 25.0], [0.0, 0.0, 0.0, 0.0, 25.0], [0.0, 0.0, 17.0, 0.0, 0.0]]}, {"children_left": [1, 2, 3, -1, 5, 6, -1, -1, -1, -1, 11, 12, -1, 14, -1, -1, 17, 18, -1, -1, -1], "children_right": [10, 9, 4, -1, 8, 7, -1, -1, -1, -1, 16, 13, -1, 15, -1, -1, 20, 19, -1, -1, -1], "feature": [21, 0, 10, -2, 13, 1, -2, -2, -2, -2, 17, 10, -2, 25, -2, -2, 20, 15, -2, -2, -2], "threshold": [4.48954295961812e-09, 0.99973464012146, -2.712998139031697e-05, -2.0, 2.1491466668521753e-06, 0.000684969243593514, -2.0, -2.0, -2.0, -2.0, 2.336479330011798e-07, 1.7710136432924628e-06, -2.0, 1.4999108088886715e-07, -2.0, -2.0, -5.208105164911103e-07, -6.822386183102935e-06, -2.0, -2.0, -2.0], "value": [[25.0, 19.0, 24.0, 24.0, 18.0], [25.0, 6.0, 0.0, 17.0, 1.0], [0.0, 6.0, 0.0, 17.0, 1.0], [0.0, 4.0, 0.0, 0.0, 0.0], [0.0, 2.0, 0.0, 17.0, 1.0], [0.0, 0.0, 0.0, 17.0, 1.0], [0.0, 0.0, 0.0, 0.0, 1.0], [0.0, 0.0, 0.0, 17.0, 0.0], [0.0, 2.0, 0.0, 0.0, 0.0], [25.0, 0.0, 0.0, 0.0, 0.0], [0.0, 13.0, 24.0, 7.0, 17.0], [0.0, 12.0, 0.0, 6.0, 17.0], [0.0, 0.0, 0.0, 0.0, 17.0], [0.0, 12.0, 0.0, 6.0, 0.0], [0.0, 0.0, 0.0, 6.0, 0.0], [0.0, 12.0, 0.0, 0.0, 0.0], [0.0, 1.0, 24.0, 1.0, 0.0], [0.0, 1.0, 0.0, 1.0, 0.0], [0.0, 0.0, 0.0, 1.0, 0.0], [0.0, 1.0, 0.0, 0.0, 0.0], [0.0, 0.0, 24.0, 0.0, 0.0]]}, {"children_left": [1, 2, -1, 4, 5, -1, 7, -1, -1, 10, -1, 12, -1, -1, 15, 16, -1, -1, -1], "children_right": [14, 3, -1, 9, 6, -1, 8, -1, -1, 11, -1, 13, -1, -1, 18, 17, -1, -1, -1], "feature": [26, 17, -2, 14, 27, -2, 27, -2, -2, 1, -2, 20, -2, -2, 4, 22, -2, -2, -2], "threshold": [1.4044809404367697e-06, -2.6310423777431424e-06, -2.0, 8.656799934669834e-07, 9.020733671150083e-07, -2.0, 1.7443812225792499e-06, -2.0, -2.0, 0.0006583152571693063, -2.0, -1.4005526509208721e-05, -2.0, -2.0, 1.4731992905581137e-06, 1.7536632270775954e-06, -2.0, -2.0, -2.0], "value": [[13.0, 24.0, 21.0, 25.0, 27.0], [13.0, 24.0, 0.0, 23.0, 2.0], [0.0, 0.0, 0.0, 16.0, 0.0], [13.0, 24.0, 0.0, 7.0, 2.0], [0.0, 22.0, 0.0, 2.0, 2.0], [0.0, 22.0, 0.0, 0.0, 0.0], [0.0, 0.0, 0.0, 2.0, 2.0], [0.0, 0.0, 0.0, 2.0, 0.0], [0.0, 0.0, 0.0, 0.0, 2.0], [13.0, 2.0, 0.0, 5.0, 0.0], [13.0, 0.0, 0.0, 0.0, 0.0], [0.0, 2.0, 0.0, 5.0, 0.0], [0.0, 2.0, 0.0, 0.0, 0.0], [0.0, 0.0, 0.0, 5.0, 0.0], [0.0, 0.0, 21.0, 2.0, 25.0], [0.0, 0.0, 0.0, 2.0, 25.0], [0.0, 0.0, 0.0, 0.0, 25.0], [0.0, 0.0, 0.0, 2.0, 0.0], [0.0, 0.0, 21.0, 0.0, 0.0]]}, {"children_left": [1, 2, -1, -1, 5, 6, 7, 8, -1, 10, 11, -1, -1, -1, -1, -1, -1], "children_right": [4, 3, -1, -1, 16, 15, 14, 9, -1, 13, 12, -1, -1, -1, -1, -1, -1], "feature": [1, 14, -2, -2, 26, 14, 5, 26, -2, 6, 11, -2, -2, -2, -2, -2, -2], "threshold": [-0.0030291866278275847, 3.6165930339393526e-07, -2.0, -2.0, 1.8500887222216988e-06, 1.4910151833191776e-06, 2.3742558596495655e-05, -5.592925980124619e-07, -2.0, -8.684111207912792e-07, -1.0146372920516455e-05, -2.0, -2.0, -2.0, -2.0, -2.0, -2.0], "value": [[19.0, 20.0, 24.0, 22.0, 25.0], [19.0, 0.0, 24.0, 0.0, 0.0], [0.0, 0.0, 24.0, 0.0, 0.0], [19.0, 0.0, 0.0, 0.0, 0.0], [0.0, 20.0, 0.0, 22.0, 25.0], [0.0, 20.0, 0.0, 22.0, 1.0], [0.0, 20.0, 0.0, 9.0, 1.0], [0.0, 20.0, 0.0, 5.0, 1.0], [0.0, 0.0, 0.0, 5.0, 0.0], [0.0, 20.0, 0.0, 0.0, 1.0], [0.0, 2.0, 0.0, 0.0, 1.0], [0.0, 2.0, 0.0, 0.0, 0.0], [0.0, 0.0, 0.0, 0.0, 1.0], [0.0, 18.0, 0.0, 0.0, 0.0], [0.0, 0.0, 0.0, 4.0, 0.0], [0.0, 0.0, 0.0, 13.0, 0.0], [0.0, 0.0, 0.0, 0.0, 24.0]]}, {"children_left": [1, 2, 3, 4, -1, -1, -1, 8, -1, -1, 11, -1, 13, -1, 15, -1, -1], "children_right": [10, 7, 6, 5, -1, -1, -1, 9, -1, -1, 12, -1, 14, -1, 16, -1, -1], "feature": [23, 0, 18, 19, -2, -2, -2, 23, -2, -2, 16, -2, 1, -2, 29, -2, -2], "threshold": [1.6286315274172125e-07, 0.9765388667583466, 2.129419442553626e-06, -6.500216159111005e-06, -2.0, -2.0, -2.0, -2.624213450985735e-07, -2.0, -2.0, -5.788252650518189e-07, -2.0, 0.0004049635026603937, -2.0, 1.859324463282519e-07, -2.0, -2.0], "value": [[26.0, 24.0, 14.0, 23.0, 23.0], [0.0, 23.0, 14.0, 9.0, 23.0], [0.0, 23.0, 0.0, 9.0, 0.0], [0.0, 23.0, 0.0, 2.0, 0.0], [0.0, 0.0, 0.0, 2.0, 0.0], [0.0, 23.0, 0.0, 0.0, 0.0], [0.0, 0.0, 0.0, 7.0, 0.0], [0.0, 0.0, 14.0, 0.0, 23.0], [0.0, 0.0, 0.0, 0.0, 23.0], [0.0, 0.0, 14.0, 0.0, 0.0], [26.0, 1.0, 0.0, 14.0, 0.0], [0.0, 0.0, 0.0, 10.0, 0.0], [26.0, 1.0, 0.0, 4.0, 0.0], [26.0, 0.0, 0.0, 0.0, 0.0], [0.0, 1.0, 0.0, 4.0, 0.0], [0.0, 0.0, 0.0, 4.0, 0.0], [0.0, 1.0, 0.0, 0.0, 0.0]]}, {"children_left": [1, 2, 3, 4, -1, -1, -1, 8, -1, -1, 11, -1, 13, 14, -1, -1, -1], "children_right": [10, 7, 6, 5, -1, -1, -1, 9, -1, -1, 12, -1, 16, 15, -1, -1, -1], "feature": [5, 8, 23, 19, -2, -2, -2, 26, -2, -2, 27, -2, 14, 18, -2, -2, -2], "threshold": [1.6385151013764698e-09, -6.64074320866348e-07, 1.5237399608736268e-07, -4.171402792962908e-06, -2.0, -2.0, -2.0, -2.1330784534256964e-06, -2.0, -2.0, -1.2892849809986728e-06, -2.0, -1.8128680778772832e-07, 2.113704624662205e-06, -2.0, -2.0, -2.0], "value": [[22.0, 14.0, 25.0, 29.0, 20.0], [22.0, 14.0, 0.0, 15.0, 0.0], [0.0, 14.0, 0.0, 8.0, 0.0], [0.0, 14.0, 0.0, 4.0, 0.0], [0.0, 0.0, 0.0, 4.0, 0.0], [0.0, 14.0, 0.0, 0.0, 0.0], [0.0, 0.0, 0.0, 4.0, 0.0], [22.0, 0.0, 0.0, 7.0, 0.0], [22.0, 0.0, 0.0, 0.0, 0.0], [0.0, 0.0, 0.0, 7.0, 0.0], [0.0, 0.0, 25.0, 14.0, 20.0], [0.0, 0.0, 25.0, 0.0, 0.0], [0.0, 0.0, 0.0, 14.0, 20.0], [0.0, 0.0, 0.0, 1.0, 20.0], [0.0, 0.0, 0.0, 0.0, 20.0], [0.0, 0.0, 0.0, 1.0, 0.0], [0.0, 0.0, 0.0, 13.0, 0.0]]}, {"children_left": [1, -1, 3, -1, 5, -1, 7, 8, -1, 10, -1, 12, -1, -1, 15, -1, -1], "children_right": [2, -1, 4, -1, 6, -1, 14, 9, -1, 11, -1, 13, -1, -1, 16, -1, -1], "feature": [26, -2, 27, -2, 13, -2, 26, 3, -2, 3, -2, 24, -2, -2, 17, -2, -2], "threshold": [-1.981561297270673e-06, -2.0, -1.6179285466932924e-06, -2.0, -9.000735644804081e-06, -2.0, 1.3381270775880694e-06, -6.251069498830475e-05, -2.0, 0.00010942018707282841, -2.0, -1.6306466932292096e-06, -2.0, -2.0, -4.606254762506978e-06, -2.0, -2.0], "value": [[20.0, 24.0, 25.0, 23.0, 18.0], [20.0, 0.0, 0.0, 0.0, 0.0], [0.0, 24.0, 25.0, 23.0, 18.0], [0.0, 0.0, 25.0, 0.0, 0.0], [0.0, 24.0, 0.0, 23.0, 18.0], [0.0, 0.0, 0.0, 14.0, 0.0], [0.0, 24.0, 0.0, 9.0, 18.0], [0.0, 24.0, 0.0, 6.0, 0.0], [0.0, 0.0, 0.0, 3.0, 0.0], [0.0, 24.0, 0.0, 3.0, 0.0], [0.0, 23.0, 0.0, 0.0, 0.0], [0.0, 1.0, 0.0, 3.0, 0.0], [0.0, 0.0, 0.0, 3.0, 0.0], [0.0, 1.0, 0.0, 0.0, 0.0], [0.0, 0.0, 0.0, 3.0, 18.0], [0.0, 0.0, 0.0, 3.0, 0.0], [0.0, 0.0, 0.0, 0.0, 18.0]]}, {"children_left": [1, 2, 3, -1, -1, 6, -1, -1, 9, 10, 11, 12, -1, -1, -1, -1, 17, -1, -1], "children_right": [8, 5, 4, -1, -1, 7, -1, -1, 16, 15, 14, 13, -1, -1, -1, -1, 18, -1, -1], "feature": [5, 8, 9, -2, -2, 21, -2, -2, 4, 0, 27, 7, -2, -2, -2, -2, 10, -2, -2], "threshold": [-4.118848153211729e-06, -5.411486085904471e-06, 4.888621219834022e-06, -2.0, -2.0, -9.203175750371884e-06, -2.0, -2.0, 1.475627811942104e-06, 0.9997352659702301, 7.916068511804042e-07, -1.594625655343407e-05, -2.0, -2.0, -2.0, -2.0, 1.867162572466441e-05, -2.0, -2.0], "value": [[20.0, 36.0, 19.0, 17.0, 18.0], [0.0, 32.0, 0.0, 10.0, 0.0], [0.0, 31.0, 0.0, 1.0, 0.0], [0.0, 31.0, 0.0, 0.0, 0.0], [0.0, 0.0, 0.0, 1.0, 0.0], [0.0, 1.0, 0.0, 9.0, 0.0], [0.0, 1.0, 0.0, 0.0, 0.0], [0.0, 0.0, 0.0, 9.0, 0.0], [20.0, 4.0, 19.0, 7.0, 18.0], [20.0, 4.0, 0.0, 6.0, 18.0], [0.0, 4.0, 0.0, 6.0, 18.0], [0.0, 4.0, 0.0, 6.0, 0.0], [0.0, 4.0, 0.0, 0.0, 0.0], [0.0, 0.0, 0.0, 6.0, 0.0], [0.0, 0.0, 0.0, 0.0, 18.0], [20.0, 0.0, 0.0, 0.0, 0.0], [0.0, 0.0, 19.0, 1.0, 0.0], [0.0, 0.0, 19.0, 0.0, 0.0], [0.0, 0.0, 0.0, 1.0, 0.0]]}, {"children_left": [1, 2, -1, 4, -1, -1, 7, -1, 9, -1, 11, -1, 13, -1, -1], "children_right": [6, 3, -1, 5, -1, -1, 8, -1, 10, -1, 12, -1, 14, -1, -1], "feature": [1, 0, -2, 1, -2, -2, 0, -2, 17, -2, 6, -2, 29, -2, -2], "threshold": [0.00042581651359796524, 0.9997284710407257, -2.0, -0.0030315646436065435, -2.0, -2.0, 0.9522962272167206, -2.0, -2.6857707666749775e-06, -2.0, -4.750777679873863e-05, -2.0, 2.563871746019686e-07, -2.0, -2.0], "value": [[14.0, 17.0, 23.0, 24.0, 32.0], [14.0, 0.0, 23.0, 0.0, 32.0], [0.0, 0.0, 0.0, 0.0, 32.0], [14.0, 0.0, 23.0, 0.0, 0.0], [14.0, 0.0, 0.0, 0.0, 0.0], [0.0, 0.0, 23.0, 0.0, 0.0], [0.0, 17.0, 0.0, 24.0, 0.0], [0.0, 0.0, 0.0, 14.0, 0.0], [0.0, 17.0, 0.0, 10.0, 0.0], [0.0, 0.0, 0.0, 7.0, 0.0], [0.0, 17.0, 0.0, 3.0, 0.0], [0.0, 0.0, 0.0, 2.0, 0.0], [0.0, 17.0, 0.0, 1.0, 0.0], [0.0, 17.0, 0.0, 0.0, 0.0], [0.0, 0.0, 0.0, 1.0, 0.0]]}, {"children_left": [1, -1, 3, 4, 5, 6, -1, -1, 9, -1, 11, -1, -1, -1, 15, -1, -1], "children_right": [2, -1, 14, 13, 8, 7, -1, -1, 10, -1, 12, -1, -1, -1, 16, -1, -1], "feature": [27, -2, 9, 0, 7, 15, -2, -2, 12, -2, 11, -2, -2, -2, 9, -2, -2], "threshold": [-1.6179285466932924e-06, -2.0, 1.2064581937920593e-06, 0.9782512784004211, -1.3475760169967543e-05, -1.7692990347484283e-05, -2.0, -2.0, 1.5458149391633924e-05, -2.0, -7.135090527299326e-06, -2.0, -2.0, -2.0, 6.0746246504095325e-06, -2.0, -2.0], "value": [[22.0, 30.0, 21.0, 22.0, 15.0], [0.0, 0.0, 21.0, 0.0, 0.0], [22.0, 30.0, 0.0, 22.0, 15.0], [0.0, 30.0, 0.0, 15.0, 15.0], [0.0, 30.0, 0.0, 15.0, 0.0], [0.0, 27.0, 0.0, 1.0, 0.0], [0.0, 0.0, 0.0, 1.0, 0.0], [0.0, 27.0, 0.0, 0.0, 0.0], [0.0, 3.0, 0.0, 14.0, 0.0], [0.0, 0.0, 0.0, 13.0, 0.0], [0.0, 3.0, 0.0, 1.0, 0.0], [0.0, 0.0, 0.0, 1.0, 0.0], [0.0, 3.0, 0.0, 0.0, 0.0], [0.0, 0.0, 0.0, 0.0, 15.0], [22.0, 0.0, 0.0, 7.0, 0.0], [22.0, 0.0, 0.0, 0.0, 0.0], [0.0, 0.0, 0.0, 7.0, 0.0]]}, {"children_left": [1, 2, -1, 4, 5, -1, -1, -1, 9, 10, 11, 12, -1, -1, -1, -1, 17, -1, -1], "children_right": [8, 3, -1, 7, 6, -1, -1, -1, 16, 15, 14, 13, -1, -1, -1, -1, 18, -1, -1], "feature": [18, 26, -2, 6, 15, -2, -2, -2, 10, 10, 0, 14, -2, -2, -2, -2, 13, -2, -2], "threshold": [-4.771568171690888e-07, -1.5201733276626328e-06, -2.0, 3.3715242352627683e-05, 3.388544064364396e-05, -2.0, -2.0, -2.0, 1.7731038326473936e-06, -3.7523727769439574e-07, 0.9782731235027313, -6.142613528936636e-06, -2.0, -2.0, -2.0, -2.0, 1.5620921658410225e-06, -2.0, -2.0], "value": [[28.0, 20.0, 14.0, 29.0, 19.0], [28.0, 3.0, 0.0, 12.0, 0.0], [28.0, 0.0, 0.0, 0.0, 0.0], [0.0, 3.0, 0.0, 12.0, 0.0], [0.0, 1.0, 0.0, 12.0, 0.0], [0.0, 0.0, 0.0, 12.0, 0.0], [0.0, 1.0, 0.0, 0.0, 0.0], [0.0, 2.0, 0.0, 0.0, 0.0], [0.0, 17.0, 14.0, 17.0, 19.0], [0.0, 1.0, 14.0, 3.0, 19.0], [0.0, 1.0, 14.0, 3.0, 0.0], [0.0, 1.0, 0.0, 3.0, 0.0], [0.0, 1.0, 0.0, 0.0, 0.0], [0.0, 0.0, 0.0, 3.0, 0.0], [0.0, 0.0, 14.0, 0.0, 0.0], [0.0, 0.0, 0.0, 0.0, 19.0], [0.0, 16.0, 0.0, 14.0, 0.0], [0.0, 0.0, 0.0, 14.0, 0.0], [0.0, 16.0, 0.0, 0.0, 0.0]]}, {"children_left": [1, 2, 3, -1, -1, 6, 7, -1, -1, 10, 11, -1, -1, -1, -1], "children_right": [14, 5, 4, -1, -1, 9, 8, -1, -1, 13, 12, -1, -1, -1, -1], "feature": [0, 1, 20, -2, -2, 7, 13, -2, -2, 10, 1, -2, -2, -2, -2], "threshold": [0.9997520446777344, 0.0004086639964953065, 5.498315545082733e-07, -2.0, -2.0, -1.3443984698824352e-05, -8.137827080645366e-06, -2.0, -2.0, -7.957032153171895e-06, 0.004781082738190889, -2.0, -2.0, -2.0, -2.0], "value": [[26.0, 20.0, 19.0, 20.0, 25.0], [0.0, 20.0, 19.0, 20.0, 25.0], [0.0, 0.0, 19.0, 0.0, 25.0], [0.0, 0.0, 0.0, 0.0, 25.0], [0.0, 0.0, 19.0, 0.0, 0.0], [0.0, 20.0, 0.0, 20.0, 0.0], [0.0, 19.0, 0.0, 3.0, 0.0], [0.0, 0.0, 0.0, 3.0, 0.0], [0.0, 19.0, 0.0, 0.0, 0.0], [0.0, 1.0, 0.0, 17.0, 0.0], [0.0, 1.0, 0.0, 2.0, 0.0], [0.0, 1.0, 0.0, 0.0, 0.0], [0.0, 0.0, 0.0, 2.0, 0.0], [0.0, 0.0, 0.0, 15.0, 0.0], [26.0, 0.0, 0.0, 0.0, 0.0]]}, {"children_left": [1, 2, 3, -1, 5, -1, -1, 8, -1, 10, -1, 12, -1, -1, 15, -1, 17, -1, -1], "children_right": [14, 7, 4, -1, 6, -1, -1, 9, -1, 11, -1, 13, -1, -1, 16, -1, 18, -1, -1], "feature": [23, 5, 3, -2, 25, -2, -2, 1, -2, 12, -2, 11, -2, -2, 1, -2, 0, -2, -2], "threshold": [1.35372552723112e-07, -3.964150657509435e-06, 7.74817708588671e-05, -2.0, -5.556957376029459e-06, -2.0, -2.0, -0.0030291866278275847, -2.0, 1.0182006278114386e-06, -2.0, 2.6751737323138514e-06, -2.0, -2.0, 0.0004049635026603937, -2.0, 0.9549316167831421, -2.0, -2.0], "value": [[20.0, 27.0, 21.0, 22.0, 20.0], [0.0, 25.0, 21.0, 12.0, 20.0], [0.0, 23.0, 0.0, 7.0, 0.0], [0.0, 22.0, 0.0, 0.0, 0.0], [0.0, 1.0, 0.0, 7.0, 0.0], [0.0, 1.0, 0.0, 0.0, 0.0], [0.0, 0.0, 0.0, 7.0, 0.0], [0.0, 2.0, 21.0, 5.0, 20.0], [0.0, 0.0, 21.0, 0.0, 0.0], [0.0, 2.0, 0.0, 5.0, 20.0], [0.0, 0.0, 0.0, 0.0, 20.0], [0.0, 2.0, 0.0, 5.0, 0.0], [0.0, 0.0, 0.0, 5.0, 0.0], [0.0, 2.0, 0.0, 0.0, 0.0], [20.0, 2.0, 0.0, 10.0, 0.0], [20.0, 0.0, 0.0, 0.0, 0.0], [0.0, 2.0, 0.0, 10.0, 0.0], [0.0, 0.0, 0.0, 10.0, 0.0], [0.0, 2.0, 0.0, 0.0, 0.0]]}, {"children_left": [1, 2, 3, -1, -1, -1, 7, -1, 9, 10, -1, 12, -1, -1, -1], "children_right": [6, 5, 4, -1, -1, -1, 8, -1, 14, 11, -1, 13, -1, -1, -1], "feature": [1, 1, 6, -2, -2, -2, 17, -2, 5, 11, -2, 12, -2, -2, -2], "threshold": [0.0004086639964953065, -0.0030291868606582284, 1.2626228835799225e-06, -2.0, -2.0, -2.0, -2.5819568350016198e-06, -2.0, 2.260866142478335e-05, 7.381264106598451e-07, -2.0, 2.52553962809543e-06, -2.0, -2.0, -2.0], "value": [[20.0, 22.0, 18.0, 27.0, 23.0], [20.0, 0.0, 18.0, 0.0, 23.0], [20.0, 0.0, 18.0, 0.0, 0.0], [0.0, 0.0, 18.0, 0.0, 0.0], [20.0, 0.0, 0.0, 0.0, 0.0], [0.0, 0.0, 0.0, 0.0, 23.0], [0.0, 22.0, 0.0, 27.0, 0.0], [0.0, 0.0, 0.0, 20.0, 0.0], [0.0, 22.0, 0.0, 7.0, 0.0], [0.0, 22.0, 0.0, 1.0, 0.0], [0.0, 14.0, 0.0, 0.0, 0.0], [0.0, 8.0, 0.0, 1.0, 0.0], [0.0, 0.0, 0.0, 1.0, 0.0], [0.0, 8.0, 0.0, 0.0, 0.0], [0.0, 0.0, 0.0, 6.0, 0.0]]}, {"children_left": [1, 2, 3, 4, 5, -1, -1, -1, 9, 10, -1, -1, 13, -1, -1, -1, 17, -1, -1], "children_right": [16, 15, 8, 7, 6, -1, -1, -1, 12, 11, -1, -1, 14, -1, -1, -1, 18, -1, -1], "feature": [28, 0, 16, 2, 4, -2, -2, -2, 9, 3, -2, -2, 6, -2, -2, -2, 27, -2, -2], "threshold": [3.5955572741386277e-07, 0.9997352659702301, -6.817352584675973e-07, -4.4852269184048055e-05, -0.00012273705942789093, -2.0, -2.0, -2.0, -5.026968210586347e-06, 0.00015807672025403008, -2.0, -2.0, 2.6579805819437752e-05, -2.0, -2.0, -2.0, -1.2364961463617874e-06, -2.0, -2.0], "value": [[25.0, 23.0, 24.0, 19.0, 19.0], [25.0, 23.0, 0.0, 13.0, 19.0], [0.0, 23.0, 0.0, 13.0, 19.0], [0.0, 19.0, 0.0, 9.0, 0.0], [0.0, 19.0, 0.0, 1.0, 0.0], [0.0, 0.0, 0.0, 1.0, 0.0], [0.0, 19.0, 0.0, 0.0, 0.0], [0.0, 0.0, 0.0, 8.0, 0.0], [0.0, 4.0, 0.0, 4.0, 19.0], [0.0, 2.0, 0.0, 4.0, 0.0], [0.0, 0.0, 0.0, 4.0, 0.0], [0.0, 2.0, 0.0, 0.0, 0.0], [0.0, 2.0, 0.0, 0.0, 19.0], [0.0, 0.0, 0.0, 0.0, 19.0], [0.0, 2.0, 0.0, 0.0, 0.0], [25.0, 0.0, 0.0, 0.0, 0.0], [0.0, 0.0, 24.0, 6.0, 0.0], [0.0, 0.0, 24.0, 0.0, 0.0], [0.0, 0.0, 0.0, 6.0, 0.0]]}, {"children_left": [1, 2, -1, 4, 5, -1, -1, 8, -1, -1, 11, -1, 13, 14, 15, -1, -1, -1, 19, -1, -1], "children_right": [10, 3, -1, 7, 6, -1, -1, 9, -1, -1, 12, -1, 18, 17, 16, -1, -1, -1, 20, -1, -1], "feature": [6, 1, -2, 21, 16, -2, -2, 15, -2, -2, 26, -2, 18, 20, 19, -2, -2, -2, 1, -2, -2], "threshold": [1.1603133218685002e-06, -0.0030291854636743665, -2.0, -5.401891556289229e-07, 1.1519021882122615e-05, -2.0, -2.0, -7.634816881818551e-06, -2.0, -2.0, -1.9523034779922455e-06, -2.0, -2.4843400581175956e-07, 3.263524135377338e-07, 4.7277345629481715e-06, -2.0, -2.0, -2.0, 0.004577443236485124, -2.0, -2.0], "value": 